tree
version=v4
num_class=1
num_tree_per_iteration=1
label_index=0
max_feature_idx=17
objective=regression
feature_names=manage_cost floor all_floors area_m2 bathroom_count movein_date dist_subway dist_pharmacy dist_conv dist_bus dist_mart dist_laundry dist_cafe room_quality_score bath_clean_score building_age is_first_floor relative_floor
feature_infos=[0:47] [-1:25] [1:26] [2:119.13] [1:2] [0:236] [0:3298] [0:972] [0:1437] [0:3081] [0:3679] [0:1410] [0:1043] [0.42165970802307129:0.61447089910507202] [0.48213926000000001:0.56381320000000001] [0:89] [0:1] [-1:3]
tree_sizes=2706 2947 2949 2945 2950 2947 2957 2951 2945 2952 2954 2959 2940 2955 2948 2949 2954 2958 2947 2953 2955 2936 2954 2948 2949 2959 2959 2955 2950 2948 2950 2956 2949 2953 2954 2957 2960 2956 2952 2965 2957 2970 2963 2967 2944 2963 2948 2960 2952 2976 2952 2953 2938 2954 2940 2959 2940 2944 2951 2951 2958 2968 2950 2961 2958 2955 2950 2952 2953 2953 2951 2954 2965 2958 2952 2964 2956 2958 2970 2948 2958 2963 2955 2954 2950 2959 2961 2947 2952 2964 2945 2964 2959 2959 2965 2952 2962 2953 2955 2964 2970 2944 2961 2959 2964 2952 2951 2968 2964 2970 2968 2948 2978 2961 2967 2971 2964 2969 2961 2976 2974 2957 2952 2972 2971 2978 2959 2973 2982 2971 2971 2961 2974 2969 2967 2979 2955 2973 2970 2970 2963 2969 2962 2948 2962 2966 2953 2974 2956 2951 2972 2975 2981 2966 2978 2970 2967 2967 2969 2968 2979 2991 2959 2965 2971 2987 2970 2973 2966 2948 2976 2972 2968 2983 2976 2983 2976 2973 2966 2983 2975 2982 2969 2969 2973 2964 2983 2963 2973 2961 2970 2982 2960 2971 2928 2970 2944 2951 2967 2969 2955 2960 2971 2957 2953 2970 2956 2976 2978 2958 2978 2975 2956 2972 2969 2957 2955 2967 2954 2982 2953 2955 2961 2964 2976 2958 2961 2966 2960 2968 2964 2971 2972 2965 2967 2961 2972 2955 2956 2969 2959 2955 2956 2960 2940 2951 2951 2964 2952 2962 2946 2952 2954 2960 2957 2990 2947 2938 2952 2936 2945 2947 2967 2964 2953 2948 2953 2979 2976 2962 2939 2977 2937 2941 2972 2968 2952 2972 2969 2960 2952 2960 2954 2969 2942 2948 2955 2960 2966 2959 2948 2957 2952 2960 2955 2936 2963 2961 2967 2925 2936 2958 2961 2957 2947 2951 2962 2956 2961 2939 2961 2949 2964 2940 2984 2957 2971 2929 2969 2962 2935 2939 2965 2954 2964 2950 2958 2936 2945 2928 2965 2981 2933 2951 2941 2956 2952 2994 2949 2945 2965 2946 2981 2954 2946 2949 2954 2969 2935 2946 2965 2933 2946 2955 2968 2949 2952 2989 2957 2952 2957 2973 2927 2970 2946 2945 2947 2970 2939 2959 2979 2965 2950 2952 2963 2946 2928 2956 2946 2968 2937 2960 2970 2932 2939 2986 2952 2943 2963 2960 2979 2930 2971 2965 3003 2967 2941 2958 2970 2991 2971 2971 2974 3004 3004 2937 2998 2968 2950 2973 2932 2968 3013 2963 2983 2961 3003 2970 2945 2961 2973 2952 2985 2933 2983 3004 2939 2948 2995 2954 2985 2958 2980 2950 2947 2972 2963 2955 2958 2946 2986 2942 2964 2950 2986 2966 2964 2954 2926 2947 2961 2934 2966 2946 2971 2938 2981 2955 2925 2972 2936 2976 2947 2947 2971 2954 2963 2934 2935 2972 2956 2935 2967 2964 2941 2936 2971 2933 2956 2957 2951 2975 2999 2937 2960 2939 2947 2970 2950 2923 2955 2961 2950 2957 2932 2928 2944 2935 2963 2929 2972 2945 2966 2915 2912 2947 2955 2955 2957 2949 2918 2915 2956 2977 2968 2940 2981 2927 2956 2961 2941 2950 2948 2959 2963 2948 2938 2931 2902 2950 2956 2959 2911 2970 2943 2913 2924 2959 2952 2921 2944 2959 2922 2955 2924 2943 2949 2952 2944 2917 2915 2974 2957 2939 2935 2956 2913 2906 2906 2943 2923 2957 2927 2946 2928 2932 2927 2942 2905 2931 2955 2946 2944 2938 2917 2952 2929 2905 2956 2908 2911 2942 2909 2926 2923 2943 2976 2942 2918 2928 2960 2926 2932 2887 2951 2953 2937 2933 2927 2940 2903 2911 2926 2938 2965 2950 2911 2938 2940 2948 2945 2914 2937 2951 2933 2907 2935 2918 2945 2931 2945 2925 2936 2944 2927 2916 2892 2922 2943 2949 2938 2916 2940 2942 2943 2923 2951 2907 2916 2933 2927 2921 2953 2914 2939 2921 2936 2922 2934 2912 2916 2936 2923 2908 2922 2938 2946 2928 2915 2921 2928 2955 2909 2952 2940 2909 2927 2920 2919 2937 2901 2932 2927 2914 2953 2908 2925 2938 2922 2911 2927 2916 2932 2919 2915 2945 2929 2918 2941 2932 2938 2928 2885 2922 2905 2924 2926 2954 2930 2913 2918 2924 2892 2917 2972 2932 2926 2929 2930 2952 2884 2931 2974 2922 2944 2940 2975 2929 2916 2910 2924 2934 2929 2972 2936 2914 2903 2944 2919 2923 2941 2907 2919 2968 2915 2910 2918 2927 2924 2931 2915 2943 2916 2921 2911 2953 2920 2905 2933 2919 2892 2911 2920 2935 2957 2958 2924 2912 2912 2913 2912 2958 2908 2903 2970 2912 2897 2906 2914 2903 2911 2932 2947 2913 2921 2912 2931 2915 2921 2953 2891 2929 2917 2916 2909 2951 2885 2924 2904 2932 2899 2921 2927 2925 2913 2894 2919 2906 2912 2926 2911 2925 2951 2902 2922 2958 2946 2917 2910 2902 2897 2919 2920 2956 2937 2964 2937 2890 2925 2907 2914 2930 2940 2897 2956 2918 2935 2906 2933 2930 2914 2910 2943 2938 2940 2929 2944 2944 2891 2919 2944 2930 2894 2917 2938 2914 2906 2918 2932 2928 2942 2955 2938 2900 2922 2913 2900 2936 2905 2970 2926 2944 2947 2910 2914 2921 2913 2925 2939 2899 2935 2900 2940 2913 2939 2954 2896 2960 2938 2940 2910 2941 2922 2911 2940 2913 2942 2920 2925 2903 2923 2938 2952 2932 2906 2916 2942 2911 2939 2899 2926 2953 2914 2947 2938 2910 2946 2936 2922 2920 2943 2939 2951 2939 2922 2940 2899 2950 2895 2943 2945 2912 2917 2927 2951 2902 2920 2910 2925 2962 2919 2932 2947 2921 2947 2923 2918 2939 2915 2938 2951 2951 2920 2931 2949 2921 2923 2916 2920 2933 2946 2960 2935 2909 2900 2907 2910 2910 2954 2930 2939 2944 2901 2928 2928 2946 2916 2898 2906 2891 2954 2947 2911 2916 2939 2943 2952 2901 2916 2951 2946 2956 2955 2942 2920 2938 2906 2943 2938 2966 2921 2941 2937 2950 2953 2922 2913 2953 2918 2940

Tree=0
num_leaves=31
num_cat=0
split_feature=3 3 0 15 0 10 9 5 9 15 2 3 17 9 2 17 10 17 0 15 2 15 15 2 9 3 5 12 15 12
split_gain=259.739 75.7582 66.1304 39.4117 37.7612 29.1548 24.2488 23.51 17.421 16.3218 14.8731 13.7196 13.1971 13.8472 11.8175 11.2893 11.0666 10.8655 9.1213 8.87778 8.09813 7.66727 7.41041 7.27075 6.80517 5.86094 5.38101 5.34939 5.18731 5.05557
threshold=26.455000000000002 20.005000000000006 4.5000000000000009 6.5000000000000009 3.5000000000000004 1862.5000000000002 133.50000000000003 14.500000000000002 183.50000000000003 13.500000000000002 3.5000000000000004 23.925000000000004 0.13392857142857142 120.50000000000001 3.5000000000000004 0.14642857142857144 1402.5000000000002 0.14642857142857144 9.5000000000000018 13.500000000000002 4.5000000000000009 13.500000000000002 54.500000000000007 7.5000000000000009 162.50000000000003 17.005000000000006 15.500000000000002 185.50000000000003 27.500000000000004 124.50000000000001
decision_type=2 2 2 2 2 2 2 2 2 2 2 2 2 2 2 2 2 2 2 2 2 2 2 2 2 2 2 2 2 2
left_child=1 3 14 -1 10 8 16 12 9 -6 -3 20 -5 -14 -2 -8 -4 -9 -17 -15 -10 -22 25 -23 -12 -21 28 -20 -11 -7
right_child=2 4 6 7 5 29 15 17 11 26 24 -13 13 19 -16 18 -18 -19 27 22 21 23 -24 -25 -26 -27 -28 -29 -30 -31
leaf_value=4.010676183293433 4.0080798582610164 4.0068243498133285 4.0117901979164481 4.006304498007359 4.010772264832597 4.0081579508311371 4.0106504581806117 4.0062803863333398 4.0095719448839073 4.0077593958569491 4.0076805452246393 4.0117733862139149 4.0069016889402578 4.0090182162517953 4.0109093107292049 4.0130338468618731 4.0079941410895872 4.0094124518297001 4.014665002242654 4.0071164473886078 4.0119424947258713 4.0106929076345947 4.0092405554436583 4.0079581077996256 4.0105719081527793 4.0080863874656441 4.0103724646736101 4.0094278706975892 4.0093300397741736 4.0048999583964928
leaf_weight=598 345 543 331 596 592 84 124 121 891 529 131 889 1127 921 258 813 100 1309 786 1017 407 531 360 119 215 1608 161 20 349 110
leaf_count=598 345 543 331 596 592 84 124 121 891 529 131 889 1127 921 258 813 100 1309 786 1017 407 531 360 119 215 1608 161 20 349 110
internal_value=4.00944 4.00886 4.01222 4.00821 4.00975 4.01011 4.01303 4.008 4.01027 4.00945 4.00786 4.01074 4.00771 4.00788 4.00929 4.01356 4.01091 4.00915 4.01378 4.00816 4.01027 4.01087 4.0079 4.01019 4.00948 4.00771 4.00869 4.01454 4.00838 4.00631
internal_weight=15985 13208 2777 7657 5551 4662 2174 7059 4468 1631 889 2837 5629 5033 603 1743 431 1430 1619 3906 1948 1057 2985 650 346 2625 1039 806 878 194
internal_count=15985 13208 2777 7657 5551 4662 2174 7059 4468 1631 889 2837 5629 5033 603 1743 431 1430 1619 3906 1948 1057 2985 650 346 2625 1039 806 878 194
is_linear=0
shrinkage=1


Tree=1
num_leaves=31
num_cat=0
split_feature=3 3 0 15 0 10 9 5 9 15 2 3 17 9 2 17 10 17 0 15 2 15 15 2 9 3 5 12 15 12
split_gain=254.57 74.2506 64.8144 38.6274 37.0097 28.5746 23.7662 23.0421 17.0743 15.997 14.5771 13.4466 12.9345 13.5716 11.5823 11.0646 10.8464 10.6493 8.93979 8.70111 7.93698 7.51469 7.26294 7.12606 6.66975 5.74431 5.27393 5.24294 5.08408 4.95497
threshold=26.455000000000002 20.005000000000006 4.5000000000000009 6.5000000000000009 3.5000000000000004 1862.5000000000002 133.50000000000003 14.500000000000002 183.50000000000003 13.500000000000002 3.5000000000000004 23.925000000000004 0.13392857142857142 120.50000000000001 3.5000000000000004 0.14642857142857144 1402.5000000000002 0.14642857142857144 9.5000000000000018 13.500000000000002 4.5000000000000009 13.500000000000002 54.500000000000007 7.5000000000000009 162.50000000000003 17.005000000000006 15.500000000000002 185.50000000000003 27.500000000000004 124.50000000000001
decision_type=2 2 2 2 2 2 2 2 2 2 2 2 2 2 2 2 2 2 2 2 2 2 2 2 2 2 2 2 2 2
left_child=1 3 14 -1 10 8 16 12 9 -6 -3 20 -5 -14 -2 -8 -4 -9 -17 -15 -10 -22 25 -23 -12 -21 28 -20 -11 -7
right_child=2 4 6 7 5 29 15 17 11 26 24 -13 13 19 -16 18 -18 -19 27 22 21 23 -24 -25 -26 -27 -28 -29 -30 -31
leaf_value=0.0012232351829500302 -0.0013471266133575769 -0.0025900799475102577 0.0023261097006660146 -0.0031047332443721945 0.0013183559415227972 -0.001269814943384734 0.0011977673494426024 -0.0031286037251476414 0.00013003918320864572 -0.0016643843046893034 -0.0017424464431939691 0.0023094661084513933 -0.0025135141743985218 -0.00041815216601414186 0.0014540313523084057 0.0035573221721914385 -0.0014319865266559646 -2.7858932590101596e-05 0.0051721659742305229 -0.0023009032746680786 0.0024768834849401935 0.0012397923682422355 -0.00019803639863837615 -0.0014676595712471911 0.0011200028857172922 -0.0013406626338396043 0.00092255378548368255 -1.2594157829880714e-05 -0.00010944683062056757 -0.0044952274904671045
leaf_weight=598 345 543 331 596 592 84 124 121 891 529 131 889 1127 921 258 813 100 1309 786 1017 407 531 360 119 215 1608 161 20 349 110
leaf_count=598 345 543 331 596 592 84 124 121 891 529 131 889 1127 921 258 813 100 1309 786 1017 407 531 360 119 215 1608 161 20 349 110
internal_value=5.01945e-12 -0.000578651 0.00275219 -0.00121704 0.000301942 0.000658505 0.00355678 -0.00142377 0.000821641 6.34067e-06 -0.00156791 0.00129036 -0.00171174 -0.00154678 -0.000148621 0.0040767 0.00145416 -0.00029023 0.0042972 -0.00126785 0.000825275 0.00141132 -0.00153002 0.00074412 3.62432e-05 -0.00171269 -0.000741218 0.00504351 -0.00104631 -0.00309866
internal_weight=15985 13208 2777 7657 5551 4662 2174 7059 4468 1631 889 2837 5629 5033 603 1743 431 1430 1619 3906 1948 1057 2985 650 346 2625 1039 806 878 194
internal_count=15985 13208 2777 7657 5551 4662 2174 7059 4468 1631 889 2837 5629 5033 603 1743 431 1430 1619 3906 1948 1057 2985 650 346 2625 1039 806 878 194
is_linear=0
shrinkage=0.01


Tree=2
num_leaves=31
num_cat=0
split_feature=3 3 0 15 2 9 0 17 5 15 10 2 9 9 2 17 10 3 9 15 10 0 1 10 15 6 3 0 3 7
split_gain=249.504 72.7752 63.5246 37.7317 36.3255 23.2933 22.7362 22.5931 22.5342 20.3167 19.6087 16.0108 13.4261 11.5648 11.3519 10.8444 10.6306 10.3508 9.632 8.95672 8.87359 8.73187 7.50692 7.45433 7.112 6.53627 5.63685 5.36656 5.04252 4.88471
threshold=26.455000000000002 20.070000000000004 4.5000000000000009 6.5000000000000009 4.5000000000000009 133.50000000000003 3.5000000000000004 0.13392857142857142 14.500000000000002 13.500000000000002 1772.0000000000002 6.5000000000000009 120.50000000000001 172.50000000000003 3.5000000000000004 0.14642857142857144 1402.5000000000002 23.925000000000004 137.50000000000003 13.500000000000002 1862.5000000000002 9.5000000000000018 1.0000000180025095e-35 1862.5000000000002 54.500000000000007 637.50000000000011 17.005000000000006 9.5000000000000018 14.210000000000003 267.50000000000006
decision_type=2 2 2 2 2 2 2 2 2 2 2 2 2 2 2 2 2 2 2 2 2 2 2 2 2 2 2 2 2 2
left_child=1 3 14 -1 6 16 22 -5 12 23 13 18 -9 -8 -2 -7 29 -15 -11 -14 21 -17 -3 27 26 -24 -21 -6 -10 -4
right_child=2 4 5 7 9 15 10 8 28 11 -12 -13 19 17 -16 20 -18 -19 -20 24 -22 -23 25 -25 -26 -27 -28 -29 -30 -31
leaf_value=0.0012056903011118873 -0.0013336552683722929 -0.0037628205146600481 0.0028031513135050928 -0.003114246938799249 0.0018091055936831839 0.0011857896865006795 -0.00092821221240030837 -0.0024853126743607937 -0.0020929251670999552 -0.00073503596299972205 -0.0038062854568660259 -0.0010728688122106571 -0.00039181772751889547 0.00015315192542219349 0.0014394911087854485 0.0036376320726842762 -0.0014176667194580658 0.0019908282225565175 0.0015609870372298796 -0.002277894258598047 -0.00017511953515085308 0.0051268231923041309 -0.00065670187020814435 -0.0017240537117080143 -0.00019605601945335769 -0.0030092487601161171 -0.0013277036802108581 0.0032928274576743584 0.00012418383145769275 -0.00064685252218623648
leaf_weight=600 345 186 283 698 734 124 561 1129 112 232 125 510 932 903 258 792 100 464 860 1017 44 783 359 48 360 176 1617 365 1220 48
leaf_count=600 345 186 283 698 734 124 561 1129 112 232 125 510 932 903 258 792 100 464 860 1017 44 783 359 48 360 176 1617 365 1220 48
internal_value=1.86694e-11 -0.000572864 0.00272466 -0.00120214 0.000302739 0.00352121 -0.000504593 -0.00140605 -0.00121937 0.00111741 3.1918e-05 0.000389986 -0.00152427 0.000280764 -0.000147135 0.00403594 0.00143962 0.000776913 0.00107319 -0.0012479 0.00425423 0.00437797 -0.00203227 0.0021334 -0.00151439 -0.00143062 -0.00169458 0.00230188 -6.22397e-05 0.00230285
internal_weight=15985 13208 2777 7685 5523 2174 2774 7085 6387 2749 2053 1602 5055 1928 603 1743 431 1367 1092 3926 1619 1575 721 1147 2994 535 2634 1099 1332 331
internal_count=15985 13208 2777 7685 5523 2174 2774 7085 6387 2749 2053 1602 5055 1928 603 1743 431 1367 1092 3926 1619 1575 721 1147 2994 535 2634 1099 1332 331
is_linear=0
shrinkage=0.01


Tree=3
num_leaves=31
num_cat=0
split_feature=3 3 0 15 0 10 9 5 9 15 2 3 17 9 2 17 10 17 10 0 15 15 15 9 17 3 11 5 15 0
split_gain=244.539 71.3294 62.2605 37.1076 35.5502 27.5064 22.8298 22.1298 16.4825 15.316 14.101 13.0038 12.4175 13.0364 11.126 10.6286 10.419 10.2519 8.697 8.5581 8.35482 7.72124 6.97673 6.4923 5.76567 5.51801 5.22751 5.1676 4.98144 4.90978
threshold=26.455000000000002 20.005000000000006 4.5000000000000009 6.5000000000000009 3.5000000000000004 1862.5000000000002 133.50000000000003 14.500000000000002 183.50000000000003 13.500000000000002 3.5000000000000004 23.925000000000004 0.13392857142857142 120.50000000000001 3.5000000000000004 0.14642857142857144 1402.5000000000002 0.14642857142857144 1862.5000000000002 9.5000000000000018 13.500000000000002 5.5000000000000009 54.500000000000007 162.50000000000003 0.37980769230769235 17.005000000000006 20.500000000000004 15.500000000000002 27.500000000000004 9.5000000000000018
decision_type=2 2 2 2 2 2 2 2 2 2 2 2 2 2 2 2 2 2 2 2 2 2 2 2 2 2 2 2 2 2
left_child=1 3 14 -1 10 8 16 12 9 -6 -3 21 -5 -14 -2 -8 -4 -9 19 -17 29 -10 25 -12 -23 -22 -26 28 -11 -15
right_child=2 4 6 7 5 -7 15 17 11 27 23 -13 13 20 -16 18 -18 -19 -20 -21 22 24 -24 -25 26 -27 -28 -29 -30 -31
leaf_value=0.0011989460098762556 -0.0013203187279835127 -0.0025419913227438351 0.0022798201639688464 -0.0030425434949614056 0.0012882184753382447 -0.0030408387138153017 0.001173931783451999 -0.0030694980516044563 0.0029277203343105003 -0.0016408455815857905 -0.0017137770182701923 0.002268190227722104 -0.0024635259135557665 -0.00075993674277941589 0.0014250962085058088 0.0036012557549066982 -0.0014034899841994049 -2.7162355660501621e-05 -0.00017336834010414103 0.0050755548684430782 -0.0022551153569446555 -0.00040662862112642321 -0.00019409544150564924 0.0011103381062749513 -0.002379225764585578 -0.0013139789851260983 0.0010498255536374236 0.00091987381047158511 -0.00010168429138205605 0.0011135713981876019
leaf_weight=598 345 543 331 596 592 194 124 121 158 529 131 889 1127 749 258 792 100 1309 44 783 1017 418 360 215 46 1608 1326 161 349 172
leaf_count=598 345 543 331 596 592 194 124 121 158 529 131 889 1127 749 258 792 100 1309 44 783 1017 418 360 215 46 1608 1326 161 349 172
internal_value=1.25364e-12 -0.000567136 0.00269742 -0.00119284 0.000295961 0.000645423 0.003486 -0.00139546 0.00080548 4.4328e-06 -0.00153665 0.001266 -0.00167767 -0.00151605 -0.000145664 0.00399558 0.00142522 -0.000284591 0.00421169 0.00433419 -0.00124267 0.000808641 -0.00149957 4.10922e-05 0.000621594 -0.0016786 0.000934857 -0.000727041 -0.00102904 -0.000410052
internal_weight=15985 13208 2777 7657 5551 4662 2174 7059 4468 1631 889 2837 5629 5033 603 1743 431 1430 1619 1575 3906 1948 2985 346 1790 2625 1372 1039 878 921
internal_count=15985 13208 2777 7657 5551 4662 2174 7059 4468 1631 889 2837 5629 5033 603 1743 431 1430 1619 1575 3906 1948 2985 346 1790 2625 1372 1039 878 921
is_linear=0
shrinkage=0.01


Tree=4
num_leaves=31
num_cat=0
split_feature=3 3 0 15 2 9 0 17 5 15 10 2 9 9 2 17 10 3 9 15 10 0 1 10 15 6 3 0 3 7
split_gain=239.673 69.9145 61.0215 36.2442 35.2326 22.3754 21.7605 21.7122 21.6516 19.6818 18.8864 15.5767 12.8966 11.1482 10.9046 10.4171 10.2117 9.97081 9.32553 8.60537 8.52393 8.3878 7.31456 7.1419 6.83234 6.38564 5.41355 5.25678 4.92592 4.7875
threshold=26.455000000000002 20.070000000000004 4.5000000000000009 6.5000000000000009 4.5000000000000009 133.50000000000003 3.5000000000000004 0.13392857142857142 14.500000000000002 13.500000000000002 1772.0000000000002 6.5000000000000009 120.50000000000001 172.50000000000003 3.5000000000000004 0.14642857142857144 1402.5000000000002 23.925000000000004 100.50000000000001 13.500000000000002 1862.5000000000002 9.5000000000000018 1.0000000180025095e-35 1862.5000000000002 54.500000000000007 637.50000000000011 17.005000000000006 9.5000000000000018 14.210000000000003 267.50000000000006
decision_type=2 2 2 2 2 2 2 2 2 2 2 2 2 2 2 2 2 2 2 2 2 2 2 2 2 2 2 2 2 2
left_child=1 3 14 -1 6 16 22 -5 12 23 13 18 -9 -8 -2 -7 29 -15 -11 -14 21 -17 -3 27 26 -24 -21 -6 -10 -4
right_child=2 4 5 7 9 15 10 8 28 11 -12 -13 19 17 -16 20 -18 -19 -20 24 -22 -23 25 -25 -26 -27 -28 -29 -30 -31
leaf_value=0.0011816439281275963 -0.0013071155321001465 -0.003701110413217897 0.0027523216219180204 -0.0030526623329185055 0.0017762730604687759 0.0011621924309480574 -0.00091624813351893076 -0.0024358648327001899 -0.0020679213750866309 -0.0014679100730613437 -0.0037403155422955753 -0.0010597748345257168 -0.00038397456823014483 0.00014568369928180165 0.0014108451814395231 0.0035652432236424328 -0.0013894551875069739 0.001949309942357449 0.0013952131308707537 -0.0022325641607852868 -0.00017163467932153833 0.0050247992452300636 -0.00063403564922947413 -0.0016766812780406326 -0.00019215450673881504 -0.002959317732390694 -0.0013013841686701205 0.0032447402929003696 0.00012340431741922358 -0.00066318218887317926
leaf_weight=600 345 186 283 698 734 124 561 1129 112 129 125 510 932 903 258 792 100 464 963 1017 44 783 359 48 360 176 1617 365 1220 48
leaf_count=600 345 186 283 698 734 124 561 1129 112 129 125 510 932 903 258 792 100 464 963 1017 44 783 359 48 360 176 1617 365 1220 48
internal_value=5.54159e-12 -0.000561464 0.00267044 -0.00117825 0.000296757 0.00345114 -0.000498337 -0.00137809 -0.00119509 0.00109908 2.65356e-05 0.000383112 -0.00149396 0.000270756 -0.000144207 0.00395562 0.00141097 0.000757887 0.00105699 -0.0012231 0.00416957 0.00429085 -0.00199288 0.00209907 -0.00148431 -0.00139899 -0.00166092 0.00226398 -6.08513e-05 0.00225702
internal_weight=15985 13208 2777 7685 5523 2174 2774 7085 6387 2749 2053 1602 5055 1928 603 1743 431 1367 1092 3926 1619 1575 721 1147 2994 535 2634 1099 1332 331
internal_count=15985 13208 2777 7685 5523 2174 2774 7085 6387 2749 2053 1602 5055 1928 603 1743 431 1367 1092 3926 1619 1575 721 1147 2994 535 2634 1099 1332 331
is_linear=0
shrinkage=0.01


Tree=5
num_leaves=31
num_cat=0
split_feature=3 3 0 15 2 9 0 17 5 15 10 2 9 9 2 17 10 3 9 15 10 0 1 10 15 6 3 0 3 7
split_gain=234.903 68.5232 59.8071 35.5229 34.5315 21.9302 21.3274 21.2801 21.2207 19.2901 18.5105 15.2667 12.64 10.9264 10.6876 10.2098 10.0085 9.77239 9.16034 8.43412 8.35431 8.22088 7.169 6.99978 6.69638 6.25857 5.30582 5.15217 4.8279 4.69223
threshold=26.455000000000002 20.070000000000004 4.5000000000000009 6.5000000000000009 4.5000000000000009 133.50000000000003 3.5000000000000004 0.13392857142857142 14.500000000000002 13.500000000000002 1772.0000000000002 6.5000000000000009 120.50000000000001 172.50000000000003 3.5000000000000004 0.14642857142857144 1402.5000000000002 23.925000000000004 137.50000000000003 13.500000000000002 1862.5000000000002 9.5000000000000018 1.0000000180025095e-35 1862.5000000000002 54.500000000000007 637.50000000000011 17.005000000000006 9.5000000000000018 14.210000000000003 267.50000000000006
decision_type=2 2 2 2 2 2 2 2 2 2 2 2 2 2 2 2 2 2 2 2 2 2 2 2 2 2 2 2 2 2
left_child=1 3 14 -1 6 16 22 -5 12 23 13 18 -9 -8 -2 -7 29 -15 -11 -14 21 -17 -3 27 26 -24 -21 -6 -10 -4
right_child=2 4 5 7 9 15 10 8 28 11 -12 -13 19 17 -16 20 -18 -19 -20 24 -22 -23 25 -25 -26 -27 -28 -29 -30 -31
leaf_value=0.0011698274035661597 -0.0012940444065210666 -0.0036640993476675082 0.0027247983649251288 -0.0030221356982085053 0.0017585103403148336 0.0011505705280785239 -0.00090708568478052945 -0.0024115061998468672 -0.0020472421468002724 -0.00071697826966932361 -0.0037029121825657785 -0.0010491770616476881 -0.00038013479718338903 0.00014422689922925411 0.001396736750363863 0.0035295907342794697 -0.0013755605510435997 0.0019298168394618251 0.001522123820009827 -0.0022102385776798768 -0.00016991824461993845 0.0049745513339042851 -0.00062769528968690332 -0.0016599144592570761 -0.00019023297301221949 -0.0029297245711231053 -0.0012883703759401883 0.0032122928503077884 0.00012217023911652639 -0.00065655035335415355
leaf_weight=600 345 186 283 698 734 124 561 1129 112 232 125 510 932 903 258 792 100 464 860 1017 44 783 359 48 360 176 1617 365 1220 48
leaf_count=600 345 186 283 698 734 124 561 1129 112 232 125 510 932 903 258 792 100 464 860 1017 44 783 359 48 360 176 1617 365 1220 48
internal_value=-6.27337e-12 -0.00055585 0.00264374 -0.00116646 0.00029379 0.00341663 -0.000493354 -0.00136431 -0.00118314 0.00108809 2.62702e-05 0.00037928 -0.00147902 0.000268048 -0.000142765 0.00391607 0.00139686 0.000750309 0.00104642 -0.00121087 0.00412788 0.00424794 -0.00197295 0.00207808 -0.00146947 -0.001385 -0.00164431 0.00224134 -6.02428e-05 0.00223445
internal_weight=15985 13208 2777 7685 5523 2174 2774 7085 6387 2749 2053 1602 5055 1928 603 1743 431 1367 1092 3926 1619 1575 721 1147 2994 535 2634 1099 1332 331
internal_count=15985 13208 2777 7685 5523 2174 2774 7085 6387 2749 2053 1602 5055 1928 603 1743 431 1367 1092 3926 1619 1575 721 1147 2994 535 2634 1099 1332 331
is_linear=0
shrinkage=0.01


Tree=6
num_leaves=31
num_cat=0
split_feature=3 3 0 15 2 9 0 5 15 10 2 0 9 2 17 10 17 3 9 9 17 10 0 1 10 6 15 0 0 3
split_gain=230.229 67.1638 58.617 34.9404 33.6555 21.4938 20.9163 20.8262 18.9157 18.3861 15.0184 11.9016 10.7294 10.4749 10.0066 9.80931 9.69412 9.54869 8.98216 8.81899 11.2099 8.18806 8.05729 7.4932 6.8107 6.06725 5.79125 6.67766 5.90569 5.46679
threshold=26.455000000000002 20.005000000000006 4.5000000000000009 6.5000000000000009 4.5000000000000009 133.50000000000003 3.5000000000000004 14.500000000000002 13.500000000000002 1772.0000000000002 6.5000000000000009 4.5000000000000009 172.50000000000003 3.5000000000000004 0.14642857142857144 1402.5000000000002 0.14642857142857144 23.925000000000004 100.50000000000001 120.50000000000001 0.37980769230769235 1862.5000000000002 9.5000000000000018 1.0000000180025095e-35 1862.5000000000002 637.50000000000011 15.500000000000002 8.5000000000000018 9.5000000000000018 16.970000000000002
decision_type=2 2 2 2 2 2 2 2 2 2 2 2 2 2 2 2 2 2 2 2 2 2 2 2 2 2 2 2 2 2
left_child=1 3 13 -1 6 15 23 11 24 12 18 -5 -8 -2 -7 -4 -9 -14 -10 -13 -21 22 -16 -3 -6 -25 28 29 -22 -28
right_child=2 4 5 7 8 14 9 16 10 -11 -12 19 17 -15 21 -17 -18 -19 -20 20 26 -23 -24 25 -26 -27 27 -29 -30 -31
leaf_value=0.001163441798490874 -0.0012811039865035494 -0.0036606808616804383 0.0022121071889208703 -0.0027777409021437806 0.0022042347297073672 0.0011390647948569348 -0.00089801477072030012 -0.0029845012313386133 -0.0014460611554736257 -0.0036754031278311262 -0.0010364976498409583 -0.0022887195967076358 0.00014713434590691381 0.0013827693674378567 0.0034942948477111363 -0.0013618049808777869 -2.6081722548927486e-05 0.0019105187029156789 0.0013636847162443887 -0.0020668322862614262 -0.00073958716513976633 -0.00016821910881183364 0.0049248058793740406 -0.00060018299072463481 -0.0016433153386848668 -0.002861415154463743 -0.001752637663969785 -0.0021566891203548696 0.00094908091693650929 -0.00023640691489270477
leaf_weight=598 345 189 331 776 1108 124 561 121 129 126 517 985 908 258 792 100 1309 464 964 1130 889 44 783 360 48 177 377 558 270 644
leaf_count=598 345 189 331 776 1108 124 561 121 129 126 517 985 908 258 792 100 1309 464 964 1130 889 44 783 360 48 177 377 558 270 644
internal_value=7.48793e-12 -0.000550291 0.0026173 -0.00115745 0.000287224 0.00338246 -0.000488766 -0.00135407 0.00106854 2.58337e-05 0.000367814 -0.00162784 0.000267094 -0.000141337 0.00387691 0.00138289 -0.00027641 0.000743498 0.00103207 -0.00144397 -0.00122885 0.0040866 0.00420546 -0.00194822 0.00204447 -0.00134551 -0.000883004 -0.00127703 -0.000346196 -0.000796269
internal_weight=15985 13208 2777 7657 5551 2174 2785 7059 2766 2059 1610 5629 1933 603 1743 431 1430 1372 1093 4853 3868 1619 1575 726 1156 537 2738 1579 1159 1021
internal_count=15985 13208 2777 7657 5551 2174 2785 7059 2766 2059 1610 5629 1933 603 1743 431 1430 1372 1093 4853 3868 1619 1575 726 1156 537 2738 1579 1159 1021
is_linear=0
shrinkage=0.01


Tree=7
num_leaves=31
num_cat=0
split_feature=3 3 0 15 2 9 0 5 15 10 2 0 9 2 17 10 17 9 9 17 3 10 0 1 10 6 15 13 11 3
split_gain=225.647 65.8272 57.4505 34.2451 32.9858 21.066 20.5 20.4118 18.5393 18.0202 14.7195 11.6647 10.532 10.2664 9.80752 9.62522 9.50121 8.8101 8.64349 10.9869 8.58805 8.02511 7.89694 7.34409 6.67517 5.94651 5.70506 5.59799 5.10163 5.05751
threshold=26.455000000000002 20.005000000000006 4.5000000000000009 6.5000000000000009 4.5000000000000009 133.50000000000003 3.5000000000000004 14.500000000000002 13.500000000000002 1772.0000000000002 6.5000000000000009 4.5000000000000009 155.50000000000003 3.5000000000000004 0.14642857142857144 1238.5000000000002 0.14642857142857144 137.50000000000003 120.50000000000001 0.37980769230769235 24.455000000000002 1862.5000000000002 9.5000000000000018 1.0000000180025095e-35 1862.5000000000002 637.50000000000011 13.500000000000002 0.57450217753648769 216.50000000000003 16.970000000000002
decision_type=2 2 2 2 2 2 2 2 2 2 2 2 2 2 2 2 2 2 2 2 2 2 2 2 2 2 2 2 2 2
left_child=1 3 13 -1 6 15 23 11 24 12 17 -5 -8 -2 -7 28 -9 -10 -13 -20 -14 22 -16 -3 -6 -25 -21 -17 -4 -28
right_child=2 4 5 7 8 14 9 16 10 -11 -12 18 20 -15 21 27 -18 -19 19 26 -22 -23 -24 25 -26 -27 29 -29 -30 -31
leaf_value=0.001151807354969627 -0.0012682929239708229 -0.0036240740709755788 0.0028866862980101039 -0.0027499635196824978 0.0021821924111536119 0.0011276741599994561 -0.0010360521897144672 -0.0029546561810257265 -0.00070782219457183162 -0.003638649108775315 -0.0010261326744802101 -0.0022658325137315215 0.00024451808468211353 0.001368941680226807 0.0034593519887791691 -0.004219610123680188 -2.5820908984278757e-05 0.0014877867956278896 -0.0020461639778529381 -9.2300225341173707e-05 0.0020218715448133387 -0.00016653687312183054 0.0048755575802134372 -0.0005941811038646847 -0.0016268821611690025 -0.0028328010210330666 -0.0018164753221824356 0.00048451718124043613 -0.00025167287356005262 -0.00077418218734952001
leaf_weight=598 345 189 255 776 1108 124 471 121 232 126 517 985 1101 258 792 39 1309 861 1130 696 361 44 783 360 48 177 718 72 65 1324
leaf_count=598 345 189 255 776 1108 124 471 121 232 126 517 985 1101 258 792 39 1309 861 1130 696 361 44 783 360 48 177 718 72 65 1324
internal_value=-4.16884e-12 -0.000544788 0.00259113 -0.00114588 0.000284352 0.00334864 -0.000483878 -0.00134053 0.00105786 2.55754e-05 0.000364136 -0.00161156 0.000264423 -0.000139924 0.00383814 0.00136906 -0.000273645 0.00102175 -0.00142953 -0.00121656 0.000683386 0.00404573 0.00416341 -0.00192873 0.00202403 -0.00133205 -0.000874174 -0.00116828 0.00224921 -0.00114067
internal_weight=15985 13208 2777 7657 5551 2174 2785 7059 2766 2059 1610 5629 1933 603 1743 431 1430 1093 4853 3868 1462 1619 1575 726 1156 537 2738 111 320 2042
internal_count=15985 13208 2777 7657 5551 2174 2785 7059 2766 2059 1610 5629 1933 603 1743 431 1430 1093 4853 3868 1462 1619 1575 726 1156 537 2738 111 320 2042
is_linear=0
shrinkage=0.01


Tree=8
num_leaves=31
num_cat=0
split_feature=3 3 0 15 2 9 17 0 5 15 10 2 9 9 2 17 10 3 9 15 3 1 10 15 6 13 3 0 11 3
split_gain=221.157 64.5182 56.3072 33.4504 32.52 20.6468 20.3449 20.0836 19.9417 18.1665 17.4253 14.3751 11.9591 10.3094 10.0621 9.61235 9.43368 9.24899 8.70855 8.0173 7.88562 6.74215 6.59117 6.583 5.89418 5.48659 5.08107 5.04964 5.00011 4.7441
threshold=26.455000000000002 20.070000000000004 4.5000000000000009 6.5000000000000009 4.5000000000000009 133.50000000000003 0.13392857142857142 3.5000000000000004 14.500000000000002 13.500000000000002 1772.0000000000002 6.5000000000000009 120.50000000000001 172.50000000000003 3.5000000000000004 0.14642857142857144 1238.5000000000002 23.925000000000004 100.50000000000001 13.500000000000002 30.010000000000002 1.0000000180025095e-35 1862.5000000000002 54.500000000000007 637.50000000000011 0.57450217753648769 17.005000000000006 9.5000000000000018 216.50000000000003 17.005000000000006
decision_type=2 2 2 2 2 2 2 2 2 2 2 2 2 2 2 2 2 2 2 2 2 2 2 2 2 2 2 2 2 2
left_child=1 3 14 -1 7 16 -5 21 12 22 13 18 -8 -9 -2 -7 28 -15 -11 -14 -17 -3 27 26 -23 -18 -21 -6 -4 -10
right_child=2 4 5 6 9 15 8 10 29 11 -12 -13 19 17 -16 20 25 -19 -20 23 -22 24 -24 -25 -26 -27 -28 -29 -30 -31
leaf_value=0.0011352706111778389 -0.001255609964877637 -0.0035546107251217128 0.0028578193770885905 -0.0029448178321742559 0.0016970609540718656 0.0011163974445568578 -0.0023405332830045752 -0.00088142552672957578 -0.00079113523451709617 -0.0014245223370741677 -0.0035927427819371222 -0.0010180589661330861 -0.00036273512046132694 0.00013886807785510753 0.0013552522754554761 0.0033189163650674596 -0.0041774140384334786 0.0018759829267219175 0.0013422683115464321 -0.0021519776025133719 0.0047149148797405761 -0.00060947472670616208 -0.0016106133345359316 -0.00015645068842827137 -0.0028434850663920357 0.0004796720063313842 -0.0012498455202560031 0.0031363056593746814 -0.00024915614774307379 0.00042775772042237428
leaf_weight=600 345 186 255 698 734 124 1129 561 531 129 125 510 932 903 258 823 39 464 963 1017 796 359 48 360 176 72 1617 365 65 801
leaf_count=600 345 186 255 698 734 124 1129 561 531 129 125 510 932 903 258 823 39 464 963 1017 796 359 48 360 176 72 1617 365 65 801
internal_value=-5.02793e-12 -0.000539341 0.00256522 -0.00113184 0.000285096 0.00331515 -0.00132383 -0.000478778 -0.00114668 0.00105592 2.54658e-05 0.000368059 -0.00143351 0.000260049 -0.000138525 0.00379976 0.00135537 0.000728496 0.00101542 -0.00117268 0.00400528 -0.00191458 0.00201664 -0.00142481 -0.0013444 -0.0011566 -0.00159816 0.00217506 0.00222671 -5.81523e-05
internal_weight=15985 13208 2777 7685 5523 2174 7085 2774 6387 2749 2053 1602 5055 1928 603 1743 431 1367 1092 3926 1619 721 1147 2994 535 111 2634 1099 320 1332
internal_count=15985 13208 2777 7685 5523 2174 7085 2774 6387 2749 2053 1602 5055 1928 603 1743 431 1367 1092 3926 1619 721 1147 2994 535 111 2634 1099 320 1332
is_linear=0
shrinkage=0.01


Tree=9
num_leaves=31
num_cat=0
split_feature=3 3 0 15 2 9 0 5 15 10 2 0 9 2 17 10 17 9 9 17 3 10 0 1 10 6 15 0 0 3
split_gain=216.756 63.2373 55.1867 32.8977 31.687 20.2359 19.6918 19.6037 17.8101 17.3147 14.1382 11.3783 10.1405 9.86188 9.42106 9.2545 9.1518 8.51322 8.3083 10.647 8.28013 7.86466 7.70706 7.0586 6.4124 5.7124 5.54061 6.53927 5.79363 5.24579
threshold=26.455000000000002 20.005000000000006 4.5000000000000009 6.5000000000000009 4.5000000000000009 133.50000000000003 3.5000000000000004 14.500000000000002 13.500000000000002 1772.0000000000002 6.5000000000000009 4.5000000000000009 155.50000000000003 3.5000000000000004 0.14642857142857144 1402.5000000000002 0.14642857142857144 137.50000000000003 120.50000000000001 0.37980769230769235 24.455000000000002 1862.5000000000002 9.5000000000000018 1.0000000180025095e-35 1862.5000000000002 637.50000000000011 15.500000000000002 8.5000000000000018 9.5000000000000018 16.970000000000002
decision_type=2 2 2 2 2 2 2 2 2 2 2 2 2 2 2 2 2 2 2 2 2 2 2 2 2 2 2 2 2 2
left_child=1 3 13 -1 6 15 23 11 24 12 17 -5 -8 -2 -7 -4 -9 -10 -13 -20 -14 22 -16 -3 -6 -25 28 29 -21 -28
right_child=2 4 5 7 8 14 9 16 10 -11 -12 18 20 -15 21 -17 -18 -19 19 26 -22 -23 -24 25 -26 -27 27 -29 -30 -31
leaf_value=0.0011289366033009212 -0.0012430539192307903 -0.0035523840600979475 0.0021472424163350842 -0.0027038249089568612 0.0021388438454289001 0.0011052334500897315 -0.0010168774044432829 -0.0028995772971663904 -0.00069878232773746651 -0.0035667103963593644 -0.0010056382686642277 -0.0022196338837016387 0.00023937387535302856 0.0013416997794839806 0.003386175588044959 -0.0013241284545511007 -2.5100674996198055e-05 0.0014595163865588198 -0.0020075801343814701 -0.00071843709157266746 0.001984573363841168 -0.00020472348122645847 0.0047852513361793594 -0.00058215139578613969 -0.0015945072270308932 -0.0027762629954660007 -0.001700349410869853 -0.0021097609502643906 0.00095413325672658782 -0.0002150817939676113
leaf_weight=598 345 189 331 776 1108 124 471 121 232 126 517 985 1101 258 792 100 1309 861 1130 889 361 44 783 360 48 177 377 558 270 644
leaf_count=598 345 189 331 776 1108 124 471 121 232 126 517 985 1101 258 792 100 1309 861 1130 889 361 44 783 360 48 177 377 558 270 644
internal_value=4.40009e-12 -0.000533947 0.00253957 -0.0011231 0.000278719 0.003282 -0.000474236 -0.00131388 0.00103685 2.50738e-05 0.000356901 -0.00157949 0.000259199 -0.000137139 0.00376176 0.00134182 -0.000268326 0.0010014 -0.00139971 -0.00119091 0.000670302 0.00396522 0.00408172 -0.00189032 0.00198383 -0.00130535 -0.000853859 -0.00123926 -0.000328796 -0.000763511
internal_weight=15985 13208 2777 7657 5551 2174 2785 7059 2766 2059 1610 5629 1933 603 1743 431 1430 1093 4853 3868 1462 1619 1575 726 1156 537 2738 1579 1159 1021
internal_count=15985 13208 2777 7657 5551 2174 2785 7059 2766 2059 1610 5629 1933 603 1743 431 1430 1093 4853 3868 1462 1619 1575 726 1156 537 2738 1579 1159 1021
is_linear=0
shrinkage=0.01


Tree=10
num_leaves=31
num_cat=0
split_feature=3 3 0 15 2 9 0 17 5 15 10 2 9 9 2 17 10 3 9 10 3 15 1 15 10 6 13 10 9 0
split_gain=212.442 61.9789 54.0885 32.243 31.0565 19.8333 19.2999 19.2452 19.2169 17.4557 16.9702 13.8569 11.4092 9.94563 9.70788 9.23358 9.07409 8.90179 8.38735 7.70815 7.66061 7.3767 6.91814 6.46451 6.2848 5.59873 5.37464 5.09694 7.26612 4.92731
threshold=26.455000000000002 20.005000000000006 4.5000000000000009 6.5000000000000009 4.5000000000000009 133.50000000000003 3.5000000000000004 0.13392857142857142 14.500000000000002 13.500000000000002 1772.0000000000002 6.5000000000000009 120.50000000000001 172.50000000000003 4.5000000000000009 0.14642857142857144 1238.5000000000002 23.925000000000004 100.50000000000001 1862.5000000000002 33.055000000000007 13.500000000000002 1.0000000180025095e-35 54.500000000000007 1862.5000000000002 637.50000000000011 0.57450217753648769 517.50000000000011 1155.0000000000002 9.5000000000000018
decision_type=2 2 2 2 2 2 2 2 2 2 2 2 2 2 2 2 2 2 2 2 2 2 2 2 2 2 2 2 2 2
left_child=1 3 14 -1 6 16 22 -5 12 24 13 18 -9 -8 -2 -7 -4 -15 -11 20 -17 -14 -3 27 29 -24 -18 28 -23 -6
right_child=2 4 5 7 9 15 10 8 -10 11 -12 -13 21 17 -16 19 26 -19 -20 -21 -22 23 25 -25 -26 -27 -28 -29 -30 -31
leaf_value=0.0011176471701657897 -0.00072843788147932201 -0.0035168602339992368 0.0021829753916244956 -0.0028807564883780996 0.0016481460538452714 0.0010941811134257625 -0.00086514225007684774 -0.0022971490459655474 -5.9621327626072841e-05 -0.0014032892911882652 -0.0035310433589158551 -0.00099558186752458661 -0.00037266434185821452 0.00013947388221097429 0.0025806355600124569 0.0035286003651843023 -0.0041250688200577717 0.0018420788413867082 0.0013118310611952516 -0.00020267625889656217 0.0049903219829961331 -0.0023754473735271182 -0.00057632988549044561 -0.00013978270196073734 -0.0015785621287068353 -0.0027485003451537867 0.00048425953628288373 -0.0012017871932753722 0.00033721277828920976 0.0030650254385482406
leaf_weight=598 495 189 320 695 741 124 561 1127 1331 129 126 517 921 908 108 1023 39 464 964 44 552 965 360 360 48 177 72 1550 110 367
leaf_count=598 495 189 320 695 741 124 561 1127 1331 129 126 517 921 908 108 1023 39 464 964 44 552 965 360 360 48 177 72 1550 110 367
internal_value=6.2486e-12 -0.000528608 0.00251417 -0.00111186 0.000275931 0.00324918 -0.000469493 -0.00130074 -0.00112819 0.00102648 2.4823e-05 0.000353332 -0.00141077 0.000256607 -0.000135768 0.00372414 0.0013284 0.000715282 0.000991382 0.00392557 0.0040409 -0.00115503 -0.00187142 -0.00139642 0.00196399 -0.0012923 -0.00113523 -0.00156876 -0.00209787 0.00211746
internal_weight=15985 13208 2777 7657 5551 2174 2785 7059 6364 2766 2059 1610 5033 1933 603 1743 431 1372 1093 1619 1575 3906 726 2985 1156 537 111 2625 1075 1108
internal_count=15985 13208 2777 7657 5551 2174 2785 7059 6364 2766 2059 1610 5033 1933 603 1743 431 1372 1093 1619 1575 3906 726 2985 1156 537 111 2625 1075 1108
is_linear=0
shrinkage=0.01


Tree=11
num_leaves=31
num_cat=0
split_feature=3 3 0 15 2 9 17 0 5 15 10 2 9 9 2 17 10 9 3 15 3 9 1 15 6 10 9 6 10 3
split_gain=208.215 60.747 53.0121 31.4988 30.6257 19.4386 19.3043 18.9124 18.7584 17.1081 16.4035 13.5356 11.2875 9.74378 9.56127 9.04983 8.89907 8.26659 8.00439 7.60428 7.58225 6.43425 6.34049 6.33199 5.55105 4.94038 7.09113 4.93416 4.70201 4.65114
threshold=26.455000000000002 20.070000000000004 4.5000000000000009 6.5000000000000009 4.5000000000000009 133.50000000000003 0.13392857142857142 3.5000000000000004 14.500000000000002 13.500000000000002 1772.0000000000002 6.5000000000000009 120.50000000000001 155.50000000000003 3.5000000000000004 0.14642857142857144 1402.5000000000002 137.50000000000003 24.455000000000002 13.500000000000002 30.010000000000002 264.50000000000006 1.0000000180025095e-35 54.500000000000007 637.50000000000011 517.50000000000011 1155.0000000000002 736.50000000000011 1805.5000000000002 14.210000000000003
decision_type=2 2 2 2 2 2 2 2 2 2 2 2 2 2 2 2 2 2 2 2 2 2 2 2 2 2 2 2 2 2
left_child=1 3 14 -1 7 16 -5 22 12 21 13 17 -8 -9 -2 -7 -4 -11 -15 -14 -17 28 -3 25 -24 26 27 -21 -6 -10
right_child=2 4 5 6 9 15 8 10 29 11 -12 -13 19 18 -16 20 -18 -19 -20 23 -22 -23 24 -25 -26 -27 -28 -29 -30 -31
leaf_value=0.0011017373308996564 -0.0012233389817394209 -0.0034483722358106782 0.0021049225308124842 -0.0028635343760023088 0.0015908400120604887 0.0010832393309476995 -0.0022713651559144454 -0.00099805721298094701 -0.0020065400405188225 -0.00068981582053248558 -0.0034858377075195311 -0.00098786618113380804 -0.00034797221185305246 0.00023109624632969874 0.0013217151546539457 0.0032132878303267561 -0.0012991361966356635 0.0014372517586459656 0.0019479566893006296 -0.0020966288398658098 0.0045821698493237637 0.0029169974572718364 -0.00059179518963301089 -0.0001383848797910711 -0.0027598025956963694 -0.0011915847537290437 0.00033384067853066055 -0.0043923375986161684 -0.0016499797637031103 0.00012279051009896709
leaf_weight=600 345 186 331 698 665 124 1129 471 112 232 125 510 932 1096 258 823 100 860 361 864 796 434 359 360 176 1555 110 105 48 1220
leaf_count=600 345 186 331 698 665 124 1129 471 112 232 125 510 932 1096 258 823 100 860 361 864 796 434 359 360 176 1555 110 105 48 1220
internal_value=5.64593e-12 -0.000523322 0.00248903 -0.00109824 0.000276657 0.00321669 -0.00128455 -0.000464635 -0.00111199 0.00102469 2.46854e-05 0.000357171 -0.00139018 0.000252287 -0.00013441 0.0036869 0.00131512 0.000985347 0.000656482 -0.00113678 0.00388631 0.00195701 -0.00185794 -0.00138233 -0.00130501 -0.00155234 -0.00207225 -0.00234539 0.00137266 -5.62523e-05
internal_weight=15985 13208 2777 7685 5523 2174 7085 2774 6387 2749 2053 1602 5055 1928 603 1743 431 1092 1457 3926 1619 1147 721 2994 535 2634 1079 969 713 1332
internal_count=15985 13208 2777 7685 5523 2174 7085 2774 6387 2749 2053 1602 5055 1928 603 1743 431 1092 1457 3926 1619 1147 721 2994 535 2634 1079 969 713 1332
is_linear=0
shrinkage=0.01


Tree=12
num_leaves=31
num_cat=0
split_feature=3 3 0 15 2 9 0 17 5 15 10 2 9 9 2 0 10 3 9 15 1 15 10 6 13 3 3 11 0 3
split_gain=204.071 59.5414 51.9572 30.9745 29.8335 19.0517 18.5391 18.4834 18.4603 16.7689 16.306 13.3091 10.9591 9.57596 9.41194 8.9498 8.72825 8.59461 8.10482 7.08317 6.64931 6.20986 6.03767 5.3783 5.265 4.92676 4.91586 4.9006 4.8282 4.62805
threshold=26.455000000000002 20.005000000000006 4.5000000000000009 6.5000000000000009 4.5000000000000009 133.50000000000003 3.5000000000000004 0.13392857142857142 14.500000000000002 13.500000000000002 1772.0000000000002 6.5000000000000009 120.50000000000001 172.50000000000003 4.5000000000000009 9.5000000000000018 1238.5000000000002 23.925000000000004 100.50000000000001 13.500000000000002 1.0000000180025095e-35 54.500000000000007 1862.5000000000002 637.50000000000011 0.57450217753648769 17.005000000000006 30.010000000000002 216.50000000000003 9.5000000000000018 19.805000000000003
decision_type=2 2 2 2 2 2 2 2 2 2 2 2 2 2 2 2 2 2 2 2 2 2 2 2 2 2 2 2 2 2
left_child=1 3 14 -1 6 16 20 -5 12 22 13 18 -9 -8 -2 -7 27 -15 -11 -14 -3 25 28 -22 -18 -21 -17 -4 -6 -27
right_child=2 4 5 7 9 15 10 8 -10 11 -12 -13 19 17 -16 26 24 -19 -20 21 23 -23 -24 -25 -26 29 -28 -29 -30 -31
leaf_value=0.0010954533599737183 -0.0007166323683229323 -0.0034473007453221178 0.0027648897748737251 -0.002823313615669701 0.0016108287569398109 0.0029509260417389799 -0.00084915545651479177 -0.002251463930245271 -5.8461257752841363e-05 -0.0013823582492398761 -0.003461238577488869 -0.00097566393294806937 -0.00036545795186562562 0.00013583341414557097 0.0025416119875282879 0.0034688925121773989 -0.0040734453088580036 0.0018088036613912192 0.0012866401899569399 -0.0020822979980041922 -0.00056465540878060795 -0.00013700102509068933 -0.0015472281345864757 -0.0026936354839287718 0.00048862597187204911 -0.00057342106695401824 0.0050161418851820136 -0.00031101603548114114 0.0030133852779332991 -0.0016575344064766518
leaf_weight=598 495 189 255 695 741 893 561 1127 1331 129 126 517 921 908 108 347 39 464 964 1017 360 360 48 177 72 689 503 65 367 919
leaf_count=598 495 189 255 695 741 893 561 1127 1331 129 126 517 921 908 108 347 39 464 964 1017 360 360 48 177 72 689 503 65 367 919
internal_value=-6.14306e-12 -0.000518088 0.00246414 -0.00108976 0.000270472 0.00318452 -0.000460129 -0.00127488 -0.00110578 0.00100609 2.43465e-05 0.000346322 -0.00138275 0.00025155 -0.000133066 0.00365003 0.00130197 0.000701619 0.000971635 -0.0011321 -0.00183414 -0.00136864 0.00192497 -0.00126639 -0.00111426 -0.00153755 0.0043845 0.0021401 0.00207539 -0.00119301
internal_weight=15985 13208 2777 7657 5551 2174 2785 7059 6364 2766 2059 1610 5033 1933 603 1743 431 1372 1093 3906 726 2985 1156 537 111 2625 850 320 1108 1608
internal_count=15985 13208 2777 7657 5551 2174 2785 7059 6364 2766 2059 1610 5033 1933 603 1743 431 1372 1093 3906 726 2985 1156 537 111 2625 850 320 1108 1608
is_linear=0
shrinkage=0.01


Tree=13
num_leaves=31
num_cat=0
split_feature=3 3 0 15 2 10 0 17 5 15 10 2 9 9 9 2 17 9 3 0 1 15 9 12 15 15 15 6 0 0
split_gain=200.01 58.3565 50.9233 30.3581 29.2398 18.8121 18.1702 18.1156 18.0929 16.4352 15.9815 13.0443 12.5396 10.7448 9.40026 9.26982 8.96573 7.9489 7.69717 7.31144 6.51699 6.30873 5.98396 5.83794 5.58561 5.30609 5.30097 5.27127 5.16444 4.68558
threshold=26.455000000000002 20.005000000000006 4.5000000000000009 6.5000000000000009 4.5000000000000009 1862.5000000000002 3.5000000000000004 0.13392857142857142 14.500000000000002 13.500000000000002 1772.0000000000002 6.5000000000000009 132.50000000000003 183.50000000000003 155.50000000000003 3.5000000000000004 0.14642857142857144 137.50000000000003 24.455000000000002 9.5000000000000018 1.0000000180025095e-35 15.500000000000002 264.50000000000006 103.50000000000001 54.500000000000007 10.500000000000002 54.500000000000007 637.50000000000011 9.5000000000000018 8.5000000000000018
decision_type=2 2 2 2 2 2 2 2 2 2 2 2 2 2 2 2 2 2 2 2 2 2 2 2 2 2 2 2 2 2
left_child=1 3 15 -1 6 12 20 -5 13 22 14 17 25 24 -8 -2 -14 -11 -16 -18 -3 28 -6 -7 -9 -4 29 -22 -15 -23
right_child=2 4 5 7 9 23 10 8 -10 11 -12 -13 16 21 18 -17 19 -19 -20 -21 27 26 -24 -25 -26 -27 -28 -29 -30 -31
leaf_value=0.0010844988236573673 -0.001203939232489337 -0.0034128277605429054 0.0034465460812657324 -0.0027950804913282504 0.0013448156313075308 0.0013324894312070682 -0.00097958510692652541 -0.0020647377241576857 -5.7876647208102899e-05 -0.00068094351752922102 -0.0034266261676592488 -0.00096590730708859848 0.0011104908215500353 -0.00076728246983958249 0.00022936631737299751 0.0013020251555343036 0.0032464056755557203 0.0014045944772230767 0.0019120089220362934 0.0046082264865173186 -0.00055900889849807656 -0.0012140317050076204 0.0028285914212486597 -0.0034998752601910384 0.0008333049782727292 0.00089084963890854855 -0.00019424856335831811 -0.0026666991000121598 0.00087015323636003249 -0.0023572401284965711
leaf_weight=598 345 189 119 695 719 50 471 1840 1331 232 126 517 122 929 1101 258 792 861 361 785 360 1091 437 50 69 256 327 177 243 534
leaf_count=598 345 189 119 695 719 50 471 1840 1331 232 126 517 122 929 1101 258 792 861 361 785 360 1091 437 50 69 256 327 177 243 534
internal_value=-3.91133e-12 -0.000512907 0.0024395 -0.00107886 0.000267767 0.00315268 -0.000455528 -0.00126213 -0.00109472 0.00099603 2.4103e-05 0.000342859 0.00335694 -0.00136892 0.000249034 -0.000131736 0.00372224 0.000961919 0.000644848 0.00392429 -0.0018158 -0.00100773 0.00190572 -0.00108369 -0.00195999 0.00170186 -0.00135594 -0.00125372 -0.00042778 -0.00158971
internal_weight=15985 13208 2777 7657 5551 2174 2785 7059 6364 2766 2059 1610 2074 5033 1933 603 1699 1093 1462 1577 726 3124 1156 100 1909 375 1952 537 1172 1625
internal_count=15985 13208 2777 7657 5551 2174 2785 7059 6364 2766 2059 1610 2074 5033 1933 603 1699 1093 1462 1577 726 3124 1156 100 1909 375 1952 537 1172 1625
is_linear=0
shrinkage=0.01


Tree=14
num_leaves=31
num_cat=0
split_feature=3 3 0 15 2 10 17 0 5 15 10 2 9 9 9 2 17 3 9 3 15 9 15 1 12 6 15 3 3 11
split_gain=196.03 57.1957 49.9099 29.661 28.8415 18.4378 18.178 17.8096 17.663 16.1111 15.4415 12.7453 12.2901 10.6909 9.19851 9.12501 8.78731 8.32842 7.85908 7.27789 7.2346 6.16507 5.96334 5.96256 5.72176 5.22792 5.20049 4.8329 4.60592 4.5532
threshold=26.455000000000002 20.070000000000004 4.5000000000000009 6.5000000000000009 4.5000000000000009 1862.5000000000002 0.13392857142857142 3.5000000000000004 14.500000000000002 13.500000000000002 1772.0000000000002 6.5000000000000009 132.50000000000003 120.50000000000001 172.50000000000003 4.5000000000000009 0.14642857142857144 23.925000000000004 100.50000000000001 33.055000000000007 13.500000000000002 264.50000000000006 54.500000000000007 1.0000000180025095e-35 103.50000000000001 637.50000000000011 10.500000000000002 17.005000000000006 17.005000000000006 235.50000000000003
decision_type=2 2 2 2 2 2 2 2 2 2 2 2 2 2 2 2 2 2 2 2 2 2 2 2 2 2 2 2 2 2
left_child=1 3 15 -1 7 12 -5 23 13 21 14 18 26 -8 29 -2 -14 -16 -11 -18 -15 -6 27 -3 -7 -25 -4 -22 -10 -9
right_child=2 4 5 6 9 24 8 10 28 11 -12 -13 16 20 17 -17 19 -19 -20 -21 22 -23 -24 25 -26 -27 -28 -29 -30 -31
leaf_value=0.0010691972491971684 -0.00070502050540344132 -0.0033452872968383974 0.0034120807020353674 -0.0027786617346236722 0.0013271352334307549 0.0013191646017134189 -0.0022065114529315126 -0.00039863291129490336 -0.0007767590191986994 -0.001361725202638858 -0.0033821006897091868 -0.00095857182897709538 0.0010993858963655706 -0.00033291959927159777 0.0001277279670689057 0.0025031757121043345 0.0033865169337246475 0.0017761285239148179 0.0012666614519498737 0.004810770127544369 -0.0020469323240788089 0.0028388200455649933 -0.0001346304658929714 -0.00057464058069942893 -0.0034648765276702759 -0.0026786012722103884 0.00088194113852296146 -0.0011671074756011356 0.00042425101466301646 -0.0026999738158763583
leaf_weight=600 495 186 119 698 713 50 1129 455 531 129 125 510 122 932 903 108 1025 464 963 552 1017 434 360 359 50 176 256 1617 801 106
leaf_count=600 495 186 119 698 713 50 1129 455 531 129 125 510 122 932 903 108 1025 464 963 552 1017 434 360 359 50 176 256 1617 801 106
internal_value=-2.6097e-12 -0.000507778 0.0024151 -0.00106564 0.000268464 0.00312115 -0.00124643 -0.000450912 -0.00107898 0.000994382 2.3928e-05 0.000346605 0.00332337 -0.00134893 0.000244755 -0.000130418 0.00368502 0.000687244 0.000956165 0.00388505 -0.00110232 0.00189912 -0.00134182 -0.00180299 -0.00107286 -0.00126678 0.00168484 -0.00150681 -5.453e-05 -0.000833467
internal_weight=15985 13208 2777 7685 5523 2174 7085 2774 6387 2749 2053 1602 2074 5055 1928 603 1699 1367 1092 1577 3926 1147 2994 721 100 535 375 2634 1332 561
internal_count=15985 13208 2777 7685 5523 2174 7085 2774 6387 2749 2053 1602 2074 5055 1928 603 1699 1367 1092 1577 3926 1147 2994 721 100 535 375 2634 1332 561
is_linear=0
shrinkage=0.01


Tree=15
num_leaves=31
num_cat=0
split_feature=3 3 0 15 2 10 0 17 5 15 10 2 9 9 9 2 17 9 3 0 0 1 10 12 10 0 15 6 0 3
split_gain=192.129 56.0605 48.9167 29.1636 28.0884 18.0709 17.4537 17.3986 17.3804 15.7887 15.3559 12.5291 12.0455 10.3798 9.04354 8.98726 8.61244 7.68103 7.42039 7.13632 6.9482 6.26386 5.88137 5.6079 5.23821 8.0507 5.097 5.06371 4.73111 4.51185
threshold=26.455000000000002 20.005000000000006 4.5000000000000009 6.5000000000000009 4.5000000000000009 1862.5000000000002 3.5000000000000004 0.13392857142857142 14.500000000000002 13.500000000000002 1772.0000000000002 6.5000000000000009 132.50000000000003 120.50000000000001 155.50000000000003 3.5000000000000004 0.14642857142857144 137.50000000000003 24.455000000000002 9.5000000000000018 4.5000000000000009 1.0000000180025095e-35 1862.5000000000002 103.50000000000001 517.50000000000011 8.5000000000000018 10.500000000000002 637.50000000000011 9.5000000000000018 14.210000000000003
decision_type=2 2 2 2 2 2 2 2 2 2 2 2 2 2 2 2 2 2 2 2 2 2 2 2 2 2 2 2 2 2
left_child=1 3 15 -1 6 12 21 -5 13 22 14 17 26 -9 -8 -2 -14 -11 -16 -18 -15 -3 28 -7 25 -22 -4 -23 -6 -10
right_child=2 4 5 7 9 23 10 8 29 11 -12 -13 16 20 18 -17 19 -19 -20 -21 24 27 -24 -25 -26 -27 -28 -29 -30 -31
leaf_value=0.00106296187231082 -0.0011848496415692827 -0.0033453364455801431 0.0033779597703461391 -0.002739343059956927 0.0015564554453043171 0.0013059729150962085 -0.00096096568875362796 -0.002187162508069147 -0.0019775436237146745 -0.00067218592040670295 -0.0033588922477608162 -0.00094661414550303901 0.0010883920378391401 -0.0022535873439120109 0.00022440361304872235 0.001282625527156322 0.0031764798393623546 0.0013779101963455813 0.0018765166544657294 0.0045218925556156095 -0.00085860086478046203 -0.00054767912138615636 -0.0015590994898229838 -0.0034302277522161601 -0.00061857422411096166 -0.0024409480643320098 0.00087312177774947488 -0.0026134578767931416 0.0029448385508118002 0.00011973094011813943
leaf_weight=598 345 189 119 695 741 50 471 1127 112 232 126 517 122 459 1101 258 792 861 361 785 921 360 48 50 2032 494 256 177 367 1219
leaf_count=598 345 189 119 695 741 50 471 1127 112 232 126 517 122 459 1101 258 792 861 361 785 921 360 48 50 2032 494 256 177 367 1219
internal_value=1.66221e-12 -0.000502701 0.00239095 -0.00105741 0.000262462 0.00308994 -0.000446449 -0.00123704 -0.00107297 0.000976242 2.36307e-05 0.000336046 0.00329013 -0.00134172 0.000244116 -0.000129114 0.00364817 0.000942757 0.000632347 0.0038462 -0.00109778 -0.00177964 0.00186787 -0.00106213 -0.000943877 -0.00141102 0.00166799 -0.00122858 0.00201633 -5.6749e-05
internal_weight=15985 13208 2777 7657 5551 2174 2785 7059 6364 2766 2059 1610 2074 5033 1933 603 1699 1093 1462 1577 3906 726 1156 100 3447 1415 375 537 1108 1331
internal_count=15985 13208 2777 7657 5551 2174 2785 7059 6364 2766 2059 1610 2074 5033 1933 603 1699 1093 1462 1577 3906 726 1156 100 3447 1415 375 537 1108 1331
is_linear=0
shrinkage=0.01


Tree=16
num_leaves=31
num_cat=0
split_feature=3 3 0 15 2 10 0 17 5 15 10 2 9 9 9 2 17 3 9 3 1 15 10 12 15 0 15 15 6 0
split_gain=188.305 54.9449 47.9432 28.5832 27.5295 17.7113 17.1064 17.0524 17.0346 15.4745 15.0504 12.2798 11.8058 10.2359 8.87657 8.84684 8.44105 8.01285 7.5681 7.10379 6.13921 6.09424 5.76433 5.4963 5.44649 5.09033 5.08611 4.99557 4.96295 4.63696
threshold=26.455000000000002 20.005000000000006 4.5000000000000009 6.5000000000000009 4.5000000000000009 1862.5000000000002 3.5000000000000004 0.13392857142857142 14.500000000000002 13.500000000000002 1772.0000000000002 6.5000000000000009 132.50000000000003 183.50000000000003 172.50000000000003 4.5000000000000009 0.14642857142857144 23.925000000000004 100.50000000000001 33.055000000000007 1.0000000180025095e-35 15.500000000000002 1862.5000000000002 103.50000000000001 54.500000000000007 9.5000000000000018 54.500000000000007 10.500000000000002 637.50000000000011 9.5000000000000018
decision_type=2 2 2 2 2 2 2 2 2 2 2 2 2 2 2 2 2 2 2 2 2 2 2 2 2 2 2 2 2 2
left_child=1 3 15 -1 6 12 20 -5 13 22 14 18 27 24 -8 -2 -14 -16 -11 -18 -3 25 29 -7 -9 -15 -23 -4 -22 -6
right_child=2 4 5 7 9 23 10 8 -10 11 -12 -13 16 21 17 -17 19 -19 -20 -21 28 26 -24 -25 -26 -27 -28 -29 -30 -31
leaf_value=0.0010523322992257301 -0.00069359900532854775 -0.0033118832171106188 0.0033441802853045343 -0.0027119495809687934 0.0015408909038323836 0.0012929131738841535 -0.00081807263089267543 -0.0020086389121817144 -5.6181472671850759e-05 -0.0013413861171385748 -0.0033253033541231635 -0.00093714802630868966 0.0010775081343297841 -0.00074282204133305056 0.00012869548166913314 0.0024653176639091085 0.0033152034819444141 0.0017440527624045176 0.0012377261571542566 0.0047223181783329644 -0.00054220225163994151 -0.0015469907099409748 -0.001543508461327292 -0.0033959254352375866 0.00085308576826060168 0.00088282306693923576 -0.0001801047428576589 0.00086439052885907593 -0.0025873232972255704 0.0029153901419338418
leaf_weight=598 495 189 119 695 741 50 561 1840 1331 129 126 517 122 929 908 108 1025 464 964 552 360 1625 48 50 69 243 327 256 177 367
leaf_count=598 495 189 119 695 741 50 561 1840 1331 129 126 517 122 929 908 108 1025 464 964 552 360 1625 48 50 69 243 327 256 177 367
internal_value=1.14412e-11 -0.000497674 0.00236704 -0.00104684 0.000259837 0.00305904 -0.000441984 -0.00122467 -0.00106224 0.00096648 2.33944e-05 0.000332686 0.00325723 -0.0013283 0.000241675 -0.000127823 0.00361169 0.000674997 0.00093333 0.00380774 -0.00176184 -0.000975771 0.00184919 -0.00105151 -0.0019052 -0.000405764 -0.00131801 0.00165131 -0.00121629 0.00199616
internal_weight=15985 13208 2777 7657 5551 2174 2785 7059 6364 2766 2059 1610 2074 5033 1933 603 1699 1372 1093 1577 726 3124 1156 100 1909 1172 1952 375 537 1108
internal_count=15985 13208 2777 7657 5551 2174 2785 7059 6364 2766 2059 1610 2074 5033 1933 603 1699 1372 1093 1577 726 3124 1156 100 1909 1172 1952 375 537 1108
is_linear=0
shrinkage=0.01


Tree=17
num_leaves=31
num_cat=0
split_feature=3 3 0 15 2 10 17 0 5 15 10 2 9 9 2 9 17 9 3 15 0 9 15 1 12 6 15 2 8 3
split_gain=184.558 53.8521 46.9892 27.9306 27.1616 17.3588 17.1175 16.7712 16.6318 15.1723 14.5358 12.0011 11.5709 10.1258 8.7133 8.68739 8.27308 7.46008 7.1754 6.99399 6.96539 6.0049 5.72369 5.60695 5.38693 4.92362 4.89616 4.74564 5.50935 4.51963
threshold=26.455000000000002 20.070000000000004 4.5000000000000009 6.5000000000000009 4.5000000000000009 1862.5000000000002 0.13392857142857142 3.5000000000000004 14.500000000000002 13.500000000000002 1772.0000000000002 6.5000000000000009 132.50000000000003 120.50000000000001 3.5000000000000004 155.50000000000003 0.14642857142857144 137.50000000000003 24.455000000000002 13.500000000000002 9.5000000000000018 264.50000000000006 54.500000000000007 1.0000000180025095e-35 103.50000000000001 637.50000000000011 10.500000000000002 6.5000000000000009 120.50000000000001 16.970000000000002
decision_type=2 2 2 2 2 2 2 2 2 2 2 2 2 2 2 2 2 2 2 2 2 2 2 2 2 2 2 2 2 2
left_child=1 3 14 -1 7 12 -5 23 13 21 15 17 26 -8 -2 -9 -14 -11 -17 -15 -18 -6 27 -3 -7 -25 -4 28 29 -21
right_child=2 4 5 6 9 24 8 10 -10 11 -12 -13 16 19 -16 18 20 -19 -20 22 -22 -23 -24 25 -26 -27 -28 -29 -30 -31
leaf_value=0.0010376209575915711 -0.0011660652213014554 -0.0032452622025464012 0.0033107384919783714 -0.0026963103094255285 0.0012784523133637165 0.0012799840928986669 -0.0021435103720320891 -0.00094317533418381949 -5.2858895644305738e-05 -0.00066350060572811591 -0.0032814376480504869 -0.00093014849664862544 0.0010667330507794013 -0.00031240108724465683 0.0012635118078238282 0.00021634571977613694 0.0031080096556671023 0.0013571438795513323 0.0018418723942745488 -0.0017031764379715542 0.0044372120037627447 0.0027703704612548484 -0.00012169880557080939 -0.00055799534421123584 -0.0033619662055745722 -0.0025998074914572169 0.00085574664492014561 -0.002355019565953079 -0.0020842049007911258 -0.0005638235186162672
leaf_weight=600 345 186 119 698 713 50 1129 471 1332 232 125 510 122 932 258 1096 792 860 361 527 785 434 360 359 50 176 256 489 592 1026
leaf_count=600 345 186 119 698 713 50 1129 471 1332 232 125 510 122 932 258 1096 792 860 361 527 785 434 360 359 50 176 256 489 592 1026
internal_value=-1.1952e-13 -0.000492697 0.00234337 -0.00103401 0.000260515 0.00302845 -0.00120945 -0.000437595 -0.00104696 0.000964974 2.31932e-05 0.000336352 0.00322466 -0.0013089 -0.000126545 0.000237446 0.00357557 0.000927849 0.000619101 -0.00106889 0.00376966 0.00184296 -0.00130438 -0.00174966 -0.00104099 -0.00122969 0.0016348 -0.00146603 -0.00126336 -0.000950455
internal_weight=15985 13208 2777 7685 5523 2174 7085 2774 6387 2749 2053 1602 2074 5055 603 1928 1699 1092 1457 3926 1577 1147 2994 721 100 535 375 2634 2145 1553
internal_count=15985 13208 2777 7685 5523 2174 7085 2774 6387 2749 2053 1602 2074 5055 603 1928 1699 1092 1457 3926 1577 1147 2994 721 100 535 375 2634 2145 1553
is_linear=0
shrinkage=0.01


Tree=18
num_leaves=31
num_cat=0
split_feature=3 15 0 3 0 9 10 5 9 0 12 2 17 2 17 3 3 0 3 0 15 17 12 9 10 12 3 10 11 15
split_gain=180.886 52.8742 46.0541 45.013 24.3192 19.7392 17.0134 16.7796 11.3409 10.6646 9.10755 8.65657 8.59156 8.57714 8.23132 7.66339 8.90716 8.61108 7.4881 6.88152 6.42867 5.96346 6.64002 5.67608 5.44116 5.27973 5.17687 5.00613 4.94012 4.86188
threshold=26.455000000000002 6.5000000000000009 4.5000000000000009 20.205000000000002 4.5000000000000009 116.50000000000001 1862.5000000000002 14.500000000000002 130.50000000000003 4.5000000000000009 78.500000000000014 3.5000000000000004 0.14642857142857144 4.5000000000000009 0.14642857142857144 17.005000000000006 19.805000000000003 8.5000000000000018 23.505000000000006 9.5000000000000018 1.5000000000000002 0.37980769230769235 252.50000000000003 179.50000000000003 2034.5000000000002 103.50000000000001 19.825000000000003 768.50000000000011 73.500000000000014 10.500000000000002
decision_type=2 2 2 2 2 2 2 2 2 2 2 2 2 2 2 2 2 2 2 2 2 2 2 2 2 2 2 2 2 2
left_child=1 20 13 7 11 10 8 9 29 -3 -6 -5 -9 -2 -10 -11 -17 -18 21 -16 -1 -7 28 -20 -22 -8 -19 -12 -23 -4
right_child=2 3 6 4 5 18 25 12 14 15 27 -13 -14 -15 19 16 17 26 23 -21 24 22 -24 -25 -26 -27 -28 -29 -30 -31
leaf_value=0.0040614068013830832 -0.00068236471695656126 -0.0025157103431734068 0.0032776310856007978 -0.0021834187449990324 -0.00014913447295110215 -0.0005901692195339639 0.0012671841935254632 -0.0027458801147370272 0.0010464355977142336 -0.0017570172379274827 -0.00073395246660271508 -0.00017578791562018211 6.861555944725321e-06 0.0024280292568383396 0.0030749760339588328 -0.00028745901147045095 -0.00084479043420510849 -0.0061266336115923794 4.7011530910760675e-05 0.0043953149502447622 0.0013962844854758637 -0.0001011833270646017 -0.003822331693954766 0.001799531564288095 -0.0036265654184601528 -0.003328346538357437 -0.0020693815998128868 -0.0033846410284014911 0.001137521787262476 0.00082665153690742647
leaf_weight=91 495 786 119 561 449 474 50 124 123 1914 114 348 1324 108 793 1218 1109 33 236 786 1096 453 32 852 22 50 669 190 1113 253
leaf_count=91 495 786 119 561 449 474 50 124 123 1914 114 348 1324 108 793 1218 1109 33 236 786 1096 453 32 852 22 50 669 190 1113 253
internal_value=-3.26151e-12 -0.00048777 0.00231994 -0.000688607 5.86231e-05 0.000400908 0.00299816 -0.00119065 0.00319241 -0.00143374 -0.00105407 -0.00141482 -0.00022887 -0.000125279 0.00353812 -0.00126169 -0.000948694 -0.00139341 0.000747616 0.00373222 0.00150549 0.00039487 0.000687053 0.00141939 0.00129744 -0.00103058 -0.00226011 -0.00239063 0.000779199 0.0016107
internal_weight=15985 13208 2777 11999 4822 3913 2174 7177 2074 5729 753 909 1448 603 1702 4943 3029 1811 3160 1579 1209 2072 1598 1088 1118 100 702 304 1566 372
internal_count=15985 13208 2777 11999 4822 3913 2174 7177 2074 5729 753 909 1448 603 1702 4943 3029 1811 3160 1579 1209 2072 1598 1088 1118 100 702 304 1566 372
is_linear=0
shrinkage=0.01


Tree=19
num_leaves=31
num_cat=0
split_feature=3 3 0 15 2 10 17 0 5 15 10 2 9 9 2 9 17 3 9 3 15 1 10 15 12 0 15 7 6 3
split_gain=177.286 51.8273 45.1376 26.8005 26.1382 16.6748 16.2497 16.0572 16.005 14.7523 14.309 11.729 11.1152 9.85991 8.4477 8.3906 7.94649 7.66745 7.22134 6.90554 5.87957 5.87197 5.58145 5.31073 5.18779 4.99806 4.88788 4.80693 4.76353 4.5494
threshold=26.455000000000002 20.005000000000006 4.5000000000000009 6.5000000000000009 4.5000000000000009 1862.5000000000002 0.13392857142857142 3.5000000000000004 14.500000000000002 13.500000000000002 1772.0000000000002 6.5000000000000009 132.50000000000003 183.50000000000003 3.5000000000000004 174.50000000000003 0.14642857142857144 23.925000000000004 100.50000000000001 33.055000000000007 15.500000000000002 1.0000000180025095e-35 1862.5000000000002 54.500000000000007 74.500000000000014 9.5000000000000018 54.500000000000007 105.50000000000001 637.50000000000011 17.005000000000006
decision_type=2 2 2 2 2 2 2 2 2 2 2 2 2 2 2 2 2 2 2 2 2 2 2 2 2 2 2 2 2 2
left_child=1 3 14 -1 7 12 -5 21 13 22 15 18 27 23 -2 -9 -14 -17 -11 -18 25 -3 -6 29 -7 -15 -22 -4 -23 -8
right_child=2 4 5 6 9 24 8 10 -10 11 -12 -13 16 20 -16 17 19 -19 -20 -21 26 28 -24 -25 -26 -27 -28 -29 -30 -31
leaf_value=0.0010164037018881591 -0.0011475808826558616 -0.0032257148490913174 0.002761937712632181 -0.0026402979606105913 0.0019478574065329333 0.0025435889338881806 -0.0025180833619234894 -0.00077857719422657582 -5.4704689662467973e-05 -0.0013124307102339648 -0.0032453459771054367 -0.00091848649461960823 0.001045601339952316 -0.00071589647425427348 0.0012446801260460256 0.00012892511266454577 0.0032090288010045388 0.0017220275073429152 0.0012069017417651975 0.0045963694328995611 -0.0015024165109018214 -0.00051583315197947538 -0.001535209230884599 0.00086970599732645181 -0.0024759382336124987 0.00089494706254161186 -0.00016243263315808155 0.0004969111418904504 -0.0025194453348610867 -0.0015161461110728286
leaf_weight=598 345 189 183 695 1108 29 808 576 1331 129 126 517 122 929 258 903 1025 454 964 552 1625 360 48 69 71 243 327 192 177 1032
leaf_count=598 345 189 183 695 1108 29 808 576 1331 129 126 517 122 929 258 903 1025 454 964 552 1625 360 48 69 71 243 327 192 177 1032
internal_value=-2.4653e-12 -0.000482892 0.00229674 -0.00101625 0.000252814 0.00296818 -0.00118844 -0.000431043 -0.00102989 0.00094137 1.98377e-05 0.000322542 0.00316049 -0.00128778 -0.000124026 0.000232674 0.00350442 0.000661916 0.000909561 0.00369464 -0.000941786 -0.00170978 0.00180323 -0.00185399 -0.00102028 -0.000381908 -0.00127794 0.00160224 -0.00117624 -0.00195613
internal_weight=15985 13208 2777 7657 5551 2174 7059 2785 6364 2766 2059 1610 2074 5033 603 1933 1699 1357 1093 1577 3124 726 1156 1909 100 1172 1952 375 537 1840
internal_count=15985 13208 2777 7657 5551 2174 7059 2785 6364 2766 2059 1610 2074 5033 603 1933 1699 1357 1093 1577 3124 726 1156 1909 100 1172 1952 375 537 1840
is_linear=0
shrinkage=0.01


Tree=20
num_leaves=31
num_cat=0
split_feature=3 15 0 3 0 9 10 17 5 9 9 12 2 2 17 3 0 15 15 17 12 9 10 12 3 10 10 0 0 11
split_gain=173.758 50.9308 44.2394 43.2141 23.3874 19.0897 16.343 16.291 16.4073 10.8955 9.68279 8.8816 8.36964 8.31566 7.90746 7.26023 6.71631 6.28742 6.24156 5.81731 6.43442 5.47223 5.29004 5.10864 5.09945 5.51143 4.86838 4.85291 5.30919 4.83698
threshold=26.455000000000002 6.5000000000000009 4.5000000000000009 20.205000000000002 4.5000000000000009 116.50000000000001 1862.5000000000002 0.13392857142857142 14.500000000000002 130.50000000000003 183.50000000000003 78.500000000000014 3.5000000000000004 4.5000000000000009 0.14642857142857144 23.505000000000006 9.5000000000000018 1.5000000000000002 15.500000000000002 0.37980769230769235 252.50000000000003 179.50000000000003 2034.5000000000002 103.50000000000001 17.005000000000006 1238.5000000000002 768.50000000000011 8.5000000000000018 4.5000000000000009 73.500000000000014
decision_type=2 2 2 2 2 2 2 2 2 2 2 2 2 2 2 2 2 2 2 2 2 2 2 2 2 2 2 2 2 2
left_child=1 17 13 7 12 11 9 -3 10 -4 24 -6 -5 -2 -11 19 -16 -1 -12 -7 29 -17 -19 -8 -9 -26 -13 28 -20 -21
right_child=2 3 6 4 5 15 23 8 -10 14 18 26 -14 -15 16 21 -18 22 27 20 -22 -23 -24 -25 25 -27 -28 -29 -30 -31
leaf_value=0.00400590575561292 -0.00067131449462789485 -0.0026038430500467751 0.0015785436900407675 -0.0021437221474168615 -0.00014456467478451027 -0.00058663956733530527 0.0012501585078425706 -0.0024151024175209667 -2.6640068270726358e-05 0.0010255598257640302 -0.00035427536948334803 -0.00072435486041317828 -0.00016964389860961885 0.0023913022168670539 0.0030086711517603856 4.7555568113023321e-05 0.0043130642528771291 0.0013699333150243615 -0.0020626843763604905 -0.00010560082704976004 -0.0037641858705319466 0.0017683172636193184 -0.0035826715352860368 -0.0032703037203289571 -0.001128059318458417 -0.0033412273675679982 -0.0033383198818191886 -0.0020214396387319236 -0.00060154145160776576 0.001120104773089529
leaf_weight=91 495 711 372 561 449 474 50 832 1346 123 1190 114 348 108 793 236 786 1096 325 453 32 852 22 50 987 127 190 600 1059 1113
leaf_count=91 495 711 372 561 449 474 50 832 1346 123 1190 114 348 108 793 236 786 1096 325 453 32 852 22 50 987 127 190 600 1059 1113
internal_value=1.43284e-12 -0.000478063 0.00227377 -0.000675175 5.69715e-05 0.000392635 0.0029385 -0.00116708 -0.0010091 0.00312888 -0.00126737 -0.0010382 -0.00138797 -0.000122786 0.00346774 0.000733591 0.00365798 0.00147822 -0.000926861 0.000386254 0.000674834 0.00139506 0.00127248 -0.00101007 -0.00182276 -0.00138037 -0.00235808 -0.0012703 -0.000944657 0.000765542
internal_weight=15985 13208 2777 11999 4822 3913 2174 7177 6466 2074 5120 753 909 603 1702 3160 1579 1209 3174 2072 1598 1088 1118 100 1946 1114 304 1984 1384 1566
internal_count=15985 13208 2777 11999 4822 3913 2174 7177 6466 2074 5120 753 909 603 1702 3160 1579 1209 3174 2072 1598 1088 1118 100 1946 1114 304 1984 1384 1566
is_linear=0
shrinkage=0.01


Tree=21
num_leaves=31
num_cat=0
split_feature=3 15 0 3 0 9 9 17 5 9 12 2 2 10 3 5 10 3 15 15 10 3 10 9 13 9 10 0 0 3
split_gain=170.3 49.9173 43.359 42.3541 22.922 18.7098 16.0256 15.9668 16.0808 9.4901 8.70486 8.20309 8.1902 7.99259 7.88089 7.14349 6.57228 6.23568 6.1623 6.11735 5.18477 4.99797 5.40175 4.96029 4.91226 4.83468 4.7715 4.75633 5.20354 4.75585
threshold=26.455000000000002 6.5000000000000009 4.5000000000000009 20.205000000000002 4.5000000000000009 116.50000000000001 133.50000000000003 0.13392857142857142 14.500000000000002 183.50000000000003 78.500000000000014 3.5000000000000004 3.5000000000000004 1238.5000000000002 30.010000000000002 15.500000000000002 1805.5000000000002 23.505000000000006 1.5000000000000002 15.500000000000002 2034.5000000000002 17.005000000000006 1238.5000000000002 189.50000000000003 0.57450217753648769 162.50000000000003 768.50000000000011 8.5000000000000018 4.5000000000000009 17.005000000000006
decision_type=2 2 2 2 2 2 2 2 2 2 2 2 2 2 2 2 2 2 2 2 2 2 2 2 2 2 2 2 2 2
left_child=1 18 12 7 11 10 13 -3 9 21 -6 -5 -2 -4 -8 16 17 -7 -1 -11 -20 -9 -23 -19 -15 -13 -12 28 -21 -10
right_child=2 3 6 4 5 15 14 8 29 19 26 25 -14 24 -16 -17 -18 23 20 27 -22 22 -24 -25 -26 -27 -28 -29 -30 -31
leaf_value=0.0039658466749057011 -0.0011293919294451673 -0.0025778046346226326 0.0019845658543090395 -0.002122284884881245 -0.00014311903410690749 0.00023538360978223941 0.0026830331232769152 -0.0023909513945181973 -0.00076278935994237326 -0.00035073262026255652 -0.00071711136081272322 -0.0016046333680528083 0.0012261262171010148 -0.0039879649526511247 0.0040284440909746548 0.0017311619845872333 -0.0022332122151137272 -3.1063678797920336e-05 0.0013562339803437195 -0.002042057536229885 -0.0035468447343869644 -0.0011167787160302617 -0.0033078150561915375 0.0017317385472038547 0.00041863577419361616 0.0007990526784068117 -0.003304936716333032 -0.002001225230631341 -0.00059552603938100635 0.00045342597879405652
leaf_weight=91 345 711 320 561 449 1647 897 832 531 1190 114 140 258 39 846 578 85 213 1096 325 22 987 127 637 72 208 190 600 1059 815
leaf_count=91 345 711 320 561 449 1647 897 832 531 1190 114 140 258 39 846 578 85 213 1096 325 22 987 127 637 72 208 190 600 1059 815
internal_value=2.884e-12 -0.000473283 0.00225103 -0.000668423 5.64018e-05 0.000388709 0.00290912 -0.00115541 -0.000999004 -0.0012547 -0.00102782 -0.00137409 -0.000121558 0.00118253 0.00333606 0.000726255 0.000501299 0.000594384 0.00146344 -0.000917592 0.00125975 -0.00180453 -0.00136656 0.00129 -0.00112963 -0.000167947 -0.0023345 -0.00125759 -0.00093521 -2.63737e-05
internal_weight=15985 13208 2777 11999 4822 3913 2174 7177 6466 5120 753 909 603 431 1743 3160 2582 2497 1209 3174 1118 1946 1114 850 111 348 304 1984 1384 1346
internal_count=15985 13208 2777 11999 4822 3913 2174 7177 6466 5120 753 909 603 431 1743 3160 2582 2497 1209 3174 1118 1946 1114 850 111 348 304 1984 1384 1346
is_linear=0
shrinkage=0.01


Tree=22
num_leaves=31
num_cat=0
split_feature=3 3 0 2 15 10 17 5 0 15 10 2 9 9 2 9 17 3 9 3 0 1 9 10 0 12 15 6 3 11
split_gain=166.911 48.9644 42.4962 25.0324 25.0166 15.8479 15.299 15.0585 15.0324 14.2383 13.6658 11.3733 10.4746 9.39608 8.06216 7.90774 7.74253 7.28754 6.91518 6.59166 6.42351 5.69429 5.43533 5.07991 7.69968 4.99134 4.7475 4.64948 4.3743 4.36348
threshold=26.455000000000002 20.005000000000006 4.5000000000000009 4.5000000000000009 6.5000000000000009 1862.5000000000002 0.13392857142857142 14.500000000000002 3.5000000000000004 13.500000000000002 1772.0000000000002 6.5000000000000009 130.50000000000003 120.50000000000001 4.5000000000000009 174.50000000000003 0.14642857142857144 23.925000000000004 137.50000000000003 33.070000000000007 4.5000000000000009 1.0000000180025095e-35 264.50000000000006 517.50000000000011 8.5000000000000018 74.500000000000014 10.500000000000002 637.50000000000011 14.210000000000003 235.50000000000003
decision_type=2 2 2 2 2 2 2 2 2 2 2 2 2 2 2 2 2 2 2 2 2 2 2 2 2 2 2 2 2 2
left_child=1 4 14 8 -1 12 -6 13 21 22 15 18 26 -8 -2 29 -14 -17 -11 -18 -15 -3 -5 24 -22 -7 -4 -23 -9 -10
right_child=2 3 5 9 6 25 7 28 10 11 -12 -13 16 20 -16 17 19 -19 -20 -21 23 27 -24 -25 -26 -27 -28 -29 -30 -31
leaf_value=0.00097687547764410709 -0.0006604453922893777 -0.0031527733047820488 0.0031946073461543113 0.0012325170600244559 -0.002562078491688317 0.0024874571787899939 -0.0020540200777251867 -0.0019448641742513114 -0.00033253966838699475 -0.00064183952606479834 -0.0031773781805994016 -0.00090963611139679903 0.00098317092675450669 -0.0021288533283276827 0.0023551279544416401 0.00011865504639651106 0.0031520219871963157 0.00167178753947035 0.001303370124582011 0.0045455323648733292 -0.00078935303741671156 -0.00048209046803983965 0.0026466383182420232 -0.00054921487456877506 -0.0023368197390602275 -0.0024361169799132615 0.00077262974000469656 -0.0024615726140617146 0.00012019568824423576 -0.0025317148375324904
leaf_weight=598 495 189 119 719 695 29 1127 112 464 232 126 517 123 459 108 903 1085 454 861 494 921 360 437 2032 494 71 253 177 1219 112
leaf_count=598 495 189 119 719 695 29 1127 112 464 232 126 517 123 459 108 903 1085 454 861 494 921 360 437 2032 494 71 253 177 1219 112
internal_value=5.30765e-12 -0.00046855 0.00222852 0.000246548 -0.000986965 0.00288002 -0.00115333 -0.000999484 -0.000422689 0.000920381 1.35682e-05 0.00031243 0.0030675 -0.00124963 -0.000120343 0.000221566 0.00339975 0.000638273 0.00089048 0.00358799 -0.00101755 -0.00165995 0.00176709 -0.000869564 -0.0013296 -0.00100828 0.0015474 -0.00113455 -5.35734e-05 -0.000760157
internal_weight=15985 13208 2777 5551 7657 2174 7059 6364 2785 2766 2059 1610 2074 5033 603 1933 1702 1357 1093 1579 3906 726 1156 3447 1415 100 372 537 1331 576
internal_count=15985 13208 2777 5551 7657 2174 7059 6364 2785 2766 2059 1610 2074 5033 603 1933 1702 1357 1093 1579 3906 726 1156 3447 1415 100 372 537 1331 576
is_linear=0
shrinkage=0.01


Tree=23
num_leaves=31
num_cat=0
split_feature=3 15 0 3 0 9 10 17 5 9 9 12 3 2 2 5 10 3 15 15 10 15 17 12 9 0 9 15 10 3
split_gain=163.59 48.0615 41.6505 40.669 22.0473 18.073 15.5325 15.3418 15.4562 10.2801 9.1732 8.47889 8.46706 7.94054 7.93189 6.96031 6.3029 6.04174 6.02997 5.96721 5.07147 4.97447 4.95808 4.9261 4.78134 4.73084 4.7063 4.70274 4.63149 4.62654
threshold=26.455000000000002 6.5000000000000009 4.5000000000000009 20.205000000000002 4.5000000000000009 116.50000000000001 1862.5000000000002 0.13392857142857142 14.500000000000002 96.500000000000014 183.50000000000003 78.500000000000014 34.270000000000003 3.5000000000000004 3.5000000000000004 15.500000000000002 1805.5000000000002 23.505000000000006 1.5000000000000002 15.500000000000002 2034.5000000000002 54.500000000000007 0.18333333333333332 103.50000000000001 189.50000000000003 9.5000000000000018 162.50000000000003 54.500000000000007 768.50000000000011 17.005000000000006
decision_type=2 2 2 2 2 2 2 2 2 2 2 2 2 2 2 2 2 2 2 2 2 2 2 2 2 2 2 2 2 2
left_child=1 18 13 7 14 11 9 -3 10 -4 21 -6 22 -2 -5 16 17 -7 -1 25 -20 -9 -11 -8 -19 -12 -16 -21 -13 -10
right_child=2 3 6 4 5 15 23 8 29 12 19 28 -14 -15 26 -17 -18 24 20 27 -22 -23 -24 -25 -26 -27 -28 -29 -30 -31
leaf_value=0.0039119071343524771 -0.0011114935932792318 -0.0025268226513198971 0.001003357202102019 -0.0020837412455779916 -0.00013824825747589891 0.00022830472797388351 0.0012212852684780956 -0.001868872702068067 -0.00075200777839371153 0.00082668327317871851 -0.00066048685716789087 -0.00070751803136724785 0.0045046136522520173 0.0012078460980416096 -0.0015794646967135903 0.0017045129739437098 -0.0021873627080554693 -3.0622858820021805e-05 0.0013304476650031522 -0.0014513544715487952 -0.0035187628187916499 0.00082771662275083879 0.0030750259183707556 -0.0032176806592848152 0.0017000880965150108 0.00089651439461963076 0.00079209440710166328 -0.00014232538674954865 -0.003257092867377459 0.00044755903828569172
leaf_weight=91 345 711 222 561 449 1647 50 1875 531 106 944 114 433 258 140 578 85 213 1096 1655 22 71 1313 50 637 246 208 329 190 815
leaf_count=91 345 711 222 561 449 1647 50 1875 531 106 944 114 433 258 140 578 85 213 1096 1655 22 71 1313 50 637 246 208 329 190 815
internal_value=4.80092e-12 -0.000463864 0.00220624 -0.000655343 5.49165e-05 0.000380822 0.00285122 -0.00113254 -0.000979229 0.00303683 -0.00122991 -0.00101139 0.00328058 -0.000119139 -0.00134802 0.000712574 0.000490521 0.000581679 0.00143651 -0.000898479 0.00123502 -0.00177049 0.00290707 -0.000998198 0.00126639 -0.000338619 -0.000161981 -0.00123428 -0.002301 -2.56727e-05
internal_weight=15985 13208 2777 11999 4822 3913 2174 7177 6466 2074 5120 753 1852 603 909 3160 2582 2497 1209 3174 1118 1946 1419 100 850 1190 348 1984 304 1346
internal_count=15985 13208 2777 11999 4822 3913 2174 7177 6466 2074 5120 753 1852 603 909 3160 2582 2497 1209 3174 1118 1946 1419 100 850 1190 348 1984 304 1346
is_linear=0
shrinkage=0.01


Tree=24
num_leaves=31
num_cat=0
split_feature=3 0 15 9 3 17 3 5 12 17 9 0 2 3 3 15 10 2 10 0 1 10 10 9 10 10 9 2 9 6
split_gain=160.351 48.8533 39.9291 30.2011 27.3306 19.7228 17.3154 17.2682 13.8514 13.6952 12.5659 10.1369 8.91507 8.57425 11.3334 8.00594 8.00943 7.7465 7.06659 6.65737 6.28415 6.19784 5.91398 5.6041 5.53278 5.45092 5.37184 6.71385 5.24726 4.87308
threshold=24.005000000000006 4.5000000000000009 7.5000000000000009 137.50000000000003 17.005000000000006 0.13392857142857142 30.010000000000002 14.500000000000002 110.50000000000001 0.18333333333333332 108.50000000000001 2.5000000000000004 3.5000000000000004 19.845000000000002 19.805000000000003 10.500000000000002 1581.5000000000002 4.5000000000000009 1805.5000000000002 8.5000000000000018 1.0000000180025095e-35 1862.5000000000002 1277.5000000000002 162.50000000000003 491.50000000000006 1557.5000000000002 261.50000000000006 4.5000000000000009 211.50000000000003 613.50000000000011
decision_type=2 2 2 2 2 2 2 2 2 2 2 2 2 2 2 2 2 2 2 2 2 2 2 2 2 2 2 2 2 2
left_child=2 9 17 8 26 -6 20 10 15 -2 22 -12 -11 14 -13 -3 -17 -1 28 -16 -5 -15 -7 -14 -21 -22 -4 -28 -19 -27
right_child=1 3 4 6 5 7 -8 -9 -10 12 11 13 23 21 19 16 -18 18 -20 24 25 -23 -24 -25 -26 29 27 -29 -30 -31
leaf_value=-0.00017988696346959374 -0.0029470565053092879 0.0027412943470638334 -0.00213248300025301 3.2088858347978125e-05 -0.0021107939700232754 -0.0013169093756540246 0.0039022865327099604 0.00066566892850456047 -0.0020253768917119002 -0.00087195105271719328 -0.0018910531919783006 -3.6610941749253772e-05 -0.0002409888202590602 0.00026933863147855417 -0.00089219330648202715 0.00091850498301579984 -0.0031579424214682413 0.00087599378698015296 -0.0028944724616972177 -0.0041759985670143246 0.0024704364006558764 -0.0028640119135379793 -0.0035237855386067102 0.0023229171259332997 -0.0015339293539372468 -0.0017410304397344589 -0.0018204097804174065 -0.00038786244707205889 0.0023269059651815243 0.0027650194298475986
leaf_weight=445 172 215 1365 129 705 805 837 1335 172 385 405 1005 140 2192 486 346 56 532 37 147 1546 65 143 218 172 60 814 547 469 40
leaf_count=445 172 215 1365 129 705 805 837 1335 172 385 405 1005 140 2192 486 346 56 532 37 147 1546 65 143 218 172 60 814 547 469 40
internal_value=1.1926e-12 0.00164685 -0.00060912 0.00219869 -0.000832321 -0.000519197 0.00271661 -0.000353087 0.000484121 -0.000404303 -0.000604016 -0.000382324 0.000184329 -0.000232082 -0.000744811 0.00118369 0.000350642 0.00092394 0.00139716 -0.00162896 0.00215751 0.0001791 -0.0016498 0.00132027 -0.00275143 0.00232408 -0.00168922 -0.00124465 0.00155579 6.13895e-05
internal_weight=15985 4316 11669 3401 10186 7460 2612 6755 789 915 5420 4472 743 4067 1810 617 402 1483 1038 805 1775 2257 948 358 319 1646 2726 1361 1001 100
internal_count=15985 4316 11669 3401 10186 7460 2612 6755 789 915 5420 4472 743 4067 1810 617 402 1483 1038 805 1775 2257 948 358 319 1646 2726 1361 1001 100
is_linear=0
shrinkage=0.01


Tree=25
num_leaves=31
num_cat=0
split_feature=3 15 0 3 0 9 10 17 5 9 9 12 3 2 2 5 12 15 15 2 2 11 0 10 6 10 10 17 12 15
split_gain=157.578 46.3342 40.0193 39.0865 21.2684 17.4208 15.0695 14.8344 14.914 9.87555 8.86744 8.25056 8.18337 7.71602 7.67783 6.76073 6.11805 5.88928 5.80419 5.77404 8.27886 6.07831 6.04221 5.65268 4.94877 4.90881 4.89834 4.79214 4.77755 4.64123
threshold=26.455000000000002 6.5000000000000009 4.5000000000000009 20.205000000000002 4.5000000000000009 116.50000000000001 1862.5000000000002 0.13392857142857142 14.500000000000002 96.500000000000014 183.50000000000003 81.500000000000014 34.270000000000003 4.5000000000000009 3.5000000000000004 15.500000000000002 135.50000000000003 1.5000000000000002 15.500000000000002 7.5000000000000009 4.5000000000000009 91.500000000000014 9.5000000000000018 1862.5000000000002 641.50000000000011 768.50000000000011 2034.5000000000002 0.18333333333333332 103.50000000000001 51.500000000000007
decision_type=2 2 2 2 2 2 2 2 2 2 2 2 2 2 2 2 2 2 2 2 2 2 2 2 2 2 2 2 2 2
left_child=1 17 13 7 14 11 9 -3 10 -4 24 -6 27 -2 -5 16 19 -1 -12 20 -7 -21 -22 -18 29 -13 -19 -11 -8 -9
right_child=2 3 6 4 5 15 28 8 -10 12 18 25 -14 -15 -16 -17 23 26 -20 21 22 -23 -24 -25 -26 -27 -28 -29 -30 -31
leaf_value=0.0038570002006919502 -0.00064245023039962465 -0.0024821227870694246 0.00098730579934183616 -0.0020487386661146123 -0.00017456908625793869 0.00029475571957948753 0.0011916977660730481 -0.0016194855743766631 -2.3653911847047256e-05 0.00080679634540948035 -0.00032855782912850391 -0.00067414657187394114 0.0044226267298051172 0.0023076773143407923 -0.00015800565913394522 0.0016764587111719545 -0.00023615806784409513 0.0013053107915506068 -0.001211902122162164 -0.0024586409508242264 0.001024962851722501 0.00058295508430148508 0.002809541347540087 -0.0042210672873382767 -0.0028074871172956168 -0.0033670351043805237 -0.0034604121676900168 0.0030171959392926093 -0.0031798254076391458 0.00094521174861772646
leaf_weight=91 495 711 222 561 467 1019 50 1518 1346 106 1190 110 433 108 348 578 408 1096 1984 111 556 161 288 39 354 176 22 1313 50 74
leaf_count=91 495 711 222 561 467 1019 50 1518 1346 106 1190 110 433 108 348 578 408 1096 1984 111 556 161 288 39 354 176 22 1313 50 74
internal_value=4.22917e-13 -0.000455261 0.00216532 -0.000643267 5.30366e-05 0.000373133 0.00279755 -0.00111109 -0.000960334 0.00298037 -0.00120658 -0.000993729 0.00321927 -0.000114069 -0.00132489 0.000698845 0.000479998 0.00141065 -0.000880718 0.000702731 0.00090144 -0.000658284 0.00163392 -0.000583835 -0.00173807 -0.00233131 0.00121153 0.00285208 -0.000994064 -0.00150027
internal_weight=15985 13208 2777 11999 4822 3913 2174 7177 6466 2074 5120 753 1852 603 909 3160 2582 1209 3174 2135 1863 272 844 447 1946 286 1118 1419 100 1592
internal_count=15985 13208 2777 11999 4822 3913 2174 7177 6466 2074 5120 753 1852 603 909 3160 2582 1209 3174 2135 1863 272 844 447 1946 286 1118 1419 100 1592
is_linear=0
shrinkage=0.01


Tree=26
num_leaves=31
num_cat=0
split_feature=3 15 0 3 0 10 10 17 5 9 9 9 2 2 0 3 5 15 15 17 6 10 12 12 0 15 9 15 15 15
split_gain=154.442 45.4121 39.2229 38.3087 20.8452 17.0849 14.7696 14.5505 15.2237 11.4569 9.71593 8.78415 7.56247 7.52504 7.4584 6.68518 6.17117 5.77208 5.62452 5.44503 4.81096 4.80086 4.70798 4.6811 4.64361 4.57711 4.57619 4.57444 4.56615 4.88139
threshold=26.455000000000002 6.5000000000000009 4.5000000000000009 20.205000000000002 4.5000000000000009 1862.5000000000002 1862.5000000000002 0.14642857142857144 14.500000000000002 116.50000000000001 130.50000000000003 183.50000000000003 4.5000000000000009 3.5000000000000004 9.5000000000000018 23.505000000000006 28.500000000000004 1.5000000000000002 15.500000000000002 0.37980769230769235 641.50000000000011 2034.5000000000002 74.500000000000014 78.500000000000014 9.5000000000000018 54.500000000000007 162.50000000000003 10.500000000000002 51.500000000000007 13.500000000000002
decision_type=2 2 2 2 2 2 2 2 2 2 2 2 2 2 2 2 2 2 2 2 2 2 2 2 2 2 2 2 2 2
left_child=1 17 12 7 13 9 10 -3 11 16 27 20 -2 -5 -12 19 23 -1 24 -11 28 -19 -8 -6 -13 -20 -15 -4 29 -9
right_child=2 3 6 4 5 -7 22 8 -10 15 14 18 -14 26 -16 -17 -18 21 25 -21 -22 -23 -24 -25 -26 -27 -28 -29 -30 -31
leaf_value=0.0038184301385267095 -0.00063602573804397405 -0.0024141481270299452 0.0031034483734181761 -0.002028251281912885 -0.00036043548039224458 -0.0028518742093996182 0.0024109362663123114 -0.00062075058064578719 9.7007820985629572e-06 -0.00052536393496111129 0.0026239483497120177 -0.00064552042303266273 0.0022846006485633553 -0.0015541778935917786 0.0039482688958654075 0.0014102383863241015 0.0016684875091941087 0.0012922577046655711 -0.001410402517366709 0.00071096797048057075 -0.0027794122182199137 -0.0034258080747994507 -0.0023708375902767756 -0.0022071250587257303 0.00089739812918507105 -0.00011891238286660978 0.00078436918793998382 0.00072602482054294221 0.00093575963096038722 -0.0019381747134785271
leaf_weight=91 495 754 119 561 365 158 29 375 1324 462 871 942 108 140 831 1055 97 1096 1654 1556 354 22 71 220 246 329 208 253 74 1125
leaf_count=91 495 754 119 561 365 158 29 375 1324 462 871 942 108 140 831 1055 97 1096 1654 1556 354 22 71 220 246 329 208 253 74 1125
internal_value=2.49068e-12 -0.000450708 0.00214366 -0.000636835 5.25063e-05 0.000369402 0.00276957 -0.00109998 -0.00094571 0.000504944 0.00295056 -0.00119379 -0.000112928 -0.00131164 0.00327055 0.000765164 -0.000667571 0.00139655 -0.000870151 0.000427923 -0.00172609 0.00119942 -0.000984123 -0.00105492 -0.000326027 -0.00119613 -0.000156426 0.00148654 -0.00148919 -0.00160882
internal_weight=15985 13208 2777 11999 4822 3913 2174 7177 6423 3755 2074 5099 603 909 1702 3073 682 1209 3171 2018 1928 1118 100 585 1188 1983 348 372 1574 1500
internal_count=15985 13208 2777 11999 4822 3913 2174 7177 6423 3755 2074 5099 603 909 1702 3073 682 1209 3171 2018 1928 1118 100 585 1188 1983 348 372 1574 1500
is_linear=0
shrinkage=0.01


Tree=27
num_leaves=31
num_cat=0
split_feature=3 0 15 9 3 17 5 3 10 17 9 0 2 15 3 3 2 10 0 1 2 10 10 9 12 10 10 0 9 2
split_gain=151.375 46.0301 37.6854 28.6868 26.3138 18.7428 16.4549 16.4075 13.3807 13.2899 11.9255 9.73919 8.48562 8.20569 8.00253 11.0797 7.49848 6.78572 6.53533 6.08624 5.95771 5.89309 5.71599 5.46726 5.46454 5.40603 5.19718 5.18817 5.15214 6.49168
threshold=24.005000000000006 4.5000000000000009 7.5000000000000009 137.50000000000003 17.005000000000006 0.13392857142857142 14.500000000000002 30.010000000000002 1413.5000000000002 0.18333333333333332 108.50000000000001 2.5000000000000004 3.5000000000000004 10.500000000000002 19.845000000000002 19.805000000000003 4.5000000000000009 1805.5000000000002 8.5000000000000018 1.0000000180025095e-35 9.5000000000000018 1862.5000000000002 1277.5000000000002 162.50000000000003 121.50000000000001 491.50000000000006 1557.5000000000002 9.5000000000000018 261.50000000000006 4.5000000000000009
decision_type=2 2 2 2 2 2 2 2 2 2 2 2 2 2 2 2 2 2 2 2 2 2 2 2 2 2 2 2 2 2
left_child=2 9 16 8 28 -6 10 19 13 -2 22 -12 -11 -3 15 -13 -1 27 -17 -5 -10 -16 -7 -14 -15 -20 -21 -18 -4 -30
right_child=1 3 4 7 5 6 -8 -9 20 12 11 14 23 24 21 18 17 -19 25 26 -22 -23 -24 -25 -26 -27 -28 -29 29 -31
leaf_value=-0.00018847404239474261 -0.0028957475730905656 0.0029830180411418938 -0.0020835780320669255 4.5925759630956394e-06 -0.0020529727245010569 -0.001275958190411792 0.00065498504703380477 0.0037946945265658191 -0.0026705669925531821 -0.00084157877902851091 -0.0018473078164553708 -1.6316061747443992e-05 -0.0002448901291604021 0.00095086206834970861 0.00026402314843881956 -0.00086076240286985829 0.0010464789447640734 -0.0028423576099118469 -0.0041110353664729465 0.0024031126318439545 0.0016525089014321566 -0.0027913227390784483 -0.0034455789385161566 0.0022875196940891464 -0.0021349315383080124 -0.001499404027316243 5.080434810370207e-05 0.0026164507272148948 -0.0017802435142051322 -0.00037159749665016103
leaf_weight=445 172 182 1365 129 705 805 1335 837 157 385 405 1005 140 341 2192 486 700 37 147 1546 40 65 143 218 69 172 100 301 814 547
leaf_count=445 172 182 1365 129 705 805 1335 837 157 385 405 1005 140 341 2192 486 700 37 147 1546 40 65 143 218 69 172 100 301 814 547
internal_value=-2.82403e-12 0.0016001 -0.000591827 0.00213576 -0.000808666 -0.000501422 -0.000339491 0.00264052 0.00046472 -0.000390909 -0.000584441 -0.000368472 0.000188946 0.00121595 -0.000221206 -0.000716546 0.000897538 0.00136312 -0.00159075 0.00209627 -0.00179279 0.000176031 -0.00160323 0.00129719 0.000431546 -0.00270288 0.0022602 0.00151857 -0.00164947 -0.00121409
internal_weight=15985 4316 11669 3401 10186 7460 6755 2612 789 915 5420 4472 743 592 4067 1810 1483 1038 805 1775 197 2257 948 358 410 319 1646 1001 2726 1361
internal_count=15985 4316 11669 3401 10186 7460 6755 2612 789 915 5420 4472 743 592 4067 1810 1483 1038 805 1775 197 2257 948 358 410 319 1646 1001 2726 1361
is_linear=0
shrinkage=0.01


Tree=28
num_leaves=31
num_cat=0
split_feature=3 15 0 3 0 9 10 17 5 9 9 10 3 2 2 5 15 12 2 2 11 0 15 10 15 5 17 10 12 10
split_gain=148.782 43.7792 37.6905 36.8088 20.1057 16.4917 14.3024 14.067 14.1079 9.34742 8.41546 7.90961 7.86394 7.31694 7.28366 6.55123 6.32192 5.9271 5.65365 8.08934 5.9366 5.8907 5.62624 5.37003 5.11479 5.06037 4.63142 4.63124 4.58496 4.58219
threshold=26.455000000000002 6.5000000000000009 4.5000000000000009 20.205000000000002 4.5000000000000009 116.50000000000001 1862.5000000000002 0.13392857142857142 14.500000000000002 96.500000000000014 120.50000000000001 1277.5000000000002 34.270000000000003 3.5000000000000004 3.5000000000000004 15.500000000000002 13.500000000000002 135.50000000000003 7.5000000000000009 4.5000000000000009 91.500000000000014 9.5000000000000018 1.5000000000000002 1862.5000000000002 54.500000000000007 28.500000000000004 0.18333333333333332 2034.5000000000002 103.50000000000001 517.50000000000011
decision_type=2 2 2 2 2 2 2 2 2 2 2 2 2 2 2 2 2 2 2 2 2 2 2 2 2 2 2 2 2 2
left_child=1 22 13 7 14 11 9 -3 10 -4 -9 25 26 -2 -5 17 -12 18 19 -7 -20 -21 -1 -19 29 -6 -11 -24 -8 -18
right_child=2 3 6 4 5 15 28 8 -10 12 16 -13 -14 -15 -16 -17 24 23 20 21 -22 -23 27 -25 -26 -27 -28 -29 -30 -31
leaf_value=0.0037624574466966665 -0.0010606440953788874 -0.002414204570380139 0.00095664567422637764 -0.0019941669853973582 -0.00083020633092615757 0.00027944747845510631 0.001164984797500074 -0.0019271897648636043 -2.1287237671784256e-05 0.00075746373545800179 -0.00023861859344327731 -0.0029333957843482496 0.0043077454496471866 0.0011657595312513425 -0.00015260717391482042 0.0016410683207298471 -0.0018291468868651011 -0.00024493594360012815 -0.0024434772810923893 0.0010019213501292804 0.00056245427153518669 0.0027639826964069572 0.001267928673154343 -0.0041289416898806124 -6.4473408501426402e-05 0.001721747973149278 0.002930479439680595 -0.0033660381896929311 -0.003117521303147078 -0.00098545927327046935
leaf_weight=91 345 711 222 561 500 1019 50 1145 1346 106 942 161 433 258 348 578 1084 408 111 556 161 288 1096 39 364 92 1313 22 50 1585
leaf_count=91 345 711 222 561 500 1019 50 1145 1346 106 942 161 433 258 348 578 1084 408 111 556 161 288 1096 39 364 92 1313 22 50 1585
internal_value=1.85027e-12 -0.000442373 0.00210402 -0.000625122 5.05894e-05 0.000361814 0.00271758 -0.00107911 -0.000932304 0.00289568 -0.0011718 -0.0009681 0.00312811 -0.000108053 -0.00128915 0.00067872 -0.000954213 0.000463292 0.000682521 0.000879148 -0.000664231 0.00160319 0.00137137 -0.000583809 -0.00117646 -0.000433619 0.00276815 0.00117674 -0.000976268 -0.00132812
internal_weight=15985 13208 2777 11999 4822 3913 2174 7177 6466 2074 5120 753 1852 603 909 3160 3975 2582 2135 1863 272 844 1209 447 3033 592 1419 1118 100 2669
internal_count=15985 13208 2777 11999 4822 3913 2174 7177 6466 2074 5120 753 1852 603 909 3160 3975 2582 2135 1863 272 844 1209 447 3033 592 1419 1118 100 2669
is_linear=0
shrinkage=0.01


Tree=29
num_leaves=31
num_cat=0
split_feature=3 3 0 2 15 10 1 15 0 5 10 2 0 9 2 7 2 13 6 9 2 15 1 10 3 9 9 9 6 12
split_gain=145.821 42.9632 36.9404 22.6292 21.3912 14.0178 13.5239 13.1622 13.0953 12.3008 12.2159 10.584 9.23381 8.48955 7.23756 7.16845 6.79161 6.44216 6.31408 6.2651 5.97923 6.51106 5.2755 5.18562 5.10079 5.07487 4.8161 4.72116 4.71472 4.52587
threshold=26.455000000000002 20.005000000000006 4.5000000000000009 4.5000000000000009 6.5000000000000009 1862.5000000000002 1.5000000000000002 13.500000000000002 3.5000000000000004 15.500000000000002 1772.0000000000002 6.5000000000000009 9.5000000000000018 87.500000000000014 4.5000000000000009 464.50000000000006 6.5000000000000009 0.57787018352084696 122.50000000000001 137.50000000000003 4.5000000000000009 14.500000000000002 1.0000000180025095e-35 567.50000000000011 23.505000000000006 264.50000000000006 162.50000000000003 96.500000000000014 584.50000000000011 74.500000000000014
decision_type=2 2 2 2 2 2 2 2 2 2 2 2 2 2 2 2 2 2 2 2 2 2 2 2 2 2 2 2 2 2
left_child=1 4 14 8 -1 12 -6 25 22 13 15 19 27 -8 -2 24 20 -14 -18 -9 28 -22 -3 -20 -10 -5 -26 -4 -15 -7
right_child=2 3 5 7 6 29 9 11 10 -11 -12 -13 17 16 -16 -17 18 -19 23 -21 21 -23 -24 -25 26 -27 -28 -29 -30 -31
leaf_value=0.00089241738130188986 -0.00061870986788011516 -0.0029960764143366499 0.00047020756865315364 0.0011701085331143166 -0.0018599904660194441 0.002362245658476805 -0.0021958796180460488 -0.00061284604163841419 -7.6847430362449065e-05 9.884077903927502e-05 -0.0030141528389076629 -0.00089085795701349905 0.0027316833592702337 -0.00079875191665878544 0.0022384878582562564 -0.0027506814118993432 0.0020262160715322163 0.0043688361018795257 -0.0025081415517707495 0.0012386739884229251 0.00086753061681379929 -0.00065588179763283378 -0.0010534825538714534 -0.00078924773563025005 -0.00047933634139145863 0.0025365349772206169 0.0014810827571995675 0.0024848736691759784 -0.0021391500309130666 -0.002326136331506808
leaf_weight=598 495 189 132 719 1682 29 586 232 1168 1122 126 517 462 1238 108 79 43 501 505 861 415 866 537 269 165 437 521 979 333 71
leaf_count=598 495 189 132 719 1682 29 586 232 1168 1122 126 517 462 1238 108 79 43 501 505 861 415 866 537 269 165 437 521 979 333 71
internal_value=-3.93646e-12 -0.000437949 0.00208298 0.000231895 -0.000923557 0.0026904 -0.0010774 0.000872566 -0.000404406 -0.00083259 2.77258e-06 0.00028804 0.00286672 -0.0010782 -0.000106973 0.000199427 -0.000899687 0.00358341 -0.00170354 0.000845671 -0.000669411 -0.000162349 -0.0015592 -0.00191075 0.000325133 0.00168666 0.00100955 0.00224551 -0.00108287 -0.000966506
internal_weight=15985 13208 2777 5551 7657 2174 7059 2766 2785 5377 2059 1610 2074 4255 603 1933 3669 963 817 1093 2852 1281 726 774 1854 1156 686 1111 1571 100
internal_count=15985 13208 2777 5551 7657 2174 7059 2766 2785 5377 2059 1610 2074 4255 603 1933 3669 963 817 1093 2852 1281 726 774 1854 1156 686 1111 1571 100
is_linear=0
shrinkage=0.01


Tree=30
num_leaves=31
num_cat=0
split_feature=3 0 15 9 3 17 5 3 12 17 9 0 2 15 10 3 3 2 10 0 1 10 10 9 10 0 9 2 10 6
split_gain=142.954 43.3799 35.6119 27.3258 25.3447 17.8655 15.6902 15.5543 12.9211 12.8548 11.3273 9.37236 8.06604 7.47758 7.51546 7.45411 10.8043 7.20363 6.58425 6.38589 5.89109 5.61607 5.52672 5.35576 5.24479 5.04649 4.97418 6.25905 4.95906 4.62308
threshold=24.005000000000006 4.5000000000000009 7.5000000000000009 137.50000000000003 17.005000000000006 0.13392857142857142 14.500000000000002 30.010000000000002 110.50000000000001 0.18333333333333332 108.50000000000001 2.5000000000000004 3.5000000000000004 10.500000000000002 1581.5000000000002 19.845000000000002 19.805000000000003 4.5000000000000009 1805.5000000000002 8.5000000000000018 1.0000000180025095e-35 1862.5000000000002 1277.5000000000002 162.50000000000003 491.50000000000006 9.5000000000000018 261.50000000000006 4.5000000000000009 1557.5000000000002 613.50000000000011
decision_type=2 2 2 2 2 2 2 2 2 2 2 2 2 2 2 2 2 2 2 2 2 2 2 2 2 2 2 2 2 2
left_child=2 9 17 8 26 -6 10 20 13 -2 22 -12 -11 -3 -15 16 -13 -1 25 -18 -5 -17 -7 -14 -21 -19 -4 -28 -22 -30
right_child=1 3 4 7 5 6 -8 -9 -10 12 11 15 23 14 -16 21 19 18 -20 24 28 -23 -24 -25 -26 -27 27 -29 29 -31
leaf_value=-0.00019176488377028303 -0.0028413847989408126 0.0026250466536730526 -0.0020376382419172567 -2.0175992200771968e-05 -0.0019991875930758631 -0.0012365786491311879 0.00064480400216699858 0.0036913718085145198 -0.0019797105950487472 -0.00081232669629842987 -0.0018057162852226298 2.8750949514773791e-06 -0.0002533800254708954 0.00086469996535835654 -0.0030840424055765779 0.00025875126393604299 -0.00083027489889492647 0.0010165428055649889 -0.0028135578600828209 -0.004038206455962999 0.0023385756516238472 -0.0027239188781151401 -0.0033699766832397328 0.0022530745448963293 -0.0014658171205062605 0.0025649290488092258 -0.0017392162711711327 -0.00035604011396169507 -0.0017147880469759306 0.0026741544569376858
leaf_weight=445 172 215 1365 129 705 805 1335 837 172 385 405 1005 140 346 56 2192 486 700 37 147 1546 65 143 218 172 301 814 547 60 40
leaf_count=445 172 215 1365 129 705 805 1335 837 172 385 405 1005 140 346 56 2192 486 700 37 147 1546 65 143 218 172 301 814 547 60 40
internal_value=1.92789e-14 0.00155495 -0.000575129 0.00207496 -0.000785919 -0.000484385 -0.00032629 0.00256761 0.000444049 -0.000377887 -0.00056548 -0.000354997 0.000192397 0.00111972 0.000314626 -0.000210532 -0.000688597 0.000872681 0.00132902 -0.00155186 0.0020377 0.000172852 -0.00155839 0.0012729 -0.00265121 0.00148214 -0.0016111 -0.0011833 0.00219898 4.0789e-05
internal_weight=15985 4316 11669 3401 10186 7460 6755 2612 789 915 5420 4472 743 617 402 4067 1810 1483 1038 805 1775 2257 948 358 319 1001 2726 1361 1646 100
internal_count=15985 4316 11669 3401 10186 7460 6755 2612 789 915 5420 4472 743 617 402 4067 1810 1483 1038 805 1775 2257 948 358 319 1001 2726 1361 1646 100
is_linear=0
shrinkage=0.01


Tree=31
num_leaves=31
num_cat=0
split_feature=3 15 0 3 0 10 10 17 5 9 0 9 2 2 9 3 5 15 15 3 17 6 9 0 11 0 0 11 12 10
split_gain=140.46 41.4546 35.4928 34.652 19.0337 15.7152 13.5989 13.4418 13.3749 10.4605 8.98588 8.09111 7.00218 6.96074 6.29753 6.09989 5.7918 5.47703 5.36808 5.29606 5.15206 4.69534 4.53651 4.51636 4.51482 4.50532 4.79149 4.58035 4.49316 4.46358
threshold=26.455000000000002 6.5000000000000009 4.5000000000000009 20.205000000000002 4.5000000000000009 1862.5000000000002 1862.5000000000002 0.13392857142857142 14.500000000000002 116.50000000000001 9.5000000000000018 183.50000000000003 4.5000000000000009 3.5000000000000004 70.500000000000014 23.505000000000006 28.500000000000004 1.5000000000000002 15.500000000000002 36.010000000000012 0.37980769230769235 641.50000000000011 96.500000000000014 9.5000000000000018 16.500000000000004 8.5000000000000018 4.5000000000000009 56.500000000000007 78.500000000000014 2034.5000000000002
decision_type=2 2 2 2 2 2 2 2 2 2 2 2 2 2 2 2 2 2 2 2 2 2 2 2 2 2 2 2 2 2
left_child=1 17 12 7 13 9 10 -3 11 16 22 21 -2 -5 -12 20 28 -1 23 -16 -11 -9 -4 -13 -22 26 -20 -27 -6 -19
right_child=2 3 6 4 5 -7 -8 8 -10 15 14 18 -14 -15 19 -17 -18 29 25 -21 24 -23 -24 -25 -26 27 -28 -29 -30 -31
leaf_value=0.0036942796554457358 -0.00060563258514645499 -0.0023532291217312497 0.00046033943731648227 -0.0019447829751750212 -0.00033444932026609984 -0.0027386773553900894 -0.00096213292283937337 -0.0014138905346156769 -1.7602515959057731e-05 -0.00052000788973797585 6.4805223140865567e-05 -0.00061003231827410254 0.0022047196036308176 -0.00014450857203705345 0.0032676679388474058 0.001345607316269323 0.0016235191481591194 0.0012326035486527015 -0.0018934144199252701 0.005022103860587105 -0.0036210699131091436 -0.0026871934646689913 0.0024352149378624984 0.00091126536704387844 0.00075002333024596789 -0.0033115558957345554 -0.00050533749808828472 -0.0013396783347972424 -0.002143689553338018 -0.0033167109469121152
leaf_weight=91 495 711 132 561 365 158 100 1592 1346 462 50 944 108 348 683 1055 97 1096 325 230 24 354 979 246 1532 161 1059 439 220 22
leaf_count=91 495 711 132 561 365 158 100 1592 1346 462 50 944 108 348 683 1055 97 1096 325 230 24 354 979 246 1532 161 1059 439 220 22
internal_value=-7.65844e-13 -0.000429822 0.00204432 -0.000607654 4.79624e-05 0.000350776 0.00263973 -0.00104814 -0.000904634 0.000480772 0.0028134 -0.00113783 -0.000102286 -0.00125557 0.0035204 0.000729418 -0.000639596 0.00133511 -0.000826557 0.00370964 0.000407278 -0.00164552 0.00220058 -0.000295546 0.000682603 -0.00114506 -0.000831295 -0.0018688 -0.00101485 0.00114308
internal_weight=15985 13208 2777 11999 4822 3913 2174 7177 6466 3755 2074 5120 603 909 963 3073 682 1209 3174 913 2018 1946 1111 1190 1556 1984 1384 600 585 1118
internal_count=15985 13208 2777 11999 4822 3913 2174 7177 6466 3755 2074 5120 603 909 963 3073 682 1209 3174 913 2018 1946 1111 1190 1556 1984 1384 600 585 1118
is_linear=0
shrinkage=0.01


Tree=32
num_leaves=31
num_cat=0
split_feature=3 15 0 3 0 10 10 1 5 9 0 9 2 2 2 13 6 3 2 15 5 15 10 17 6 9 11 12 9 12
