tree
version=v4
num_class=1
num_tree_per_iteration=1
label_index=0
max_feature_idx=17
objective=regression
feature_names=manage_cost floor all_floors area_m2 bathroom_count movein_date dist_subway dist_pharmacy dist_conv dist_bus dist_mart dist_laundry dist_cafe room_quality_score bath_clean_score building_age is_first_floor relative_floor
feature_infos=[0:110] [-1:43] [4:51] [7:108.93000000000001] [1:2] [0:850] [0:2483] [0:908] [0:1545] [0:1636] [0:3845] [0:1545] [0:1089] [0.49041225512822467:0.61731147766113281] [0.48733714:0.56752676000000002] [0:62] none [-0.125:1]
tree_sizes=2686 2920 2923 2925 2914 2929 2910 2915 2911 2928 2915 2919 2908 2915 2910 2924 2914 2916 2906 2921 2925 2921 2909 2918 2917 2921 2923 2917 2922 2924 2919 2925 2921 2929 2923 2930 2932 2927 2929 2919 2923 2926 2922 2918 2926 2910 2927 2933 2908 2922 2923 2917 2922 2928 2918 2909 2914 2922 2929 2919 2908 2919 2931 2929 2917 2922 2920 2934 2931 2930 2914 2928 2921 2934 2932 2925 2922 2902 2918 2923 2923 2928 2924 2905 2934 2916 2912 2941 2919 2910 2941 2916 2916 2910 2937 2922 2934 2925 2929 2925 2933 2930 2927 2939 2916 2909 2924 2916 2935 2930 2926 2937 2911 2933 2925 2930 2931 2934 2922 2938 2932 2929 2936 2930 2934 2910 2932 2928 2928 2923 2920 2933 2923 2927 2924 2925 2937 2934 2939 2945 2932 2921 2935 2927 2932 2925 2944 2954 2933 2952 2946 2929 2939 2940 2933 2949 2911 2938 2949 2954 2928 2941 2935 2948 2917 2947 2947 2925 2953 2940 2922 2946 2942 2934 2932 2953 2935 2947 2951 2935 2940 2935 2956 2947 2943 2935 2962 2939 2936 2946 2956 2952 2948 2940 2950 2954 2956 2933 2956 2949 2959 2938 2942 2950 2950 2936 2936 2929 2956 2960 2935 2951 2941 2943 2951 2941 2934 2933 2959 2936 2954 2929 2930 2943 2953 2931 2945 2957 2920 2947 2963 2933 2937 2955 2943 2939 2946 2969 2929 2941 2951 2932 2954 2915 2933 2953 2928 2959 2957 2926 2932 2920 2956 2929 2957 2937 2969 2931 2906 2963 2938 2947 2929 2920 2938 2941 2959 2950 2942 2931 2943 2941 2967 2936 2946 2922 2934 2959 2927 2932 2959 2936 2961 2943 2938 2935 2966 2942 2960 2958 2950 2965 2953 2957 2943 2952 2955 2953 2951 2951 2967 2952 2941 2965 2960 2934 2953 2947 2950 2960 2965 2956 2952 2937 2965 2945 2930 2985 2941 2961 2959 2980 2919 2946 2935 2972 2961 2946 2951 2935 2950 2963 2954 2953 2951 2948 2931 2931 2950 2937 2964 2949 2963 2970 2941 2950 2957 2935 2955 2964 2956 2931 2950 2951 2970 2955 2931 2929 2951 2970 2952 2923 2963 2915 2963 2956 2954 2915 2956 2948 2966 2919 2962 2963 2933 2967 2949 2946 2970 2952 2965 2943 2944 2954 2963 2952 2950 2949 2948 2961 2974 2960 2951 2952 2963 2977 2971 2969 2965 2937 2934 2987 2949 2974 2951 2932 2974 2954 2969 2960 2973 2943 2976 2958 2965 2925 2952 2942 2944 2975 2960 2963 2964 2965 2967 2964 2961 2950 2964 2961 2972 2966 2963 2972 2964 2979 2963 2978 2960 2967 2964 2963 2960 2962 2981 2972 2968 2955 2977 2984 2970 2968 2964 2957 2942 2961 2972 2959 2955 2971 2981 2960 2961 2979 2936 2955 2968 2966 2975 2951 2975 2971 2964 2949 2989 2965 2955 2994 2941 2954 2987 2942 2962 2975 2961 2961 2967 2980 2969 2936 2965 2976 2966 2965 2944 2974 2952 2950 2960 2964 2968 2970 2957 2963 2971 2962 2966 2971 2954 2949 2958 2952 2958 2948 2953 2944 2974 2964 2936 2947 2977 2938 2969 2972 2939 2948 2936 2962 2972 2956 2928 2942 2975 2967 2939 2965 2964 2947 2959 2967 2966 2965 2949 2948 2983 2965 2960 2963 2920 2948 2962 2958 2975 2944 2946 2954 2956 2944 2931 2946 2955 2971 2953 2948 2941 2968 2978 2939 2935 2942 2964 2972 2937 2946 2947 2953 2957 2941 2940 2949 2957 2950 2933 2918 2957 2939 2981 2951 2941 2948 2930 2915 2927 2910 2947 2965 2944 2967 2953 2973 2974 2927 2937 2957 2951 2937 2966 2979 2939 2954 2940 2976 2961 2945 2948 2952 2967 2935 2980 2935 2958 2916 2938 2944 2950 2934 2914 2950 2986 2958 2949 2963 2958 2956 2965 2959 2966 2950 2952 2941 2935 2937 2929 2940 2918 2931 2968 2953 2920 2951 2942 2954 2920 2950 2939 2938 2962 2943 2942 2929 2936 2940 2924 2945 2932 2948 2950 2912 2934 2937 2948 2951 2937 2908 2926 2913 2949 2908 2944 2937 2922 2946 2947 2945 2915 2947 2956 2933 2943 2947 2938 2909 2951 2944 2939 2957 2939 2932 2898 2941 2982 2900 2951 2906 2945 2924 2940 2938 2895 2952 2951 2899 2929 2921 2901 2959 2952 2946 2934 2939 2939 2903 2944 2927 2936 2942 2939 2952 2914 2938 2918 2938 2944 2924 2902 2930 2945 2945 2943 2928 2929 2927 2924 2894 2923 2948 2939 2928 2929 2944 2948 2940 2947 2912 2964 2945 2939 2940 2915 2942 2935 2944 2921 2912 2964 2941 2932 2926 2971 2943 2927 2933 2935 2924 2931 2961 2939 2939 2932 2933 2934 2880 2951 2916 2923 2936 2920 2941 2963 2961 2944 2936 2932 2940 2954 2936 2915 2931 2917 2912 2948 2946 2945 2934 2934 2933 2944 2948 2946 2955 2960 2933 2940 2940 2970 2935 2910 2939 2936 2959 2934 2934 2941 2911 2938 2951 2939 2917 2965 2942 2958 2959 2919 2897 2936 2940 2919 2929 2958 2961 2931 2941 2927 2930 2936 2929 2984 2946 2964 2937 2961 2924 2869 2929 2983 2947 2933 2946 2893 2870 2939 2930 2925 2874 2924 2915 2936 2932 2876 2910 2938 2953 2926 2948 2942 2873 2930 2936 2944 2871 2926 2984 2952 2937 2871 2929 2926 2943 2944 2950 2870 2933 2931 2940 2927 2953 2935 2942 2946 2956 2918 2911 2934 2934 2877 2941 2939 2917 2923 2916 2944 2921 2941 2941 2943 2952 2941 2927 2946 2906 2942 2943 2927 2933 2943 2930 2923 2935 2928 2939 2911 2933 2940 2879 2952 2940 2952 2916 2959 2933 2936 2933 2942 2898 2923 2905 2936 2933 2907 2946 2937 2934 2936 2935 2935 2926 2955 2925 2940 2906 2932 2907 2939 2930 2926 2931 2919 2940 2946 2915 2944 2954 2962 2949 2936 2937 2919 2917 2946 2925 2948 2939 2928 2919 2961 2966 2922 2937 2942 2903 2960 2927 2929 2921 2951 2928 2907 2929 2945 2921

Tree=0
num_leaves=31
num_cat=0
split_feature=3 15 15 0 3 2 15 3 6 15 2 15 0 8 15 11 0 9 12 0 15 3 0 11 11 15 3 9 10 11
split_gain=570.118 246.697 175.099 112.007 72.3358 35.8226 34.3282 27.4465 26.6684 29.95 26.5737 25.1846 24.5932 21.0777 18.0722 16.7651 16.1592 13.7035 15.1055 13.587 12.4071 12.2208 11.1695 10.2923 10.044 9.75927 9.6954 9.08518 8.50833 8.12938
threshold=33.980000000000011 6.5000000000000009 12.500000000000002 8.5000000000000018 24.535000000000004 22.500000000000004 11.500000000000002 22.345000000000002 783.50000000000011 5.5000000000000009 16.500000000000004 13.500000000000002 23.500000000000004 109.50000000000001 4.5000000000000009 313.50000000000006 9.5000000000000018 159.50000000000003 147.50000000000003 10.500000000000002 11.500000000000002 26.695000000000004 11.500000000000002 260.50000000000006 109.50000000000001 21.500000000000004 58.215000000000011 122.50000000000001 414.50000000000006 209.50000000000003
decision_type=2 2 2 2 2 2 2 2 2 2 2 2 2 2 2 2 2 2 2 2 2 2 2 2 2 2 2 2 2 2
left_child=1 4 12 6 8 15 24 20 9 16 19 21 14 -7 17 22 -1 18 -2 -4 -5 -9 -6 -18 -3 -21 -12 -8 -13 -14
right_child=2 3 10 7 5 13 27 11 -10 -11 26 28 29 -15 -16 -17 23 -19 -20 25 -22 -23 -24 -25 -26 -27 -28 -29 -30 -31
leaf_value=4.555693655485813 4.5617156790363502 4.5548731100681517 4.5526451259666727 4.554498907531265 4.5587062843220165 4.5545444642686643 4.5500839647711908 4.5557462302096914 4.5535488432250055 4.5545894518790524 4.5581639348408922 4.5528884385155441 4.5655559033268798 4.5599827515224094 4.5600057881719049 4.555509615314306 4.5580983566518487 4.5635157538556443 4.5558110774221436 4.5589197624450106 4.5527067341949516 4.5579098350710874 4.5606219166624751 4.555000941465206 4.5526973868443843 4.555000381613624 4.5639814109501486 4.5517984283669541 4.5550104923630093 4.5619521156623186
leaf_weight=598 445 308 176 1141 677 305 667 618 425 738 182 263 230 93 523 111 946 479 48 89 584 452 553 121 682 222 34 576 671 86
leaf_count=598 445 308 176 1141 677 305 667 618 425 738 182 263 230 93 523 111 946 479 48 89 584 452 553 121 682 222 34 576 671 86
internal_value=4.55612 4.5551 4.5604 4.55376 4.55684 4.55845 4.55198 4.55482 4.55586 4.55627 4.55616 4.55561 4.56204 4.55582 4.5615 4.55923 4.55701 4.56231 4.56114 4.55487 4.55389 4.55666 4.55957 4.55775 4.55337 4.55612 4.55908 4.55088 4.55441 4.56458
internal_weight=13043 10529 2514 5962 4567 1739 2233 3729 2828 2403 703 2004 1811 398 1495 1341 1665 972 493 487 1725 1070 1230 1067 990 311 216 1243 934 316
internal_count=13043 10529 2514 5962 4567 1739 2233 3729 2828 2403 703 2004 1811 398 1495 1341 1665 972 493 487 1725 1070 1230 1067 990 311 216 1243 934 316
is_linear=0
shrinkage=1


Tree=1
num_leaves=31
num_cat=0
split_feature=3 15 15 0 3 2 15 3 6 15 2 15 0 8 15 11 0 9 12 0 15 3 0 11 11 15 3 9 10 11
split_gain=558.773 241.788 171.614 109.778 70.8963 35.1097 33.6451 26.9004 26.1377 29.354 26.0449 24.6834 24.1038 20.6583 17.7126 16.4315 15.8376 13.4308 14.8049 13.3166 12.174 11.9776 11.0259 10.0874 9.84414 9.56506 9.50246 8.90439 8.33901 7.96761
threshold=33.980000000000011 6.5000000000000009 12.500000000000002 8.5000000000000018 24.535000000000004 22.500000000000004 11.500000000000002 22.345000000000002 783.50000000000011 5.5000000000000009 16.500000000000004 13.500000000000002 23.500000000000004 109.50000000000001 4.5000000000000009 313.50000000000006 9.5000000000000018 159.50000000000003 147.50000000000003 10.500000000000002 12.500000000000002 26.695000000000004 15.500000000000002 260.50000000000006 109.50000000000001 21.500000000000004 58.215000000000011 122.50000000000001 414.50000000000006 209.50000000000003
decision_type=2 2 2 2 2 2 2 2 2 2 2 2 2 2 2 2 2 2 2 2 2 2 2 2 2 2 2 2 2 2
left_child=1 4 12 6 8 15 24 20 9 16 19 21 14 -7 17 22 -1 18 -2 -4 -5 -9 -6 -18 -3 -21 -12 -8 -13 -14
right_child=2 3 10 7 5 13 27 11 -10 -11 26 28 29 -15 -16 -17 23 -19 -20 25 -22 -23 -24 -25 -26 -27 -28 -29 -30 -31
leaf_value=-0.0004196238848084839 0.0055421795468316992 -0.0012319638382480179 -0.0034376681187793358 -0.0016965090460972236 0.0030324853717227434 -0.0015573232267815315 -0.0059732173430098769 -0.00036757488807921023 -0.0025429880676791075 -0.0015127854258548293 0.0020259526572548427 -0.0031967887249438822 0.0093440014072086498 0.0038265811602848049 0.003849387534507147 -0.00060182368852667982 0.0019610302913631262 0.007324253412776302 -0.0003033761369685332 0.0027742220013496585 -0.0035962196376868117 0.0017743938914072635 0.0057558092150320388 -0.0011054107526409602 -0.0033859297651811187 -0.0011059650568174082 0.0077852541578057053 -0.00427589860038097 -0.0010959553811109269 0.0057762518039969511
leaf_weight=598 445 308 176 1265 1057 305 667 618 425 738 182 263 230 93 523 111 946 479 48 89 460 452 173 121 682 222 34 576 671 86
leaf_count=598 445 308 176 1265 1057 305 667 618 425 738 182 263 230 93 523 111 946 479 48 89 460 452 173 121 682 222 34 576 671 86
internal_value=-2.55674e-12 -0.00101139 0.00423584 -0.00233769 0.000720039 0.0023089 -0.00409122 -0.00128764 -0.000256988 0.00014732 4.23527e-05 -0.000499639 0.00586368 -0.000299275 0.00533328 0.00308299 0.00088315 0.00613171 0.00497304 -0.00123952 -0.0022031 0.000537257 0.00341552 0.00161329 -0.00271581 4.44217e-06 0.00293251 -0.00518669 -0.00168752 0.00837303
internal_weight=13043 10529 2514 5962 4567 1739 2233 3729 2828 2403 703 2004 1811 398 1495 1341 1665 972 493 487 1725 1070 1230 1067 990 311 216 1243 934 316
internal_count=13043 10529 2514 5962 4567 1739 2233 3729 2828 2403 703 2004 1811 398 1495 1341 1665 972 493 487 1725 1070 1230 1067 990 311 216 1243 934 316
is_linear=0
shrinkage=0.01


Tree=2
num_leaves=31
num_cat=0
split_feature=3 15 15 0 3 2 15 3 15 6 15 2 0 8 15 11 12 9 12 0 0 15 0 11 15 3 9 3 10 6
split_gain=547.653 236.976 168.199 107.593 69.4854 34.4111 32.9755 26.3998 25.6484 25.6175 28.7698 25.5266 23.6241 20.2472 17.3601 16.1045 15.6925 13.1635 14.5103 13.0516 12.4531 12.4416 10.8491 9.64824 9.37472 9.31336 8.72719 8.15036 7.92004 11.4708
threshold=33.980000000000011 6.5000000000000009 12.500000000000002 8.5000000000000018 24.535000000000004 22.500000000000004 11.500000000000002 23.810000000000006 13.500000000000002 783.50000000000011 5.5000000000000009 16.500000000000004 23.500000000000004 109.50000000000001 4.5000000000000009 313.50000000000006 165.50000000000003 159.50000000000003 147.50000000000003 10.500000000000002 9.5000000000000018 12.500000000000002 11.500000000000002 109.50000000000001 21.500000000000004 58.215000000000011 122.50000000000001 27.625000000000004 1138.5000000000002 658.50000000000011
decision_type=2 2 2 2 2 2 2 2 2 2 2 2 2 2 2 2 2 2 2 2 2 2 2 2 2 2 2 2 2 2
left_child=1 4 12 6 9 15 23 21 27 10 16 19 14 -7 17 22 20 18 -2 -4 -1 -5 -6 -3 -21 -13 -8 -9 29 -10
right_child=2 3 11 7 5 13 26 8 28 -11 -12 25 -14 -15 -16 -17 -18 -19 -20 24 -22 -23 -24 -25 -26 -27 -28 -29 -30 -31
leaf_value=-0.00013861708235049801 0.0054867576206668036 -0.0012196441820116605 -0.0034032913287889888 -0.0015611435742138512 0.0025325538183484392 -0.0015417499286504311 -0.0059134855881581893 1.0104784491692969e-05 -0.0015745397035728035 -0.0025175580613753376 -0.001497657582727589 0.0020056931961041232 0.008289301404847375 0.0037883153852946577 0.003810893662966032 -0.00059580547667972676 -0.0037947503826918378 0.0072510111979004737 -0.00030034238336763038 0.0027464797904484728 0.0017184815971550017 -0.0033117388270329684 0.0044205102895531348 -0.0033520705402945512 -0.0010949054149373828 0.0077074018564513508 -0.0042331397015934477 0.0019737794436514378 0.00015941485271064773 -0.005316292966793602
leaf_weight=552 445 308 176 1449 677 305 667 493 559 425 738 182 316 93 523 111 69 479 48 89 1044 564 553 682 222 34 576 370 198 96
leaf_count=552 445 308 176 1449 677 305 667 493 559 425 738 182 316 93 523 111 69 479 48 89 1044 564 553 682 222 34 576 370 198 96
internal_value=-4.22628e-12 -0.00100127 0.00419348 -0.00231432 0.000712838 0.00228581 -0.00405031 -0.00127477 -0.000363454 -0.000254418 0.000145846 4.19292e-05 0.00580505 -0.000296282 0.00527995 0.00305216 0.000874319 0.0060704 0.00492331 -0.00122713 0.00107618 -0.00205162 0.00338137 -0.00268865 4.39775e-06 0.00290318 -0.00513482 0.000852005 -0.00159316 -0.00212295
internal_weight=13043 10529 2514 5962 4567 1739 2233 3729 1716 2828 2403 703 1811 398 1495 1341 1665 972 493 487 1596 2013 1230 990 311 216 1243 863 853 655
internal_count=13043 10529 2514 5962 4567 1739 2233 3729 1716 2828 2403 703 1811 398 1495 1341 1665 972 493 487 1596 2013 1230 990 311 216 1243 863 853 655
is_linear=0
shrinkage=0.01


Tree=3
num_leaves=31
num_cat=0
split_feature=3 15 15 0 3 2 15 3 6 15 2 15 0 8 15 11 12 9 12 0 0 15 3 0 11 15 3 9 10 11
split_gain=536.755 232.26 164.852 105.452 68.1027 33.7263 32.3193 25.9286 25.1078 28.1973 25.0186 23.7353 23.154 19.8443 17.0146 15.7841 15.3802 12.9015 14.2215 12.7919 12.2053 11.7692 11.497 10.7098 9.45624 9.18816 9.12803 8.55352 8.15184 7.80905
threshold=33.980000000000011 6.5000000000000009 12.500000000000002 8.5000000000000018 24.535000000000004 22.500000000000004 11.500000000000002 22.345000000000002 783.50000000000011 5.5000000000000009 16.500000000000004 13.500000000000002 23.500000000000004 109.50000000000001 4.5000000000000009 313.50000000000006 165.50000000000003 159.50000000000003 147.50000000000003 10.500000000000002 9.5000000000000018 11.500000000000002 26.695000000000004 15.500000000000002 109.50000000000001 21.500000000000004 58.215000000000011 122.50000000000001 414.50000000000006 209.50000000000003
decision_type=2 2 2 2 2 2 2 2 2 2 2 2 2 2 2 2 2 2 2 2 2 2 2 2 2 2 2 2 2 2
left_child=1 4 12 6 8 15 24 21 9 16 19 22 14 -7 17 23 20 18 -2 -4 -1 -5 -9 -6 -3 -21 -12 -8 -13 -14
right_child=2 3 10 7 5 13 27 11 -10 -11 26 28 29 -15 -16 -17 -18 -19 -20 25 -22 -23 -24 -25 -26 -27 -28 -29 -30 -31
leaf_value=-0.00013723095357620521 0.0054318902200987838 -0.0012074477804746092 -0.0033692584315378389 -0.0015698478098282889 0.0029700475490946699 -0.0015263324592502973 -0.0058543506351814815 -0.00035808574215479894 -0.0024923825718024197 -0.0014826809929636164 0.0019856362339559491 -0.0031454575854307572 0.0091676685324181689 0.0037504322896961886 0.0037727846730105136 -0.00058984740158996073 -0.0037568028095731698 0.0071785009554383153 -0.00029733893306305013 0.0027190149881029398 0.0017012967957987474 -0.0033153470278692062 0.0017404746206153279 0.005654046096424491 -0.0033185498665137792 -0.0010839563724794636 0.0076303274233770722 -0.0041908082049990801 -0.0010683345498764213 0.0056355962616413133
leaf_weight=552 445 308 176 1141 1057 305 667 618 425 738 182 263 230 93 523 111 69 479 48 89 1044 584 452 173 682 222 34 576 671 86
leaf_count=552 445 308 176 1141 1057 305 667 618 425 738 182 263 230 93 523 111 69 479 48 89 1044 584 452 173 682 222 34 576 671 86
internal_value=-9.22331e-12 -0.000991262 0.00415155 -0.00229117 0.00070571 0.00226295 -0.00400981 -0.00126202 -0.000251873 0.000144388 4.15099e-05 -0.000488378 0.005747 -0.00029332 0.00522715 0.00302164 0.000865575 0.00600969 0.00487407 -0.00121486 0.00106542 -0.00216079 0.000528409 0.00334755 -0.00266176 4.35376e-06 0.00287415 -0.00508347 -0.00165322 0.00820641
internal_weight=13043 10529 2514 5962 4567 1739 2233 3729 2828 2403 703 2004 1811 398 1495 1341 1665 972 493 487 1596 1725 1070 1230 990 311 216 1243 934 316
internal_count=13043 10529 2514 5962 4567 1739 2233 3729 2828 2403 703 2004 1811 398 1495 1341 1665 972 493 487 1596 1725 1070 1230 990 311 216 1243 934 316
is_linear=0
shrinkage=0.01


Tree=4
num_leaves=31
num_cat=0
split_feature=3 15 15 0 3 2 15 3 15 6 15 2 0 8 15 9 11 12 12 0 15 0 0 11 6 15 3 6 12 9
split_gain=526.073 227.639 161.571 103.354 66.7474 33.0551 31.6762 25.415 24.6405 24.6081 27.6362 24.5208 22.7716 19.4494 17.8716 15.7657 15.4699 15.0741 12.7086 12.5373 12.0026 11.9624 10.5379 9.26806 9.0421 9.00532 8.94638 8.77491 8.45698 8.3833
threshold=33.980000000000011 6.5000000000000009 12.500000000000002 8.5000000000000018 24.535000000000004 22.500000000000004 11.500000000000002 23.810000000000006 14.500000000000002 783.50000000000011 5.5000000000000009 16.500000000000004 29.500000000000004 109.50000000000001 4.5000000000000009 159.50000000000003 313.50000000000006 165.50000000000003 147.50000000000003 10.500000000000002 12.500000000000002 9.5000000000000018 11.500000000000002 109.50000000000001 436.50000000000006 21.500000000000004 58.215000000000011 737.50000000000011 117.50000000000001 122.50000000000001
decision_type=2 2 2 2 2 2 2 2 2 2 2 2 2 2 2 2 2 2 2 2 2 2 2 2 2 2 2 2 2 2
left_child=1 4 12 6 9 16 23 20 -9 10 17 19 14 -7 15 18 22 21 24 -4 -5 -1 -6 -3 -2 -21 -13 -10 -14 -8
right_child=2 3 11 7 5 13 29 8 27 -11 -12 26 28 -15 -16 -17 -18 -19 -20 25 -22 -23 -24 -25 -26 -27 -28 -29 -30 -31
leaf_value=-0.0001358586206249353 0.0065250064831850066 -0.0011953733324424013 -0.0033355659458108923 -0.0015298787388125718 0.0024775278029902847 -0.0015110691733062878 -0.0057958070234628749 0.00076592491303355552 -0.0012497548325580618 -0.0024674587671371069 -0.0014678542325803176 0.0019657799335462706 0.010490043704067507 0.0037129279921051632 0.0039060492624174077 0.0072958133543079553 -0.00058394892594298801 -0.0037192348733652331 0.00019922353381004472 0.0026918248861525834 -0.0032493117920342663 0.0016842838355228937 0.0043382081102283426 -0.003285364382773982 0.0037986158410505877 -0.0010731167369731913 0.0075540241774390724 -0.0044723615993279963 0.0037624160539020193 -0.0041489001668176366
leaf_weight=552 293 308 176 1449 677 305 667 915 705 425 738 182 124 93 562 550 111 69 52 89 564 1044 553 682 208 222 34 96 22 576
leaf_count=552 293 308 176 1449 677 305 667 915 705 425 738 182 124 93 562 550 111 69 52 89 564 1044 553 682 208 222 34 96 22 576
internal_value=-5.26551e-12 -0.000981349 0.00411003 -0.00226826 0.000698653 0.00224032 -0.00396971 -0.0012494 -0.000355246 -0.000249355 0.000142944 4.10948e-05 0.00568953 -0.000290386 0.00535747 0.006097 0.00299142 0.00085692 0.0049047 -0.00120271 -0.00201163 0.00105476 0.00331408 -0.00263514 0.00539309 4.31029e-06 0.00284541 -0.00163598 0.00947629 -0.00503264
internal_weight=13043 10529 2514 5962 4567 1739 2233 3729 1716 2828 2403 703 1811 398 1665 1103 1341 1665 553 487 2013 1596 1230 990 501 311 216 801 146 1243
internal_count=13043 10529 2514 5962 4567 1739 2233 3729 1716 2828 2403 703 1811 398 1665 1103 1341 1665 553 487 2013 1596 1230 990 501 311 216 801 146 1243
is_linear=0
shrinkage=0.01


Tree=5
num_leaves=31
num_cat=0
split_feature=3 15 15 0 3 2 15 3 6 15 2 15 0 8 15 11 12 9 12 0 0 15 3 0 11 15 3 9 10 11
split_gain=515.605 223.109 158.356 101.297 65.4192 32.3973 31.0458 24.9923 24.1184 27.0862 24.0328 22.8497 22.3772 19.0623 16.3479 15.1621 14.7741 12.3839 13.6821 12.2878 11.7243 11.3549 11.2234 10.4027 9.08362 8.82611 8.76835 8.21648 8.01015 7.55463
threshold=33.980000000000011 6.5000000000000009 12.500000000000002 8.5000000000000018 24.535000000000004 22.500000000000004 11.500000000000002 22.345000000000002 783.50000000000011 5.5000000000000009 16.500000000000004 13.500000000000002 23.500000000000004 109.50000000000001 4.5000000000000009 313.50000000000006 165.50000000000003 159.50000000000003 147.50000000000003 10.500000000000002 9.5000000000000018 11.500000000000002 27.625000000000004 15.500000000000002 109.50000000000001 21.500000000000004 58.215000000000011 122.50000000000001 414.50000000000006 209.50000000000003
decision_type=2 2 2 2 2 2 2 2 2 2 2 2 2 2 2 2 2 2 2 2 2 2 2 2 2 2 2 2 2 2
left_child=1 4 12 6 8 15 24 21 9 16 19 22 14 -7 17 23 20 18 -2 -4 -1 -5 -9 -6 -3 -21 -12 -8 -13 -14
right_child=2 3 10 7 5 13 27 11 -10 -11 26 28 29 -15 -16 -17 -18 -19 -20 25 -22 -23 -24 -25 -26 -27 -28 -29 -30 -31
leaf_value=-0.00013449999641296386 0.0053231653891650313 -0.0011834195246405949 -0.0033022101804487071 -0.0015388506010051196 0.0029088825756567638 -0.0014959584613498606 -0.0057378491620788683 -0.00022432252530582317 -0.0024427841912845476 -0.0014531756772942456 0.0019461221548800285 -0.0030994781238441235 0.0089959060070307368 0.003675798544640182 0.0036959963547240366 -0.00057810945386016694 -0.0036820424834023355 0.0070337577260610705 -0.00029635780471532299 0.0026649066324481801 0.0016674409554240089 -0.0032533512821409866 0.0019289776301263152 0.0055541232882896597 -0.0032525106926470492 -0.0010623855325015816 0.0074784843273022596 -0.0041074111624685525 -0.0010404860365291954 0.0055218476958053056
leaf_weight=552 445 308 176 1141 1057 305 667 700 425 738 182 263 230 93 523 111 69 479 48 89 1044 584 370 173 682 222 34 576 671 86
leaf_count=552 445 308 176 1141 1057 305 667 700 425 738 182 263 230 93 523 111 69 479 48 89 1044 584 370 173 682 222 34 576 671 86
internal_value=-2.13934e-11 -0.000971536 0.00406893 -0.00224558 0.000691666 0.00221792 -0.00393001 -0.0012369 -0.000246861 0.000141515 4.06839e-05 -0.000477362 0.00563263 -0.000287483 0.00512158 0.00296151 0.00084835 0.00588864 0.00477603 -0.00119068 0.00104421 -0.0021193 0.000520277 0.00328094 -0.00260879 4.26721e-06 0.00281696 -0.00498231 -0.00162027 0.00805043
internal_weight=13043 10529 2514 5962 4567 1739 2233 3729 2828 2403 703 2004 1811 398 1495 1341 1665 972 493 487 1596 1725 1070 1230 990 311 216 1243 934 316
internal_count=13043 10529 2514 5962 4567 1739 2233 3729 2828 2403 703 2004 1811 398 1495 1341 1665 972 493 487 1596 1725 1070 1230 990 311 216 1243 934 316
is_linear=0
shrinkage=0.01


Tree=6
num_leaves=31
num_cat=0
split_feature=3 15 15 0 3 2 15 3 6 15 2 15 0 8 15 9 11 12 12 0 0 15 3 0 11 6 15 3 12 9
split_gain=505.344 218.669 155.205 99.2812 64.1173 31.7526 30.428 24.4949 23.6385 26.5472 23.5546 22.395 22.0322 18.683 17.1747 15.1705 14.8604 14.4801 12.1947 12.0433 11.491 11.129 11.0001 10.2356 8.90286 8.86434 8.65047 8.59386 8.21954 8.05297
threshold=33.980000000000011 6.5000000000000009 12.500000000000002 8.5000000000000018 24.535000000000004 22.500000000000004 11.500000000000002 22.345000000000002 783.50000000000011 5.5000000000000009 16.500000000000004 13.500000000000002 29.500000000000004 109.50000000000001 4.5000000000000009 159.50000000000003 313.50000000000006 165.50000000000003 147.50000000000003 10.500000000000002 9.5000000000000018 11.500000000000002 27.625000000000004 11.500000000000002 109.50000000000001 436.50000000000006 21.500000000000004 58.215000000000011 117.50000000000001 122.50000000000001
decision_type=2 2 2 2 2 2 2 2 2 2 2 2 2 2 2 2 2 2 2 2 2 2 2 2 2 2 2 2 2 2
left_child=1 4 12 6 8 16 24 21 9 17 19 22 14 -7 15 18 23 20 25 -4 -1 -5 -9 -6 -3 -2 -21 -12 -14 -8
right_child=2 3 10 7 5 13 29 11 -10 -11 27 -13 28 -15 -16 -17 -18 -19 -20 26 -22 -23 -24 -25 -26 -27 -28 -29 -30 -31
leaf_value=-0.00013315500803308668 0.0064042210985776104 -0.0011715853286116359 -0.003269188033565032 -0.0015234620292692784 0.0024236636826881321 -0.001480998887573598 -0.0056804703316627545 -0.00022207929928637376 -0.0024183562562746161 -0.0014386438879280333 0.0019266608500709901 -0.0016040638014507167 0.0103005073267606 0.0036390407099038042 0.0038268455308845461 0.0071506164491176609 -0.00057232833710742432 -0.0036452220029373102 0.0001957193145958277 0.002638257572825035 0.0016507665566645984 -0.0032208177234900937 0.0019096878427710081 0.0042574618457838437 -0.0032199854966351365 0.0037047636240067033 -0.001051761789230613 0.0074036994992810138 0.0036679942059245981 -0.0040663370253333324
leaf_weight=552 293 308 176 1141 677 305 667 700 425 738 182 934 124 93 562 550 111 69 52 89 1044 584 370 553 682 208 222 34 22 576
leaf_count=552 293 308 176 1141 677 305 667 700 425 738 182 934 124 93 562 550 111 69 52 89 1044 584 370 553 682 208 222 34 22 576
internal_value=3.47497e-11 -0.00096182 0.00402824 -0.00222312 0.00068475 0.00219574 -0.00389071 -0.00122454 -0.000244393 0.0001401 4.02771e-05 -0.000472588 0.00557631 -0.000284608 0.00524969 0.00597465 0.00293189 0.000839867 0.00480507 -0.00117877 0.00103377 -0.0020981 0.000515074 0.00324813 -0.00258271 0.00528349 4.22446e-06 0.00278879 0.00930109 -0.00493249
internal_weight=13043 10529 2514 5962 4567 1739 2233 3729 2828 2403 703 2004 1811 398 1665 1103 1341 1665 553 487 1596 1725 1070 1230 990 501 311 216 146 1243
internal_count=13043 10529 2514 5962 4567 1739 2233 3729 2828 2403 703 2004 1811 398 1665 1103 1341 1665 553 487 1596 1725 1070 1230 990 501 311 216 146 1243
is_linear=0
shrinkage=0.01


Tree=7
num_leaves=31
num_cat=0
split_feature=3 15 15 0 3 2 15 3 15 6 15 2 0 8 15 6 12 12 0 10 0 9 0 3 6 15 3 15 9 11
split_gain=495.288 214.317 152.116 97.3055 62.8414 31.1207 29.8225 24.0445 23.271 23.1681 26.0189 23.0858 21.6728 18.3112 15.268 14.6077 14.192 11.8514 11.8036 11.5693 11.2623 9.70735 8.77016 8.74999 8.6158 8.47833 8.42284 8.36943 7.89271 7.51168
threshold=33.980000000000011 6.5000000000000009 12.500000000000002 8.5000000000000018 24.535000000000004 22.500000000000004 11.500000000000002 23.810000000000006 14.500000000000002 783.50000000000011 5.5000000000000009 16.500000000000004 20.500000000000004 109.50000000000001 4.5000000000000009 727.50000000000011 165.50000000000003 147.50000000000003 10.500000000000002 634.50000000000011 9.5000000000000018 94.500000000000014 19.500000000000004 23.245000000000001 737.50000000000011 21.500000000000004 58.215000000000011 10.500000000000002 122.50000000000001 199.50000000000003
decision_type=2 2 2 2 2 2 2 2 2 2 2 2 2 2 2 2 2 2 2 2 2 2 2 2 2 2 2 2 2 2
left_child=1 4 12 6 9 15 23 19 -9 10 16 18 14 -7 17 22 20 21 -4 27 -1 -2 -6 -3 -10 -20 -13 -5 -8 -14
right_child=2 3 11 7 5 13 28 8 24 -11 -12 26 29 -15 -16 -17 -18 -19 25 -21 -22 -23 -24 -25 -26 -27 -28 -29 -30 -31
leaf_value=-0.00013182345545762961 0.004731623102983161 -0.0030799164566231115 -0.0032364962257402526 -0.0019389678059746555 0.0030728273142152894 -0.0014661888028266001 -0.0056236658274507459 0.00074698884361784168 -0.0012045033358426349 -0.0023941728055408662 -0.0014242574459413157 0.0019073942434656751 0.00867573639318347 0.0036026502705068996 0.003574489658926669 0.00024336115217783266 -0.0036087698678391568 0.0015362124381557343 0.0026118750049826805 -0.0013437476779712739 0.0016342589171774824 0.0068751700954270637 0.0064650783129036431 -0.00086706361582136564 -0.0043977608187318155 -0.0010412440937314486 0.0073296623918063502 -0.0040015920353368203 -0.0040256737841264109 0.0055299265176878068
leaf_weight=552 350 756 176 424 1080 305 667 915 705 425 738 182 250 93 506 179 69 63 89 1222 1044 533 82 234 96 222 34 367 576 109
leaf_count=552 350 756 176 424 1080 305 667 915 705 425 738 182 250 93 506 179 69 63 89 1222 1044 533 82 234 96 222 34 367 576 109
internal_value=-3.75692e-12 -0.000952202 0.00398796 -0.00220089 0.000677902 0.00217378 -0.00385181 -0.00121229 -0.000342579 -0.000241949 0.000138699 3.98743e-05 0.00552054 -0.000281762 0.00497659 0.00290257 0.000831468 0.00572655 -0.00116699 -0.00195368 0.00102343 0.00602552 0.00331221 -0.00255688 -0.00158722 4.18227e-06 0.0027609 -0.00289596 -0.00488316 0.0077206
internal_weight=13043 10529 2514 5962 4567 1739 2233 3729 1716 2828 2403 703 1811 398 1452 1341 1665 946 487 2013 1596 883 1162 990 801 311 216 791 1243 359
internal_count=13043 10529 2514 5962 4567 1739 2233 3729 1716 2828 2403 703 1811 398 1452 1341 1665 946 487 2013 1596 883 1162 990 801 311 216 791 1243 359
is_linear=0
shrinkage=0.01


Tree=8
num_leaves=31
num_cat=0
split_feature=3 15 15 0 6 3 3 15 15 2 12 0 15 9 0 9 3 2 12 15 0 3 6 15 3 12 0 9 10 8
split_gain=485.431 210.15 149.089 109.869 45.5369 47.9492 37.407 37.0882 32.5053 22.6264 22.2553 21.3336 16.5161 15.7277 15.209 14.6403 14.223 14.2029 11.7966 11.6327 11.5687 10.3885 8.68018 8.30961 8.25522 7.9961 7.98295 7.73565 7.40361 6.77514
threshold=33.980000000000011 5.5000000000000009 12.500000000000002 8.5000000000000018 705.50000000000011 27.625000000000004 23.305000000000003 11.500000000000002 13.500000000000002 16.500000000000004 147.50000000000003 29.500000000000004 4.5000000000000009 522.00000000000011 12.500000000000002 159.50000000000003 26.695000000000004 26.500000000000004 147.50000000000003 12.500000000000002 10.500000000000002 23.245000000000001 436.50000000000006 21.500000000000004 58.215000000000011 117.50000000000001 15.500000000000002 122.50000000000001 414.50000000000006 21.500000000000004
decision_type=2 2 2 2 2 2 2 2 2 2 2 2 2 2 2 2 2 2 2 2 2 2 2 2 2 2 2 2 2 2
left_child=1 4 11 7 5 10 19 21 16 20 14 12 15 -6 17 18 -8 29 22 -5 -4 -3 -2 -22 -11 -13 -7 -9 -10 -1
right_child=2 3 9 6 13 26 8 27 28 24 -12 25 -14 -15 -16 -17 -18 -19 -20 -21 23 -23 -24 -25 -26 -27 -28 -29 -30 -31
leaf_value=-0.00038255833442380068 0.0062854809968799054 -0.0029062793563515762 -0.0032041313287548044 -0.0014959815166120727 -0.0016666025307549126 0.0034737525121317078 -0.00010760696957686939 -0.0055674289442833392 -0.0029887072320256957 0.0018883203182901657 -0.0028862117845695335 0.010116326299405867 0.0037486445957469984 0.0024557181041584249 0.0027416053327069751 0.0070100993392142388 0.0019803930642524497 -0.0025427072850614787 0.00017241886315437464 -0.0031726247998565722 0.002585756251316392 -0.00077298875293853298 0.0036142114248986432 -0.0010308316769497888 0.0072563655444366094 0.0035745851526206192 0.006284113788628966 -0.0039854169847967566 -0.00096199842804371954 0.0013933519091283905
leaf_weight=277 293 965 176 1875 647 567 648 667 252 182 143 124 562 108 479 550 657 125 52 531 89 299 208 222 34 22 123 576 633 957
leaf_count=277 293 965 176 1875 647 567 648 667 252 182 143 124 562 108 479 550 657 125 52 531 89 299 208 222 34 22 123 576 633 957
internal_value=4.3772e-12 -0.00094268 0.00394808 -0.00192385 0.00109154 0.00170449 -0.0010053 -0.0036078 -5.96851e-05 3.94755e-05 0.000913746 0.00546534 0.00514394 -0.00107692 0.00120939 0.00585487 0.000943593 0.000669338 0.00470591 -0.00186601 -0.00115532 -0.00240165 0.00517645 4.14043e-06 0.00273329 0.00913058 0.00397473 -0.00483433 -0.0015391 0.000994708
internal_weight=13043 10529 2514 7103 3426 2671 4596 2507 2190 703 1981 1811 1665 755 1838 1103 1305 1359 553 2406 487 1264 501 311 216 146 690 1243 885 1234
internal_count=13043 10529 2514 7103 3426 2671 4596 2507 2190 703 1981 1811 1665 755 1838 1103 1305 1359 553 2406 487 1264 501 311 216 146 690 1243 885 1234
is_linear=0
shrinkage=0.01


Tree=9
num_leaves=31
num_cat=0
split_feature=3 15 15 0 3 2 15 3 6 15 2 15 0 8 15 11 12 12 0 0 15 3 0 9 11 10 3 10 6 15
split_gain=475.771 206.056 146.122 93.4744 60.627 30.0069 28.6149 23.1564 22.3879 24.9145 22.1761 21.1303 20.9749 17.6403 14.6687 14.273 13.6682 11.4072 11.3385 10.9106 10.5937 10.4844 9.83947 9.37006 8.68309 8.15302 8.09095 7.74755 9.61624 7.65706
threshold=33.980000000000011 6.5000000000000009 12.500000000000002 8.5000000000000018 24.535000000000004 22.500000000000004 11.500000000000002 22.345000000000002 783.50000000000011 5.5000000000000009 16.500000000000004 13.500000000000002 20.500000000000004 109.50000000000001 4.5000000000000009 313.50000000000006 165.50000000000003 147.50000000000003 10.500000000000002 9.5000000000000018 11.500000000000002 27.625000000000004 11.500000000000002 94.500000000000014 109.50000000000001 714.50000000000011 58.215000000000011 776.50000000000011 658.50000000000011 34.500000000000007
decision_type=2 2 2 2 2 2 2 2 2 2 2 2 2 2 2 2 2 2 2 2 2 2 2 2 2 2 2 2 2 2
left_child=1 4 12 6 8 15 24 20 9 16 18 21 14 -7 17 22 19 23 -4 -1 -5 -9 -6 -2 -3 -20 -12 28 -13 -8
right_child=2 3 10 7 5 13 29 11 -10 -11 26 27 -14 -15 -16 -17 -18 -19 25 -21 -22 -23 -24 -25 -26 -27 -28 -29 -30 -31
leaf_value=-0.00013496890921606278 0.0046327475695272105 -0.0011136950721265749 -0.0031720900509125466 -0.0014774076723734779 0.0023516118184538173 -0.0014393155942441988 -0.0049156054994476239 -0.00021788127808831633 -0.0023540510156191885 -0.0013936138748608373 0.0018694372016649979 -0.0017146265362042619 0.0075750284256999867 0.0035358062048032081 0.0035012582308159984 -0.00058422733870175511 -0.0035438199141535204 0.0014995899408434829 -0.0011518538328231249 0.001603319834289654 -0.0031334435436013476 0.0018633171529383271 0.0041495779506783431 0.0067387258892574855 -0.0031366542497611553 0.0022719683402350971 0.0071838017859879666 -0.00043468889308405535 -0.0052340083881731959 -3.3391561133391928e-05
leaf_weight=552 350 308 176 1141 677 305 1210 700 425 738 182 470 359 93 506 111 69 63 206 1044 584 370 553 533 682 105 34 371 93 33
leaf_count=552 350 308 176 1141 677 305 1210 700 425 738 182 470 359 93 506 111 69 63 206 1044 584 370 553 533 682 105 34 371 93 33
internal_value=7.94767e-14 -0.000933253 0.0039086 -0.00215764 0.000665125 0.00213441 -0.00377573 -0.0011887 -0.000238373 0.00013581 3.90808e-05 -0.000457583 0.00541068 -0.000276787 0.00487556 0.00285004 0.000813717 0.00561065 -0.00114376 0.00100211 -0.00203806 0.000501785 0.00315997 0.00590397 -0.00250729 4.09899e-06 0.00270596 -0.00155665 -0.00229598 -0.00478599
internal_weight=13043 10529 2514 5962 4567 1739 2233 3729 2828 2403 703 2004 1811 398 1452 1341 1665 946 487 1596 1725 1070 1230 883 990 311 216 934 563 1243
internal_count=13043 10529 2514 5962 4567 1739 2233 3729 2828 2403 703 2004 1811 398 1452 1341 1665 946 487 1596 1725 1070 1230 883 990 311 216 934 563 1243
is_linear=0
shrinkage=0.01


Tree=10
num_leaves=31
num_cat=0
split_feature=3 15 15 0 6 3 3 15 15 2 12 0 15 9 0 9 2 3 12 9 10 15 3 6 3 12 0 9 10 8
split_gain=466.303 202.078 143.214 105.586 43.9159 46.4373 35.9435 35.5758 31.1954 21.7348 21.4711 20.6603 15.881 15.0945 14.7463 14.1477 13.8176 13.6638 11.4194 11.2481 11.5951 11.22 10.1262 8.50781 7.92994 7.83698 7.77525 7.57451 7.21676 6.63138
threshold=33.980000000000011 5.5000000000000009 12.500000000000002 8.5000000000000018 705.50000000000011 27.625000000000004 23.305000000000003 11.500000000000002 13.500000000000002 16.500000000000004 147.50000000000003 29.500000000000004 4.5000000000000009 522.00000000000011 12.500000000000002 159.50000000000003 26.500000000000004 26.695000000000004 147.50000000000003 103.50000000000001 730.50000000000011 12.500000000000002 23.245000000000001 436.50000000000006 58.215000000000011 117.50000000000001 15.500000000000002 122.50000000000001 414.50000000000006 21.500000000000004
decision_type=2 2 2 2 2 2 2 2 2 2 2 2 2 2 2 2 2 2 2 2 2 2 2 2 2 2 2 2 2 2
left_child=1 4 11 7 5 10 21 22 17 19 14 12 15 -6 16 18 29 -8 23 -4 -21 -5 -3 -2 -11 -13 -7 -9 -10 -1
right_child=2 3 9 6 13 26 8 27 28 24 -12 25 -14 -15 -16 -17 -18 -19 -20 20 -22 -23 -24 -25 -26 -27 -28 -29 -30 -31
leaf_value=-0.00038842101237612238 0.0061688732315465147 -0.0028537797115904817 -0.0030656408263690848 -0.0014658929263033594 -0.0016363556293189135 0.0034125348564867271 -0.00010613385556176963 -0.0054635502277374983 -0.0029391600499262234 0.0018507428019010758 -0.0028377952655920615 0.0099394127209821055 0.0036720863747612647 0.0024021368623814649 0.0026937272580532991 0.006873048493672501 -0.0025149479718878866 0.0019404060909216866 0.00014752029575622428 -0.001448541236252933 0.0026119693925803797 -0.0031125273290743593 -0.00074759413151811798 0.003524259633822322 0.0071119638663880973 0.0034630889377810737 0.0061860955124948078 -0.0038981020314612482 -0.00093818989558819245 0.0013685466163365226
leaf_weight=277 293 965 186 1875 647 567 648 667 252 182 143 124 562 108 479 550 125 657 52 189 112 531 299 208 34 22 123 576 633 957
leaf_count=277 293 965 186 1875 647 567 648 667 252 182 143 124 562 108 479 550 125 657 52 189 112 531 299 208 34 22 123 576 633 957
internal_value=6.03209e-12 -0.000923921 0.00386951 -0.00188606 0.00107085 0.00167279 -0.00098559 -0.00353687 -5.86623e-05 3.869e-05 0.000894613 0.00535658 0.00504029 -0.00105866 0.001185 0.00573742 0.000653229 0.000924193 0.00460795 -0.00113233 6.23464e-05 -0.0018293 -0.00235556 0.00507091 0.0026789 0.00896353 0.00390695 -0.00473813 -0.00150796 0.000974154
internal_weight=13043 10529 2514 7103 3426 2671 4596 2507 2190 703 1981 1811 1665 755 1838 1103 1359 1305 553 487 301 2406 1264 501 216 146 690 1243 885 1234
internal_count=13043 10529 2514 7103 3426 2671 4596 2507 2190 703 1981 1811 1665 755 1838 1103 1359 1305 553 487 301 2406 1264 501 216 146 690 1243 885 1234
is_linear=0
shrinkage=0.01


Tree=11
num_leaves=31
num_cat=0
split_feature=3 15 15 0 3 2 15 3 6 15 2 15 0 8 15 11 12 0 12 0 15 0 9 11 15 3 15 11 15 11
split_gain=457.024 198.114 140.364 89.7938 58.4903 28.9323 27.4563 22.2763 21.6346 23.8561 21.3023 20.5892 20.2994 16.994 14.0927 13.8329 13.1636 11.0422 10.9791 10.5698 10.2193 9.56516 9.0444 8.48989 8.07608 7.77213 7.49756 7.17272 6.99642 6.9282
threshold=33.980000000000011 6.5000000000000009 12.500000000000002 8.5000000000000018 24.535000000000004 22.500000000000004 11.500000000000002 22.345000000000002 783.50000000000011 5.5000000000000009 16.500000000000004 22.500000000000004 20.500000000000004 109.50000000000001 4.5000000000000009 313.50000000000006 165.50000000000003 10.500000000000002 147.50000000000003 9.5000000000000018 11.500000000000002 15.500000000000002 94.500000000000014 109.50000000000001 21.500000000000004 58.215000000000011 34.500000000000007 199.50000000000003 5.5000000000000009 1275.5000000000002
decision_type=2 2 2 2 2 2 2 2 2 2 2 2 2 2 2 2 2 2 2 2 2 2 2 2 2 2 2 2 2 2
left_child=1 4 12 6 8 15 23 20 9 16 17 -9 14 -7 18 21 19 -4 22 -1 -5 -6 -2 -3 -19 -12 -8 -14 -23 -10
right_child=2 3 10 7 5 13 26 11 29 -11 25 -13 27 -15 -16 -17 -18 24 -20 -21 -22 28 -24 -25 -26 -27 -28 -29 -30 -31
leaf_value=-0.00013795509786902678 0.0045359143200197393 -0.0010806534615044434 -0.0031226451386993921 -0.0014479746349210182 0.0027467974504147429 -0.0014129086360640702 -0.0048190072453474968 3.7048540175860275e-05 -0.00268507632246355 -0.0013635960764009985 0.0018322352123456998 -0.0025645437022860356 0.0083655590358376504 0.0034702106000434967 0.0034295248288823211 -0.00058244775913588636 -0.0034800038843051245 0.0025568405017675311 0.0014639029618249172 0.0015729667140162904 -0.0030744801194663995 0.0064399014252882738 0.0066049715395410519 -0.0030809808400448662 -0.0010085664205001417 0.0070408445005031199 1.2090304076220051e-05 0.0052915451320212914 0.0017866656885395739 0.0020858713081388764
leaf_weight=552 350 308 176 1141 1057 305 1210 1630 392 738 182 374 250 93 506 111 69 89 63 1044 584 130 533 682 222 34 33 109 43 33
leaf_count=552 350 308 176 1141 1057 305 1210 1630 392 738 182 374 250 93 506 111 69 89 63 1044 584 130 533 682 222 34 33 109 43 33
internal_value=9.60194e-13 -0.000914681 0.00383082 -0.00211524 0.000652589 0.00209576 -0.00370115 -0.00116556 -0.000234846 0.000132989 3.8303e-05 -0.000448478 0.00530301 -0.000271878 0.00477657 0.00279845 0.00079634 -0.001121 0.00549709 0.000981219 -0.00199863 0.00310356 0.00578485 -0.00245866 1.1759e-05 0.00265211 -0.00469075 0.00743222 0.00528332 -0.00231463
internal_weight=13043 10529 2514 5962 4567 1739 2233 3729 2828 2403 703 2004 1811 398 1452 1341 1665 487 946 1596 1725 1230 883 990 311 216 1243 359 173 425
internal_count=13043 10529 2514 5962 4567 1739 2233 3729 2828 2403 703 2004 1811 398 1452 1341 1665 487 946 1596 1725 1230 883 990 311 216 1243 359 173 425
is_linear=0
shrinkage=0.01


Tree=12
num_leaves=31
num_cat=0
split_feature=3 15 15 0 6 3 3 15 15 2 2 0 9 12 9 12 15 3 9 10 15 3 0 6 10 10 6 12 3 0
split_gain=447.929 194.214 137.571 101.503 42.3462 44.9288 34.6645 34.1245 33.443 20.8784 20.82 20.0053 15.3181 15.2627 14.5024 13.3656 12.0701 11.3231 10.9685 11.3143 10.1854 9.86603 8.58046 8.4251 8.07162 7.86644 11.5533 7.62389 7.61747 7.4657
threshold=33.980000000000011 5.5000000000000009 12.500000000000002 8.5000000000000018 705.50000000000011 27.625000000000004 24.535000000000004 11.500000000000002 13.500000000000002 16.500000000000004 22.500000000000004 29.500000000000004 159.50000000000003 165.50000000000003 522.00000000000011 147.50000000000003 5.5000000000000009 23.150000000000002 103.50000000000001 730.50000000000011 12.500000000000002 23.245000000000001 11.500000000000002 358.50000000000006 634.50000000000011 1138.5000000000002 658.50000000000011 117.50000000000001 58.215000000000011 15.500000000000002
decision_type=2 2 2 2 2 2 2 2 2 2 2 2 2 2 2 2 2 2 2 2 2 2 2 2 2 2 2 2 2 2
left_child=1 4 11 7 5 10 20 21 -8 18 13 12 15 17 -6 23 -14 -1 -4 -20 -5 -3 -12 -2 -22 26 -10 -13 -11 -7
right_child=2 3 9 6 14 29 8 -9 25 28 22 27 16 -15 -16 -17 -18 -19 19 -21 24 -23 -24 -25 -26 -27 -28 -29 -30 -31
leaf_value=0.00099836303494578774 0.0054259897447286208 -0.0028021555895038873 -0.0030189288556776062 -0.0013353766758975739 -0.0016073194700559541 0.0033542193185761436 0.0013424719519542891 -0.0046438407006636805 -0.0013665721120152958 0.0018139129023548668 -0.0027196192539949882 0.0097618170094586187 0.0067422460856612553 -0.0031881788852688385 0.0023511743742144768 -5.5757648947906712e-05 0.0040988961073756217 0.0029075525453139983 -0.0014225409034067994 0.0025884982425486668 -0.0040057801095254976 -0.00072319868114157065 0.0013597866925208466 0.0033500461560548641 -0.0017438881284445578 0.00045093217646109988 -0.0052203231782826419 0.0033741453357718212 0.0069704359945128944 0.0060720085564667618
leaf_weight=1218 392 965 186 2159 647 567 995 1243 536 182 204 124 559 73 108 74 250 417 189 112 290 299 69 390 346 179 91 22 34 123
leaf_count=1218 392 965 186 2159 647 567 995 1243 536 182 204 124 559 73 108 74 250 417 189 112 290 299 69 390 346 179 91 22 34 123
internal_value=-8.07846e-12 -0.000905535 0.00379251 -0.00184877 0.00105004 0.00164112 -0.000965882 -0.00346734 0.000116016 3.792e-05 0.00087569 0.00524998 0.00493875 0.00128555 -0.00104107 0.00400628 0.00592539 0.00148529 -0.00110979 6.99388e-05 -0.00166302 -0.00231038 -0.00168856 0.00439067 -0.00277525 -0.00139803 -0.00192589 0.00879929 0.00262559 0.00383869
internal_weight=13043 10529 2514 7103 3426 2671 4596 2507 1801 703 1981 1811 1665 1708 755 856 809 1635 487 301 2795 1264 273 782 636 806 627 146 216 690
internal_count=13043 10529 2514 7103 3426 2671 4596 2507 1801 703 1981 1811 1665 1708 755 856 809 1635 487 301 2795 1264 273 782 636 806 627 146 216 690
is_linear=0
shrinkage=0.01


Tree=13
num_leaves=31
num_cat=0
split_feature=3 15 15 0 3 2 15 3 6 15 2 15 0 8 15 11 0 0 12 15 0 11 9 11 15 0 9 11 2 3
split_gain=439.015 190.512 134.834 86.2459 56.2854 27.8486 26.3447 21.4743 20.9332 22.8597 20.4629 19.8975 19.6403 16.3708 13.6338 13.3915 12.7768 10.7535 10.5733 9.8601 9.35429 9.27299 8.69369 8.30103 7.87981 7.5264 7.41673 6.93649 6.8323 6.58624
threshold=33.980000000000011 6.5000000000000009 12.500000000000002 8.5000000000000018 24.535000000000004 22.500000000000004 11.500000000000002 22.345000000000002 783.50000000000011 5.5000000000000009 16.500000000000004 22.500000000000004 20.500000000000004 109.50000000000001 4.5000000000000009 313.50000000000006 9.5000000000000018 10.500000000000002 147.50000000000003 12.500000000000002 11.500000000000002 260.50000000000006 94.500000000000014 109.50000000000001 21.500000000000004 19.500000000000004 122.50000000000001 199.50000000000003 19.500000000000004 58.215000000000011
decision_type=2 2 2 2 2 2 2 2 2 2 2 2 2 2 2 2 2 2 2 2 2 2 2 2 2 2 2 2 2 2
left_child=1 4 12 6 8 15 23 19 9 16 17 -9 14 -7 18 20 -1 -4 22 -5 -6 -18 -2 -3 -19 -12 -8 -14 -10 -27
right_child=2 3 10 7 5 13 26 11 28 -11 25 -13 27 -15 -16 -17 21 24 -20 -21 -22 -23 -24 -25 -26 29 -28 -29 -30 -31
leaf_value=-0.00038907776436812076 0.0044462598464052594 -0.001048372707109711 -0.0030739995482144877 -0.0015050765882232708 0.0022575723658009063 -0.0013866490023153391 -0.0053152279864655981 3.8305972297133112e-05 -0.0013491166561223325 -0.0013332960038686609 0.0014550241563397986 -0.0025192102424820319 0.0082096749078482394 0.0034060993019531492 0.0033547267227124408 -0.00058098168523461964 0.0017702645533507119 0.0025331272184848787 0.0014303986981902864 -0.0032147417346764678 0.004010649281050791 -0.0011697803342124171 0.0064748058518775747 -0.0030263257155275446 -0.00098868882921230683 0.0032517244571294542 -0.0037661698967308946 0.005186704845945223 -0.0040104979147027068 0.010309983372688293
leaf_weight=598 350 308 176 1265 677 305 667 1630 277 738 157 374 250 93 506 111 946 89 63 460 553 121 533 682 222 39 576 109 148 20
leaf_count=598 350 308 176 1265 677 305 667 1630 277 738 157 374 250 93 506 111 946 89 63 460 553 121 533 682 222 39 576 109 148 20
internal_value=-2.06857e-12 -0.000896479 0.00375459 -0.00207378 0.00064043 0.00205613 -0.00362804 -0.00114305 -0.000230118 0.000131704 3.75408e-05 -0.000438995 0.00519748 -0.000266735 0.00467966 0.00274555 0.000781056 -0.0010987 0.00538835 -0.00196099 0.00304574 0.00143686 0.00567074 -0.00241096 1.91621e-05 0.00259933 -0.0045974 0.00729184 -0.0022759 0.00564435
internal_weight=13043 10529 2514 5962 4567 1739 2233 3729 2828 2403 703 2004 1811 398 1452 1341 1665 487 946 1725 1230 1067 883 990 311 216 1243 359 425 59
internal_count=13043 10529 2514 5962 4567 1739 2233 3729 2828 2403 703 2004 1811 398 1452 1341 1665 487 946 1725 1230 1067 883 990 311 216 1243 359 425 59
is_linear=0
shrinkage=0.01


Tree=14
num_leaves=31
num_cat=0
split_feature=3 15 15 0 6 3 3 15 15 12 2 0 9 0 9 2 12 15 9 10 15 3 6 10 10 6 12 0 15 0
split_gain=430.279 186.745 132.15 97.5392 40.808 43.5248 33.3572 32.7373 32.3391 20.2011 20.0557 19.3711 14.8371 14.0414 13.9048 13.0475 12.9667 11.575 10.6959 11.0403 9.8017 9.61591 8.24299 7.87093 7.66482 11.2918 7.41676 7.37662 7.34138 7.2711
threshold=33.980000000000011 5.5000000000000009 12.500000000000002 8.5000000000000018 705.50000000000011 27.625000000000004 24.535000000000004 11.500000000000002 13.500000000000002 147.50000000000003 16.500000000000004 29.500000000000004 159.50000000000003 12.500000000000002 522.00000000000011 26.500000000000004 147.50000000000003 5.5000000000000009 103.50000000000001 730.50000000000011 12.500000000000002 23.245000000000001 358.50000000000006 634.50000000000011 1138.5000000000002 658.50000000000011 117.50000000000001 19.500000000000004 34.500000000000007 15.500000000000002
decision_type=2 2 2 2 2 2 2 2 2 2 2 2 2 2 2 2 2 2 2 2 2 2 2 2 2 2 2 2 2 2
left_child=1 4 11 7 5 9 20 21 -8 13 18 12 16 15 -6 -1 22 -14 -4 -20 -5 -3 -2 -22 25 -10 -13 -12 -9 -7
right_child=2 3 10 6 14 29 8 28 24 -11 27 26 17 -15 -16 -17 -18 -19 19 -21 23 -23 -24 -25 -26 -27 -28 -29 -30 -31
leaf_value=0.00093157198197855323 0.0053242155100511179 -0.0027513891312805211 -0.0029729704286963229 -0.0013094085299287875 -0.0015771538664880488 0.0032951775164223513 0.0013203898698659544 -0.0046783444855269815 -0.001342601326151765 -0.0027633924420167517 0.0014404740038618542 0.0095874652110280543 0.006610200070444501 0.0026108495835414146 0.0022989240416360123 -0.0024589004490524532 -7.9434367268019028e-05 0.0040216373464092613 -0.0013970260341804495 0.0025651479602674956 -0.0039370353859688699 -0.00069895379298232671 0.0032708299318388204 -0.0017034398694623619 0.00045061184915417402 -0.0051524833293508862 0.0032871627976948565 0.0055879108168942447 0.00010217184991096005 0.0059773126050708739
leaf_weight=1234 392 965 186 2159 647 567 995 1210 536 143 157 124 559 479 108 125 74 250 189 112 290 299 390 346 179 91 22 59 33 123
leaf_count=1234 392 965 186 2159 647 567 995 1210 536 143 157 124 559 479 108 125 74 250 189 112 290 299 390 346 179 91 22 59 33 123
internal_value=2.50725e-12 -0.000887514 0.00371704 -0.00181243 0.00103008 0.00161033 -0.000946955 -0.00339908 0.000114346 0.000856956 3.71654e-05 0.00514551 0.00483925 0.00113863 -0.0010227 0.000619718 0.00392154 0.00581027 -0.00108771 7.72713e-05 -0.00163082 -0.00226588 0.00430015 -0.0027219 -0.0013745 -0.00189555 0.0086381 0.00257334 -0.00455143 0.0037733
internal_weight=13043 10529 2514 7103 3426 2671 4596 2507 1801 1981 703 1811 1665 1838 755 1359 856 809 487 301 2795 1264 782 636 806 627 146 216 1243 690
internal_count=13043 10529 2514 7103 3426 2671 4596 2507 1801 1981 703 1811 1665 1838 755 1359 856 809 487 301 2795 1264 782 636 806 627 146 216 1243 690
is_linear=0
shrinkage=0.01


Tree=15
num_leaves=31
num_cat=0
split_feature=3 15 15 0 3 2 15 3 15 6 15 2 0 8 15 11 12 10 9 10 12 0 0 9 11 15 3 9 11 11
split_gain=421.717 183.202 129.521 82.8381 54.2973 26.8567 25.2781 20.7101 20.5078 20.2338 21.8661 19.6566 19.0025 15.773 13.1904 12.9795 12.3761 10.8766 10.4831 10.8206 10.1819 9.943 9.06304 8.35627 8.1164 7.3758 7.28058 7.26224 6.76453 6.70785
threshold=33.980000000000011 6.5000000000000009 12.500000000000002 8.5000000000000018 24.535000000000004 22.500000000000004 11.500000000000002 23.810000000000006 22.500000000000004 783.50000000000011 5.5000000000000009 16.500000000000004 20.500000000000004 109.50000000000001 4.5000000000000009 313.50000000000006 165.50000000000003 634.50000000000011 103.50000000000001 730.50000000000011 147.50000000000003 9.5000000000000018 11.500000000000002 94.500000000000014 109.50000000000001 10.500000000000002 58.215000000000011 122.50000000000001 1275.5000000000002 199.50000000000003
decision_type=2 2 2 2 2 2 2 2 2 2 2 2 2 2 2 2 2 2 2 2 2 2 2 2 2 2 2 2 2 2
left_child=1 4 12 6 9 15 24 17 -9 10 16 18 14 -7 20 22 21 25 -4 -20 23 -1 -6 -2 -3 -5 -13 -8 -11 -14
right_child=2 3 11 7 5 13 27 8 -10 28 -12 26 29 -15 -16 -17 -18 -19 19 -21 -22 -23 -24 -25 -26 -27 -28 -29 -30 -31
leaf_value=-0.00014195008791474445 0.0043584113730649864 -0.0010168389699954008 -0.0029432407472663193 -0.001824289219045379 0.0022157362785944898 -0.0013614315093785038 -0.0052162240731014669 0.00023556432717878722 -0.0024891450900834788 -0.0026039071923715175 -0.0013036188978184744 0.0017540814502389876 0.0080567067434638741 0.0033429947631653917 0.0032814929819265644 -0.0005789630628518156 -0.0033821775343107143 -0.0012176521864331765 -0.0013830557708978339 0.0025394964295472684 0.0013977757761890572 0.0015174658955368116 0.0039413063489001712 0.0063472008746026497 -0.0029726714536820265 -0.0037606079458897901 0.0067952916530125288 -0.0036833847399248042 0.0021103485346292005 0.0050839753045674859
leaf_weight=552 350 308 186 424 677 305 667 1370 346 392 738 182 250 93 506 111 69 1222 189 112 63 1044 553 533 682 367 34 576 33 109
leaf_count=552 350 308 186 424 677 305 667 1370 346 392 738 182 250 93 506 111 69 1222 189 112 63 1044 553 533 682 367 34 576 33 109
internal_value=-7.69791e-12 -0.000878639 0.00367987 -0.00203313 0.000628496 0.00201897 -0.00355638 -0.00112098 -0.000313823 -0.000226539 0.000129187 3.67938e-05 0.00509405 -0.000262156 0.00458471 0.002696 0.000764269 -0.00180905 -0.00107683 7.64985e-05 0.00528178 0.000943533 0.00299154 0.00555889 -0.00236419 -0.00272268 0.00254761 -0.00450591 -0.00223786 0.00715412
internal_weight=13043 10529 2514 5962 4567 1739 2233 3729 1716 2828 2403 703 1811 398 1452 1341 1665 2013 487 301 946 1596 1230 883 990 791 216 1243 425 359
internal_count=13043 10529 2514 5962 4567 1739 2233 3729 1716 2828 2403 703 1811 398 1452 1341 1665 2013 487 301 946 1596 1230 883 990 791 216 1243 425 359
is_linear=0
shrinkage=0.01


Tree=16
num_leaves=31
num_cat=0
split_feature=3 15 15 0 6 3 3 15 15 2 2 0 9 12 9 12 3 15 3 0 15 3 6 0 15 15 0 12 0 10
split_gain=413.324 179.557 126.943 93.7381 39.3677 42.1544 32.0768 31.4037 28.3834 19.7508 19.2654 18.7744 14.5439 14.3223 13.3489 13.1619 12.7272 11.0993 10.8002 10.406 10.0987 9.37286 8.22243 8.12697 7.65405 7.18846 7.18554 7.18516 7.08172 6.96919
threshold=33.980000000000011 5.5000000000000009 12.500000000000002 8.5000000000000018 705.50000000000011 27.625000000000004 23.305000000000003 11.500000000000002 13.500000000000002 22.500000000000004 16.500000000000004 27.500000000000004 159.50000000000003 165.50000000000003 522.00000000000011 147.50000000000003 26.695000000000004 5.5000000000000009 23.150000000000002 10.500000000000002 11.500000000000002 23.245000000000001 358.50000000000006 11.500000000000002 21.500000000000004 34.500000000000007 19.500000000000004 117.50000000000001 15.500000000000002 414.50000000000006
decision_type=2 2 2 2 2 2 2 2 2 2 2 2 2 2 2 2 2 2 2 2 2 2 2 2 2 2 2 2 2 2
left_child=1 4 11 7 5 9 20 21 16 13 19 12 15 18 -6 22 -8 -14 -1 -4 -5 -3 -2 -11 -21 -9 -12 -13 -7 -10
right_child=2 3 10 6 14 28 8 25 29 23 26 27 17 -15 -16 -17 -18 -19 -20 24 -22 -23 -24 -25 -26 -27 -28 -29 -30 -31
leaf_value=0.00095610724939954777 0.0052244095617996738 -0.0027016760602440173 -0.0030091909792231905 -0.0013241547662648976 -0.0015490107157575673 0.0032371870499938679 -0.00010957662058686249 -0.0045864423493246652 -0.0028415699034655788 -0.0026620110649702268 0.0014040330110509306 0.0093864573408213876 0.0064807391953063146 -0.00309553251895186 0.0022487839504524514 -0.000265599084022041 0.0018655815591458094 0.0039459282360970981 0.0028207002512317119 0.0025112745925532972 -0.0027714887532898449 -0.00067534547514067251 0.0031709391944417637 0.0013081318285802137 -0.00095972243296863467 0.00014402241465480379 0.0054974020831286908 0.0034164755046367646 0.0058841611457064874 -0.00087521995973551133
leaf_weight=1218 392 965 176 1739 647 567 648 1210 252 204 157 126 559 73 108 72 657 250 417 89 667 299 388 69 222 33 59 24 123 633
leaf_count=1218 392 965 176 1739 647 567 648 1210 252 204 157 126 559 73 108 72 657 250 417 89 667 299 388 69 222 33 59 24 123 633
internal_value=-4.59787e-12 -0.000869853 0.00364307 -0.0017768 0.00101048 0.0015804 -0.00092835 -0.00333223 -5.26979e-05 0.000838974 3.64258e-05 0.00504311 0.00473714 0.00123817 -0.00100575 0.00382532 0.000884813 0.00569742 0.00143166 -0.00106606 -0.00172539 -0.00222235 0.00420294 -0.00165857 3.35854e-05 -0.00446085 0.00252213 0.00843126 0.00370904 -0.00143513
internal_weight=13043 10529 2514 7103 3426 2671 4596 2507 2190 1981 703 1811 1661 1708 755 852 1305 809 1635 487 2406 1264 780 273 311 1243 216 150 690 885
internal_count=13043 10529 2514 7103 3426 2671 4596 2507 2190 1981 703 1811 1661 1708 755 852 1305 809 1635 487 2406 1264 780 273 311 1243 216 150 690 885
is_linear=0
shrinkage=0.01


Tree=17
num_leaves=31
num_cat=0
split_feature=3 15 15 0 3 2 15 3 6 15 2 15 0 8 9 12 11 0 15 9 10 15 11 0 6 11 9 3 12 2
split_gain=405.099 176.125 124.417 79.5812 52.2611 25.8459 24.2548 19.9641 19.574 20.9761 18.882 18.6422 18.4008 15.1935 14.2544 12.9 12.566 12.0145 10.8784 10.2222 10.5582 9.2397 8.88033 8.80906 8.0588 7.9359 7.11096 7.092 7.04218 6.64545
threshold=33.980000000000011 6.5000000000000009 12.500000000000002 8.5000000000000018 24.535000000000004 22.500000000000004 11.500000000000002 22.345000000000002 783.50000000000011 5.5000000000000009 16.500000000000004 22.500000000000004 27.500000000000004 109.50000000000001 159.50000000000003 147.50000000000003 313.50000000000006 9.5000000000000018 5.5000000000000009 103.50000000000001 730.50000000000011 11.500000000000002 260.50000000000006 15.500000000000002 358.50000000000006 109.50000000000001 122.50000000000001 58.215000000000011 117.50000000000001 19.500000000000004
decision_type=2 2 2 2 2 2 2 2 2 2 2 2 2 2 2 2 2 2 2 2 2 2 2 2 2 2 2 2 2 2
left_child=1 4 12 6 8 16 25 21 9 17 19 -9 14 -7 15 24 23 -1 -16 -4 -21 -5 -19 -6 -2 -3 -8 -12 -14 -10
right_child=2 3 10 7 5 13 26 11 29 -11 27 -13 28 -15 18 -17 -18 22 -20 20 -22 -23 -24 -25 -26 -27 -28 -29 -30 -31
leaf_value=-0.00038505291483832417 0.0051721654807179405 -0.00098603542581164323 -0.0028984424704059921 -0.0013641354046807596 0.0025933248296923241 -0.001335943322750877 -0.0051191191855577871 4.1763157747504505e-05 -0.0012864988532912539 -0.0012757340602454954 0.0017137287894857453 -0.0024337632036556239 0.0092925930780077739 0.0032812589200674207 0.0064159317072047736 -0.00026294309898124385 -0.0005774643773901033 0.0017118433305583147 0.0039064689379930493 -0.0013582640279222419 0.0025164407912026429 -0.0029107218155157372 -0.0011652797575504134 0.0050275280363211742 0.0031392298207723913 -0.002919998502917315 -0.0036023289680967236 0.0066892200883697066 0.0033823107182979584 -0.0039112367400446456
leaf_weight=598 392 308 186 1141 1057 305 667 1630 277 738 182 374 126 93 559 72 111 946 250 189 112 584 121 173 388 682 576 34 24 148
leaf_count=598 392 308 186 1141 1057 305 667 1630 277 738 182 374 126 93 559 72 111 946 250 189 112 584 121 173 388 682 576 34 24 148
internal_value=9.64174e-12 -0.000861154 0.00360664 -0.00199313 0.000616582 0.00198074 -0.00348613 -0.00109909 -0.000222267 0.000127612 3.60616e-05 -0.000420236 0.00499268 -0.000257049 0.00468977 0.00378706 0.0026449 0.000749636 0.00564045 -0.0010554 8.34866e-05 -0.00188773 0.00138557 0.0029357 0.00416091 -0.00231832 -0.00441625 0.00249691 0.00834695 -0.00220053
internal_weight=13043 10529 2514 5962 4567 1739 2233 3729 2828 2403 703 2004 1811 398 1661 852 1341 1665 809 487 301 1725 1067 1230 780 990 1243 216 150 425
internal_count=13043 10529 2514 5962 4567 1739 2233 3729 2828 2403 703 2004 1811 398 1661 852 1341 1665 809 487 301 1725 1067 1230 780 990 1243 216 150 425
is_linear=0
shrinkage=0.01


Tree=18
num_leaves=31
num_cat=0
split_feature=3 15 15 0 6 3 3 15 15 2 2 0 12 9 15 3 0 12 10 15 3 0 9 15 10 6 15 0 0 6
split_gain=397.038 172.656 121.941 90.0824 37.933 40.8352 30.8762 30.2321 30.1243 19.1581 18.5063 18.1322 13.946 12.8081 12.599 10.4522 10.1343 9.62225 9.44214 9.66776 9.13211 7.9008 7.88594 7.4683 7.37262 11.0295 7.03872 6.99942 6.84261 6.71059
threshold=33.980000000000011 5.5000000000000009 12.500000000000002 8.5000000000000018 705.50000000000011 27.625000000000004 24.535000000000004 13.500000000000002 11.500000000000002 22.500000000000004 16.500000000000004 20.500000000000004 165.50000000000003 522.00000000000011 4.5000000000000009 23.150000000000002 10.500000000000002 147.50000000000003 634.50000000000011 11.500000000000002 23.245000000000001 11.500000000000002 92.500000000000014 21.500000000000004 1138.5000000000002 658.50000000000011 34.500000000000007 19.500000000000004 15.500000000000002 537.00000000000011
decision_type=2 2 2 2 2 2 2 2 2 2 2 2 2 2 2 2 2 2 2 2 2 2 2 2 2 2 2 2 2 2
left_child=1 4 11 8 5 9 18 -8 20 12 16 14 15 -6 17 29 -4 22 19 -5 -3 -11 -2 -18 25 -9 -10 -12 -7 -1
right_child=2 3 10 6 13 28 7 24 26 21 27 -13 -14 -15 -16 -17 23 -19 -20 -21 -22 -23 -24 -25 -26 -27 -28 -29 -30 -31
leaf_value=0.0012310963720344702 0.0039794741796161841 -0.0026527836843209169 -0.0029624415586377755 -0.001657847949551163 -0.001519989155476173 0.003181988565256544 0.001277014366727224 -0.0012931363948643878 -0.0044963564984860415 -0.0026281514243501258 0.0013684186743940139 0.0069550978766967 -0.0030622249372201423 0.0022000923302645486 0.003171547940773926 0.0027715734092572286 0.002487789425224568 0.0013507257074502016 -0.0010924625354155036 -0.0036682220102379347 -0.00065264619464072671 0.0012863572970356629 0.0060263991794806526 -0.00094083140127262238 0.00046138115914007809 -0.005058517187403945 0.00018458074339750141 0.0054084248815552665 0.0057838938730518999 -0.00093784563004914109
leaf_weight=1053 272 965 176 775 647 567 995 536 1210 204 157 359 73 108 506 417 89 63 1674 346 299 69 611 222 179 91 33 59 123 165
leaf_count=1053 272 965 176 775 647 567 995 536 1210 204 157 359 73 108 506 417 89 63 1674 346 299 69 611 222 179 91 33 59 123 165
internal_value=3.36267e-12 -0.000852543 0.00357057 -0.00174189 0.000991303 0.00155074 -0.00091015 0.000110922 -0.00326668 0.000821009 3.5701e-05 0.00494275 0.00121417 -0.000987845 0.00444521 0.0014051 -0.00104485 0.00512647 -0.00156809 -0.00227836 -0.00217965 -0.00163877 0.00539586 4.03495e-05 -0.00132861 -0.00183963 -0.00437208 0.00247194 0.00364581 0.000937274
internal_weight=13043 10529 2514 7103 3426 2671 4596 1801 2507 1981 703 1811 1708 755 1452 1635 487 946 2795 1121 1264 273 883 311 806 627 1243 216 690 1218
internal_count=13043 10529 2514 7103 3426 2671 4596 1801 2507 1981 703 1811 1708 755 1452 1635 487 946 2795 1121 1264 273 883 311 806 627 1243 216 690 1218
is_linear=0
shrinkage=0.01


Tree=19
num_leaves=31
num_cat=0
split_feature=3 15 15 0 3 2 15 3 6 15 2 15 0 8 9 12 11 0 15 9 10 3 15 0 11 6 11 10 9 3
split_gain=389.137 169.392 119.514 76.4276 50.2772 24.8734 23.273 19.2377 18.9434 20.0858 18.138 18.0332 17.8167 14.6357 13.8385 12.5182 12.1657 11.6542 10.4458 9.96786 10.3022 9.39756 8.94732 8.64059 8.59074 7.8588 7.75945 7.2091 6.96283 6.90829
threshold=33.980000000000011 6.5000000000000009 12.500000000000002 8.5000000000000018 24.535000000000004 22.500000000000004 11.500000000000002 22.345000000000002 783.50000000000011 5.5000000000000009 16.500000000000004 13.500000000000002 27.500000000000004 109.50000000000001 159.50000000000003 147.50000000000003 313.50000000000006 9.5000000000000018 5.5000000000000009 103.50000000000001 730.50000000000011 27.625000000000004 12.500000000000002 11.500000000000002 260.50000000000006 358.50000000000006 109.50000000000001 414.50000000000006 122.50000000000001 58.215000000000011
decision_type=2 2 2 2 2 2 2 2 2 2 2 2 2 2 2 2 2 2 2 2 2 2 2 2 2 2 2 2 2 2
left_child=1 4 12 6 8 16 26 22 9 17 19 21 14 -7 15 25 23 -1 -16 -4 -21 -9 -5 -6 -19 -2 -3 -13 -8 -12
right_child=2 3 10 7 5 13 28 11 -10 -11 29 27 -14 -15 18 -17 -18 24 -20 20 -22 -23 -24 -25 -26 -27 -28 -29 -30 -31
leaf_value=-0.00038224622330963759 0.0050727247535156048 -0.0009559463465196237 -0.0028543656882429398 -0.0014178683046298011 0.0021233785370357219 -0.0013109778850110341 -0.0050238767148287353 -0.00020667931301951675 -0.002163699743828928 -0.0012466166407937777 0.0016742501157121017 -0.002830235803953085 0.0081939272902905955 0.0032206816785037519 0.0062918749844825331 -0.00028380194407266876 -0.00057586814083897318 0.0016825410378322814 0.0038328132061660291 -0.0013339346439316475 0.0024935094466491136 0.0017636985196857837 -0.0030464776140465607 0.0038082523941092706 -0.0011472820027823721 0.0030651746031581596 -0.0028682884902767069 -0.00087690994317707804 -0.0035229674674984481 0.0065848787216579207
leaf_weight=598 392 308 186 1265 677 305 667 700 425 738 182 263 150 93 559 72 111 946 250 189 112 370 460 553 121 388 682 671 576 34
leaf_count=598 392 308 186 1265 677 305 667 700 425 738 182 263 150 93 559 72 111 946 250 189 112 370 460 553 121 388 682 671 576 34
internal_value=-3.414e-14 -0.000844017 0.00353487 -0.00195414 0.0006052 0.00194321 -0.00341727 -0.001078 -0.000217573 0.000126624 3.53439e-05 -0.00041161 0.00489333 -0.000252073 0.00459526 0.00370582 0.00259476 0.000735303 0.00553197 -0.0010344 9.02306e-05 0.000474666 -0.00185216 0.00288089 0.00136163 0.0040741 -0.00227334 -0.00142694 -0.00432836 0.00244722
internal_weight=13043 10529 2514 5962 4567 1739 2233 3729 2828 2403 703 2004 1811 398 1661 852 1341 1665 809 487 301 1070 1725 1230 1067 780 990 934 1243 216
internal_count=13043 10529 2514 5962 4567 1739 2233 3729 2828 2403 703 2004 1811 398 1661 852 1341 1665 809 487 301 1070 1725 1230 1067 780 990 934 1243 216
is_linear=0
shrinkage=0.01


Tree=20
num_leaves=31
num_cat=0
split_feature=3 15 15 0 6 3 3 15 15 2 2 0 12 9 15 3 3 0 15 12 3 0 9 15 15 14 0 10 6 11
split_gain=381.393 166.03 117.136 86.5717 36.5459 39.5623 29.6952 28.8945 26.4212 18.5833 17.7771 17.5354 13.5801 12.2817 12.1909 11.9806 10.1147 9.86967 9.43555 9.25993 8.90249 7.68109 7.59492 7.28706 6.8921 6.81993 6.66411 6.65046 6.53946 6.39607
threshold=33.980000000000011 5.5000000000000009 12.500000000000002 8.5000000000000018 705.50000000000011 27.625000000000004 23.305000000000003 11.500000000000002 13.500000000000002 22.500000000000004 16.500000000000004 20.500000000000004 165.50000000000003 522.00000000000011 4.5000000000000009 26.695000000000004 23.150000000000002 10.500000000000002 12.500000000000002 147.50000000000003 23.245000000000001 11.500000000000002 94.500000000000014 21.500000000000004 34.500000000000007 0.51826400000000017 15.500000000000002 414.50000000000006 537.00000000000011 199.50000000000003
decision_type=2 2 2 2 2 2 2 2 2 2 2 2 2 2 2 2 2 2 2 2 2 2 2 2 2 2 2 2 2 2
left_child=1 4 11 7 5 9 18 20 15 12 17 14 16 -6 19 -8 28 -4 -5 22 -3 -11 -2 -19 -9 -12 -7 -10 -1 -13
right_child=2 3 10 6 13 26 8 24 27 21 25 29 -14 -15 -16 -17 -18 23 -20 -21 -22 -23 -24 -25 -26 -27 -28 -29 -30 -31
leaf_value=0.0012088528558468589 0.0041450287427087975 -0.0026050099526034971 -0.0029164453905700201 -0.0013259406215430547 -0.001491180893463418 0.0031260811396265926 -0.00011005905490975114 -0.0044080508917470054 -0.0027574953069126914 -0.0025947426066833192 -0.0031398310530930756 0.0077046978444606064 -0.0030293174261507923 0.0021516454080119729 0.0031022398905799151 0.0018062909379391685 0.0027232439908460322 0.0024644390724369147 -0.0028359633775580529 0.0013212687597565708 -0.00063017862465818196 0.0012649535962744899 0.006041055005008799 -0.00092232328903051682 0.00022387730178183342 0.0029903572431898544 0.0056938244462982424 -0.00083663685915448766 -0.00093225473254411064 0.0048018744888655637
leaf_weight=1053 350 965 176 1875 647 567 648 1210 252 204 20 250 73 108 506 657 417 89 531 63 299 69 533 222 33 196 123 633 165 109
leaf_count=1053 350 965 176 1875 647 567 648 1210 252 204 20 250 73 108 506 657 417 89 531 63 299 69 533 222 33 196 123 633 165 109
internal_value=-1.18837e-11 -0.000835577 0.00349952 -0.00170769 0.000972539 0.00152165 -0.000892319 -0.00320248 -4.98014e-05 0.000803386 3.49905e-05 0.00484439 0.0011906 -0.000970088 0.00435511 0.000854724 0.00137902 -0.00102406 -0.0016592 0.00502525 -0.00213786 -0.00161921 0.00528952 4.68788e-05 -0.00428508 0.00242275 0.00358381 -0.00138359 0.000918801 0.00682334
internal_weight=13043 10529 2514 7103 3426 2671 4596 2507 2190 1981 703 1811 1708 755 1452 1305 1635 487 2406 946 1264 273 883 311 1243 216 690 885 1218 359
internal_count=13043 10529 2514 7103 3426 2671 4596 2507 2190 1981 703 1811 1708 755 1452 1305 1635 487 2406 946 1264 273 883 311 1243 216 690 885 1218 359
is_linear=0
shrinkage=0.01


Tree=21
num_leaves=31
num_cat=0
split_feature=3 15 15 0 3 2 15 2 3 15 2 0 15 8 9 6 12 12 11 15 9 10 15 0 6 11 12 6 9 0
split_gain=373.803 162.861 114.805 73.418 48.3836 23.9346 22.331 18.5418 18.5081 17.6112 17.4233 17.2542 15.3261 14.0978 13.406 13.1926 14.1039 12.146 11.7786 10.0142 9.71986 10.0525 8.63645 8.38532 7.68895 7.58696 6.84955 6.84279 6.8178 6.80119
threshold=33.980000000000011 6.5000000000000009 12.500000000000002 8.5000000000000018 24.535000000000004 22.500000000000004 11.500000000000002 22.500000000000004 22.345000000000002 22.500000000000004 16.500000000000004 27.500000000000004 5.5000000000000009 109.50000000000001 159.50000000000003 537.00000000000011 165.50000000000003 147.50000000000003 313.50000000000006 5.5000000000000009 103.50000000000001 730.50000000000011 11.500000000000002 11.500000000000002 358.50000000000006 109.50000000000001 117.50000000000001 1613.5000000000002 122.50000000000001 19.500000000000004
decision_type=2 2 2 2 2 2 2 2 2 2 2 2 2 2 2 2 2 2 2 2 2 2 2 2 2 2 2 2 2 2
left_child=1 4 11 6 7 18 25 12 22 -10 20 14 15 -7 17 16 -1 24 23 -16 -4 -22 -5 -6 -2 -3 -13 -9 -8 -12
right_child=2 3 10 8 5 13 28 27 9 -11 29 26 -14 -15 19 -17 -18 -19 -20 -21 21 -23 -24 -25 -26 -27 -28 -29 -30 -31
leaf_value=0.0014163302314087898 0.0049777336974244574 -0.00092655620030838049 -0.0028109982611000616 -0.0013101393889487503 0.0020807935740047947 -0.001286366040757323 -0.004930460376961183 -0.0014563072781278526 4.5657303195876683e-05 -0.0023604417933471111 0.0013107377652577155 0.0089766589800516754 -0.0011846313504814104 0.0031612321964755497 0.0061686225631315938 -0.00082489475779404329 -0.0032652662913588916 -0.00030267476647471389 -0.00057428350059634387 0.0037608937948197126 -0.0013100590150823038 0.0024707043128942784 -0.0028053863825474239 0.0037405924110843463 0.0029919963233777775 -0.0028175225694352475 0.0031477691714341446 -0.0046121452784681893 -0.0034452654801154698 0.0052931264232275854
leaf_weight=1199 392 308 186 1141 677 305 667 399 1630 374 157 126 627 93 559 452 68 72 111 250 189 112 584 553 388 682 24 83 576 59
leaf_count=1199 392 308 186 1141 677 305 667 399 1630 374 157 126 627 93 559 452 68 72 111 250 189 112 584 553 388 682 24 83 576 59
internal_value=-6.64894e-12 -0.000827221 0.00346452 -0.00191574 0.000593782 0.00190636 -0.00334976 -0.000213348 -0.00105701 -0.000403385 3.46406e-05 0.00479595 0.000153677 -0.000247103 0.00450262 0.00064182 0.00116507 0.0036272 0.00254549 0.00542458 -0.00101382 9.67366e-05 -0.00181636 0.00282703 0.00398996 -0.00222922 0.00804404 -0.00199974 -0.00424223 0.00239852
internal_weight=13043 10529 2514 5962 4567 1739 2233 2828 3729 2004 703 1811 2346 398 1661 1719 1267 852 1341 809 487 301 1725 1230 780 990 150 482 1243 216
internal_count=13043 10529 2514 5962 4567 1739 2233 2828 3729 2004 703 1811 2346 398 1661 1719 1267 852 1341 809 487 301 1725 1230 780 990 150 482 1243 216
is_linear=0
shrinkage=0.01


Tree=22
num_leaves=31
num_cat=0
split_feature=3 15 15 0 6 3 3 15 15 12 2 0 0 15 9 2 0 10 15 12 3 9 15 10 6 15 3 0 8 8
split_gain=366.364 159.688 112.52 83.1964 35.273 38.3059 28.627 28.0163 27.7113 17.9377 17.0766 16.9581 12.9759 11.7967 11.7798 11.5262 9.61189 9.1698 9.07804 8.91063 8.6819 7.30144 7.11021 7.0894 10.8317 6.74854 6.71664 6.49034 6.22173 6.21478
threshold=33.980000000000011 5.5000000000000009 12.500000000000002 8.5000000000000018 705.50000000000011 27.625000000000004 24.535000000000004 13.500000000000002 11.500000000000002 147.50000000000003 16.500000000000004 20.500000000000004 12.500000000000002 4.5000000000000009 522.00000000000011 26.500000000000004 10.500000000000002 634.50000000000011 11.500000000000002 147.50000000000003 23.245000000000001 92.500000000000014 21.500000000000004 1138.5000000000002 658.50000000000011 34.500000000000007 58.215000000000011 15.500000000000002 21.500000000000004 86.500000000000014
decision_type=2 2 2 2 2 2 2 2 2 2 2 2 2 2 2 2 2 2 2 2 2 2 2 2 2 2 2 2 2 2
left_child=1 4 11 8 5 9 17 -8 20 12 16 13 15 19 -6 28 -4 18 -5 21 -3 -2 -18 24 -9 -10 29 -7 -1 -12
right_child=2 3 10 6 14 27 7 23 25 -11 26 -13 -14 -15 -16 -17 22 -19 -20 -21 -22 -23 -24 -25 -26 -27 -28 -29 -30 -31
leaf_value=-0.00047312142229924783 0.0038223890357596034 -0.0025583375638418403 -0.0028711901417806406 -0.0016071122065396798 -0.0014645285387717799 0.0030711918781680669 0.0012307969599730574 -0.0012370633707015164 -0.004321490146677695 -0.0026245083563498682 0.0026401515445075665 0.0066940886653638065 0.00246768147851601 0.0030343827679974174 0.0021030904627750042 -0.0023399921822454782 0.0024412249529399397 -0.001039731555201156 -0.0035552061777804158 0.0012925934603822138 -0.00060812564376729191 0.0057919955054227925 -0.00090419017185398311 0.0004777476744070732 -0.0049685187362502889 0.00026194191678906932 0.0064543963881099932 0.0056052358581767815 0.0012287129523026268 -0.0017100244708532512
leaf_weight=277 272 965 176 775 647 567 995 536 1210 143 139 359 479 506 108 125 89 1674 346 63 299 611 222 179 91 33 34 123 957 43
leaf_count=277 272 965 176 775 647 567 995 536 1210 143 139 359 479 506 108 125 89 1674 346 63 299 611 222 179 91 33 34 123 957 43
internal_value=1.42964e-11 -0.000818949 0.00342988 -0.00167424 0.0009543 0.00149377 -0.000874927 0.00010825 -0.0031396 0.000786996 3.42942e-05 0.00474799 0.00105242 0.00426683 -0.000954194 0.000553587 -0.00100368 -0.00150845 -0.0022084 0.00492604 -0.00209701 0.00518528 5.31794e-05 -0.00127752 -0.00177863 -0.00419981 0.00237453 0.00352291 0.000846697 0.00161236
internal_weight=13043 10529 2514 7103 3426 2671 4596 1801 2507 1981 703 1811 1838 1452 755 1359 487 2795 1121 946 1264 883 311 806 627 1243 216 690 1234 182
internal_count=13043 10529 2514 7103 3426 2671 4596 1801 2507 1981 703 1811 1838 1452 755 1359 487 2795 1121 946 1264 883 311 806 627 1243 216 690 1234 182
is_linear=0
shrinkage=0.01


Tree=23
num_leaves=31
num_cat=0
split_feature=3 15 15 0 3 2 15 2 3 15 2 0 15 8 9 6 12 12 6 15 9 10 15 6 11 0 12 6 9 0
split_gain=359.074 156.635 110.281 70.5082 46.6539 23.0722 21.4272 17.9646 17.8344 17.0256 16.7368 16.7068 14.6404 13.5808 13.0157 12.7433 13.5923 11.7875 11.4809 9.61462 9.47806 9.80876 8.34881 7.49865 7.41831 7.02302 6.71325 6.69095 6.67578 6.61744
threshold=33.980000000000011 6.5000000000000009 12.500000000000002 8.5000000000000018 24.535000000000004 22.500000000000004 11.500000000000002 22.500000000000004 22.345000000000002 22.500000000000004 16.500000000000004 27.500000000000004 5.5000000000000009 109.50000000000001 159.50000000000003 537.00000000000011 165.50000000000003 147.50000000000003 663.00000000000011 5.5000000000000009 103.50000000000001 730.50000000000011 12.500000000000002 358.50000000000006 109.50000000000001 19.500000000000004 117.50000000000001 1613.5000000000002 122.50000000000001 19.500000000000004
decision_type=2 2 2 2 2 2 2 2 2 2 2 2 2 2 2 2 2 2 2 2 2 2 2 2 2 2 2 2 2 2
left_child=1 4 11 6 7 18 24 12 22 -10 20 14 15 -7 17 16 -1 23 25 -16 -4 -22 -5 -2 -3 -6 -13 -9 -8 -12
right_child=2 3 10 8 5 13 28 27 9 -11 29 26 -14 -15 19 -17 -18 -19 -20 -21 21 -23 -24 -25 -26 -27 -28 -29 -30 -31
leaf_value=0.0013895369225692693 0.0048821282925141252 -0.00089784920391741566 -0.0027683280173173399 -0.001362608847283324 0.002689488697115887 -0.0012626172188119811 -0.0048388341398744933 -0.0014307520713220656 4.6403478397530699e-05 -0.0023193581552038663 0.0012778025300236077 0.0088199514872024931 -0.0011565096518975436 0.0031026699123603684 0.006049357185636736 -0.000812909897776507 -0.0032063685554791898 -0.00032215543272387656 0.00042745734742454216 0.003690159609466791 -0.0012866282153864781 0.002448026737692999 -0.0029358043850022469 0.0029211182317566897 -0.0027676815237033846 0.0057296464594489916 0.0030493505772513645 -0.0045513783467103202 -0.003369189495010182 0.0052060249965574781
leaf_weight=1199 392 308 186 1265 1036 305 667 399 1630 374 157 126 627 93 559 452 68 72 223 250 189 112 460 388 682 82 24 83 576 59
leaf_count=1199 392 308 186 1265 1036 305 667 399 1630 374 157 126 627 93 559 452 68 72 223 250 189 112 460 388 682 82 24 83 576 59
internal_value=-4.2138e-12 -0.00081076 0.00339558 -0.00187827 0.000582819 0.00187172 -0.00328359 -0.000209752 -0.00103673 -0.000395111 3.39512e-05 0.00470051 0.000151515 -0.000242588 0.00441187 0.000628613 0.00114287 0.00354929 0.00249923 0.00532031 -0.00099364 0.000103011 -0.00178213 0.00390665 -0.00218596 0.00291247 0.00789666 -0.00196812 -0.00415781 0.00235079
internal_weight=13043 10529 2514 5962 4567 1739 2233 2828 3729 2004 703 1811 2346 398 1661 1719 1267 852 1341 809 487 301 1725 780 990 1118 150 482 1243 216
internal_count=13043 10529 2514 5962 4567 1739 2233 2828 3729 2004 703 1811 2346 398 1661 1719 1267 852 1341 809 487 301 1725 780 990 1118 150 482 1243 216
is_linear=0
shrinkage=0.01


Tree=24
num_leaves=31
num_cat=0
split_feature=3 15 15 0 6 3 3 15 15 0 2 0 15 9 8 0 10 15 12 3 11 9 15 10 6 0 15 14 0 11
split_gain=351.928 153.59 108.087 79.9589 33.9711 37.0227 27.555 27.094 26.5735 17.5864 16.4037 16.3997 11.4157 11.3668 9.5602 9.36079 8.95889 8.79009 8.57386 8.46318 7.14512 7.03879 6.93766 6.90872 10.5878 6.69339 6.60797 6.58846 6.29076 6.12179
threshold=33.980000000000011 5.5000000000000009 12.500000000000002 8.5000000000000018 705.50000000000011 27.625000000000004 24.535000000000004 13.500000000000002 11.500000000000002 9.5000000000000018 16.500000000000004 20.500000000000004 4.5000000000000009 522.00000000000011 12.500000000000002 10.500000000000002 634.50000000000011 10.500000000000002 147.50000000000003 23.245000000000001 260.50000000000006 94.500000000000014 21.500000000000004 1138.5000000000002 658.50000000000011 12.500000000000002 34.500000000000007 0.51826400000000017 15.500000000000002 199.50000000000003
decision_type=2 2 2 2 2 2 2 2 2 2 2 2 2 2 2 2 2 2 2 2 2 2 2 2 2 2 2 2 2 2
left_child=1 4 11 8 5 9 16 -8 19 14 15 12 18 -6 -1 -4 17 -5 21 -3 25 -2 -17 24 -9 -11 -10 -12 -7 -13
right_child=2 3 10 6 13 28 7 23 26 20 27 29 -14 -15 -16 22 -18 -19 -20 -21 -22 -23 -24 -25 -26 -27 -28 -29 -30 -31
leaf_value=-0.0027193351939320564 0.0039813109284665962 -0.0025125359600757301 -0.002826662952376699 -0.0015333265414604095 -0.0014378461622006162 0.0030159741102527282 0.0012106631595908135 -0.0012152699903114144 -0.004236640105574307 0.0011077429636110203 -0.0031400859388522806 0.0074295519483089448 0.0029679514607230547 0.0020666810868445922 0.00011649196812465306 0.0024181484963137949 -0.0010160972956911407 -0.0034004453952088658 0.0012646846947748037 -0.00058704684984116481 -0.0010654807312560272 0.0058066009056508038 -0.0008864245818299137 0.00047673542994235813 -0.0049044790948423872 0.0026718038065922196 0.00029880389105528592 0.0028851760115132345 0.0055107532417386527 0.0045896514162737361
leaf_weight=150 350 965 176 738 647 567 995 536 1210 713 20 250 506 108 573 89 1674 383 63 299 101 533 222 179 91 444 33 196 123 109
leaf_count=150 350 965 176 738 647 567 995 536 1210 713 20 250 506 108 573 89 1674 383 63 299 101 533 222 179 91 444 33 196 123 109
internal_value=-1.53926e-13 -0.000802652 0.00336162 -0.00164146 0.000936408 0.00146582 -0.000857846 0.000106748 -0.00307802 0.000770993 3.36117e-05 0.0046535 0.00418033 -0.000936536 -0.000471854 -0.000983704 -0.0014794 -0.00217124 0.00482881 -0.00205706 0.00148528 0.0050831 5.92571e-05 -0.00125603 -0.00175071 0.00170795 -0.00411623 0.00232728 0.0034607 0.0065673
internal_weight=13043 10529 2514 7103 3426 2671 4596 1801 2507 1981 703 1811 1452 755 723 487 2795 1121 946 1264 1258 883 311 806 627 1157 1243 216 690 359
internal_count=13043 10529 2514 7103 3426 2671 4596 1801 2507 1981 703 1811 1452 755 723 487 2795 1121 946 1264 1258 883 311 806 627 1157 1243 216 690 359
is_linear=0
shrinkage=0.01


Tree=25
num_leaves=31
num_cat=0
split_feature=3 15 15 0 3 2 15 15 3 15 0 2 2 8 9 12 11 6 10 9 10 15 0 7 6 11 9 3 12 15
split_gain=344.925 150.641 105.936 67.7155 44.9522 22.3081 20.5602 17.4925 17.2104 17.5968 16.1797 16.0773 15.3066 13.1031 12.6098 11.438 11.2028 10.699 9.84032 9.2423 9.57099 9.21585 7.97095 7.85515 7.33666 7.25345 6.53672 6.53033 6.52952 6.4093
threshold=33.980000000000011 6.5000000000000009 12.500000000000002 8.5000000000000018 24.535000000000004 22.500000000000004 11.500000000000002 3.5000000000000004 23.810000000000006 22.500000000000004 27.500000000000004 16.500000000000004 22.500000000000004 109.50000000000001 159.50000000000003 147.50000000000003 313.50000000000006 492.50000000000006 634.50000000000011 103.50000000000001 730.50000000000011 5.5000000000000009 11.500000000000002 281.00000000000006 358.50000000000006 109.50000000000001 122.50000000000001 58.215000000000011 117.50000000000001 13.500000000000002
decision_type=2 2 2 2 2 2 2 2 2 2 2 2 2 2 2 2 2 2 2 2 2 2 2 2 2 2 2 2 2 2
left_child=1 4 10 6 7 16 25 23 18 -10 14 19 17 -7 15 24 22 -9 29 -4 -21 -16 -6 -1 -2 -3 -8 -13 -12 -5
right_child=2 3 11 8 5 13 26 12 9 -11 28 27 -14 -15 21 -17 -18 -19 -20 20 -22 -23 -24 -25 -26 -27 -28 -29 -30 -31
leaf_value=0.00095136326411166059 0.0047908011319742977 -0.00086980936320488385 -0.0027263432991833638 -0.0020315278219475556 0.0020012458560072117 -0.0012437244799812554 -0.0047489634662799566 0.00036799054206007131 0.00022790094499262119 -0.0022960295010268261 0.0086628659483459266 0.0015524817024777223 -0.00235978895297685 0.0030441036416838569 0.0059308518176441859 -0.00033971379976719616 -0.0005883319318915407 -0.0012900246300113192 -0.0010815346812242156 -0.0012636338106218586 0.0024254781921834883 0.0036210965172573922 0.003619515108707518 0.0070197883485393084 0.0028510876032736836 -0.0027187472400753937 -0.0032947059806340603 0.0063268875111551848 0.0029717772958489756 -0.0041957398171705955
leaf_weight=701 392 308 186 615 677 305 667 1066 1370 346 126 182 426 93 559 72 111 613 1222 189 112 250 553 22 388 682 576 34 24 176
leaf_count=701 392 308 186 615 677 305 667 1066 1370 346 126 182 426 93 559 72 111 613 1222 189 112 250 553 22 388 682 576 34 24 176
internal_value=1.08115e-12 -0.000794626 0.00332801 -0.00184151 0.00057203 0.0018372 -0.00321872 -0.000205953 -0.00101681 -0.000281003 0.00460697 3.32756e-05 -0.000666878 -0.000241795 0.00432292 0.00347389 0.00245424 -0.000237348 -0.00164405 -0.000973867 0.000109059 0.00521708 0.00272881 0.00113602 0.00382592 -0.00214352 -0.00407507 0.00230401 0.00775229 -0.00251307
internal_weight=13043 10529 2514 5962 4567 1739 2233 2828 3729 1716 1811 703 2105 398 1661 852 1341 1679 2013 487 301 809 1230 723 780 990 1243 216 150 791
internal_count=13043 10529 2514 5962 4567 1739 2233 2828 3729 1716 1811 703 2105 398 1661 852 1341 1679 2013 487 301 809 1230 723 780 990 1243 216 150 791
is_linear=0
shrinkage=0.01


Tree=26
num_leaves=31
num_cat=0
split_feature=3 15 15 0 6 3 3 15 15 12 0 2 0 3 15 2 9 0 15 3 12 9 15 15 14 10 0 11 8 11
split_gain=338.061 147.88 103.828 76.8299 32.9308 35.7733 26.5416 25.4686 24.0557 17.1344 15.8597 15.7573 12.2929 11.1442 11.0475 10.9536 10.9278 9.11622 8.5607 8.26589 8.24923 6.78085 6.7693 6.47032 6.44512 6.41741 6.12665 6.05792 5.95105 5.92931
threshold=33.980000000000011 5.5000000000000009 12.500000000000002 8.5000000000000018 705.50000000000011 27.625000000000004 23.305000000000003 11.500000000000002 13.500000000000002 147.50000000000003 20.500000000000004 16.500000000000004 12.500000000000002 26.695000000000004 4.5000000000000009 26.500000000000004 522.00000000000011 10.500000000000002 12.500000000000002 23.245000000000001 147.50000000000003 88.500000000000014 21.500000000000004 34.500000000000007 0.51826400000000017 414.50000000000006 15.500000000000002 231.50000000000003 21.500000000000004 199.50000000000003
decision_type=2 2 2 2 2 2 2 2 2 2 2 2 2 2 2 2 2 2 2 2 2 2 2 2 2 2 2 2 2 2
left_child=1 4 10 7 5 9 18 19 13 12 14 17 15 -8 20 28 -6 -4 27 -3 21 -2 -19 -9 -13 -10 -7 -5 -1 -12
right_child=2 3 11 6 16 26 8 23 25 -11 29 24 -14 -15 -16 -17 -18 22 -20 -21 -22 -23 -24 -25 -26 -27 -28 -29 -30 -31
leaf_value=-0.0004731767038589458 0.0036039287470259126 -0.0024685440283230089 -0.0027828518544662406 -0.0010090501451246626 -0.001415826296995191 0.0029630376728345203 -0.00011250662259516064 -0.0041534663541184756 -0.0026673943473077897 -0.0025762463981038211 0.0072915105782449243 -0.0031265973420813681 0.0023949138493843899 0.001735738054491279 0.002902911400119682 -0.0022889231631904841 0.0020203570273911787 0.0023952109785227295 -0.0026875182420768198 -0.00056563037993741867 0.0012375191180774617 0.0055398174986799964 -0.00086901891523256882 0.00033449182456189936 0.0028327608768286528 -0.00078049247623178484 0.0054250594779727901 -0.0025945564863968048 0.0011912257262461981 0.0044966130359354647
leaf_weight=277 254 965 176 1591 647 567 648 1210 252 143 250 20 479 657 506 125 108 89 531 299 63 629 222 33 196 633 123 284 957 109
leaf_count=277 254 965 176 1591 647 567 648 1210 252 143 250 20 479 657 506 125 108 89 531 299 63 629 222 33 196 633 123 284 957 109
internal_value=3.03612e-12 -0.000786679 0.00329473 -0.00160974 0.00091975 0.001441 -0.00084162 -0.00301792 -4.50957e-05 0.00075799 0.0045609 3.29429e-05 0.0010174 0.000817989 0.00409558 0.000531875 -0.000924293 -0.000964128 -0.00156664 -0.00201841 0.00473352 0.00498295 6.51176e-05 -0.00403432 0.00228097 -0.00131778 0.00340192 -0.0012492 0.000817612 0.00644292
internal_weight=13043 10529 2514 7103 3426 2671 4596 2507 2190 1981 1811 703 1838 1305 1452 1359 755 487 2406 1264 946 883 311 1243 216 885 690 1875 1234 359
internal_count=13043 10529 2514 7103 3426 2671 4596 2507 2190 1981 1811 703 1838 1305 1452 1359 755 487 2406 1264 946 883 311 1243 216 885 690 1875 1234 359
is_linear=0
shrinkage=0.01


Tree=27
num_leaves=31
num_cat=0
split_feature=3 15 15 0 6 3 3 15 15 0 0 2 9 3 12 9 9 8 10 15 3 15 15 6 11 9 14 0 12 10
split_gain=331.333 144.937 101.775 75.3009 32.2755 35.0615 26.0134 24.9618 23.577 16.9062 15.4108 15.1557 11.7178 10.9224 10.8369 10.7104 10.2209 9.20869 8.46555 8.40421 8.1014 7.42327 7.40603 6.9626 6.90768 6.40056 6.38443 6.35298 6.35092 6.2897
threshold=33.980000000000011 5.5000000000000009 10.500000000000002 8.5000000000000018 705.50000000000011 27.625000000000004 23.305000000000003 11.500000000000002 13.500000000000002 9.5000000000000018 27.500000000000004 16.500000000000004 165.50000000000003 26.695000000000004 147.50000000000003 522.00000000000011 103.50000000000001 12.500000000000002 730.50000000000011 11.500000000000002 23.245000000000001 21.500000000000004 5.5000000000000009 179.50000000000003 260.50000000000006 122.50000000000001 0.51826400000000017 12.500000000000002 117.50000000000001 414.50000000000006
decision_type=2 2 2 2 2 2 2 2 2 2 2 2 2 2 2 2 2 2 2 2 2 2 2 2 2 2 2 2 2 2
left_child=1 4 10 7 5 9 19 20 13 17 12 16 14 -8 23 -6 -4 -1 21 -5 -3 -18 -14 -2 27 -9 -13 -11 -12 -10
right_child=2 3 11 6 15 -7 8 25 29 24 28 26 22 -15 -16 -17 18 -19 -20 -21 -22 -23 -24 -25 -26 -27 -28 -29 -30 -31
leaf_value=-0.0026739411918446422 0.0052873098773834042 -0.0024438586685024779 -0.0026695840505999513 -0.0011849415679937201 -0.0014016680363810388 0.0033679006615707626 -0.00011138155052411791 -0.0046608138743877365 -0.0026407204713443269 0.0010849409047017844 0.0085086458022632303 -0.0030953312013298276 0.0058305767653562988 0.00171838065423284 -0.00024623923095494087 0.0020001534549346951 0.0023390138553455475 0.00010926352989275568 0.0024190227305921526 -0.0025052749854142168 -0.0005599741164414231 -0.0021176955240111597 0.0035785391391024435 0.0032559769181688585 -0.00105727240046726 -0.0032217825465623816 0.0028304056469583882 0.0026087099725646936 0.0028959288195862126 -0.00077268757181327445
leaf_weight=150 234 965 192 1739 647 690 648 667 252 713 126 20 527 657 71 108 50 573 115 667 299 148 202 605 101 576 200 444 24 633
leaf_count=150 234 965 192 1739 647 690 648 667 252 713 126 20 527 657 71 108 50 573 115 667 299 148 202 605 101 576 200 444 24 633
internal_value=-1.44737e-11 -0.000778813 0.00326178 -0.00159365 0.000910552 0.00142659 -0.000833204 -0.00298774 -4.46447e-05 0.00075041 0.00454264 0.00010115 0.00426186 0.000809809 0.00350507 -0.00091505 -0.00085315 -0.000468165 0.000261084 -0.00155097 -0.00199822 -0.000992264 0.00520656 0.00382252 0.00145075 -0.00399397 0.0022917 0.00166969 0.00761061 -0.0013046
internal_weight=13043 10529 2514 7103 3426 2671 4596 2507 2190 1981 1789 725 1639 1305 910 755 505 723 313 2406 1264 198 729 839 1258 1243 220 1157 150 885
internal_count=13043 10529 2514 7103 3426 2671 4596 2507 2190 1981 1789 725 1639 1305 910 755 505 723 313 2406 1264 198 729 839 1258 1243 220 1157 150 885
is_linear=0
shrinkage=0.01


Tree=28
num_leaves=31
num_cat=0
split_feature=3 15 15 0 3 2 15 2 3 15 0 2 15 3 9 6 12 12 11 0 15 6 0 11 11 6 15 15 6 0
split_gain=324.74 142.065 99.7602 63.758 42.6403 21.1935 19.3146 16.8021 16.303 16.2136 15.3561 15.1384 13.2352 12.5182 12.0086 11.7487 12.9656 10.8768 10.7359 8.8776 8.66406 8.0978 7.64304 7.54542 7.0756 7.06777 6.8538 6.5426 6.45671 6.39803
threshold=33.980000000000011 6.5000000000000009 12.500000000000002 8.5000000000000018 24.535000000000004 22.500000000000004 11.500000000000002 22.500000000000004 21.825000000000003 22.500000000000004 27.500000000000004 16.500000000000004 5.5000000000000009 27.995000000000001 159.50000000000003 537.00000000000011 165.50000000000003 147.50000000000003 313.50000000000006 10.500000000000002 5.5000000000000009 374.50000000000006 11.500000000000002 398.00000000000006 109.50000000000001 358.50000000000006 11.500000000000002 21.500000000000004 1613.5000000000002 19.500000000000004
decision_type=2 2 2 2 2 2 2 2 2 2 2 2 2 2 2 2 2 2 2 2 2 2 2 2 2 2 2 2 2 2
left_child=1 4 10 6 7 18 24 12 26 23 14 19 15 -7 17 16 -1 25 22 -4 -16 -15 -6 -10 -3 -2 -5 -21 -9 -13
right_child=2 3 11 8 5 13 -8 28 9 -11 -12 29 -14 21 20 -17 -18 -19 -20 27 -22 -23 -24 -25 -26 -27 -28 -29 -30 -31
leaf_value=0.0013361467391933715 0.0046553365990034861 -0.00082391319214366373 -0.0027401507673361766 -0.0012639655634698289 0.0019461383999635205 -0.0025934276290475585 -0.0039540341533330879 -0.0013741972115833806 0.00016642931489515691 -0.0022719801834318789 0.0075345049971714618 0.0011802929779523939 -0.0010958419098383992 0.0043796382683875239 0.0057582196428345549 -0.00078267694580723098 -0.0031525499811943841 -0.00035385435679927471 -0.00058870133922880028 0.0023610424195949949 0.0035186778560886162 0.00012602056096288928 0.0035307715846533815 -0.0028239447513894113 -0.0026500426943033601 0.0027515007559565309 -0.0026243058715107632 -0.0008480629543952124 -0.0044397132170487597 0.0050428434073041054
leaf_weight=1199 392 308 176 1068 677 144 1243 399 1625 380 150 157 627 58 559 452 68 72 111 89 250 196 553 89 682 388 567 222 83 59
leaf_count=1199 392 308 176 1068 677 144 1243 399 1625 380 150 157 627 58 559 452 68 72 111 89 250 196 553 89 682 388 567 222 83 59
internal_value=1.1408e-11 -0.000771024 0.00322916 -0.00178767 0.000556158 0.00178837 -0.00312403 -0.000201555 -0.000987432 -0.000403169 0.00447029 3.19061e-05 0.000147828 -0.000238026 0.00419356 0.000601452 0.00109524 0.00336502 0.00238979 -0.000945388 0.00506615 0.00109732 0.00265858 1.11532e-05 -0.00208191 0.0037083 -0.00173572 7.02984e-05 -0.00190208 0.00223534
internal_weight=13043 10529 2514 5962 4567 1739 2233 2828 3729 2094 1811 703 2346 398 1661 1719 1267 852 1341 487 809 254 1230 1714 990 780 1635 311 482 216
internal_count=13043 10529 2514 5962 4567 1739 2233 2828 3729 2094 1811 703 2346 398 1661 1719 1267 852 1341 487 809 254 1230 1714 990 780 1635 311 482 216
is_linear=0
shrinkage=0.01


Tree=29
num_leaves=31
num_cat=0
split_feature=3 15 15 0 6 3 3 15 15 0 0 3 0 15 9 15 10 8 10 15 3 12 11 10 6 2 9 10 15 0
split_gain=318.278 139.408 97.7835 72.3645 31.1408 33.8659 25.0771 24.8074 23.9388 16.4292 14.9673 14.9501 11.6787 16.8332 10.3617 9.93383 9.12274 8.97873 8.55433 8.14406 7.90108 7.79108 6.67056 6.59695 10.3656 6.53465 6.41622 6.38971 6.33554 6.18516
threshold=33.980000000000011 5.5000000000000009 10.500000000000002 8.5000000000000018 705.50000000000011 27.625000000000004 24.535000000000004 13.500000000000002 11.500000000000002 9.5000000000000018 20.500000000000004 51.220000000000006 9.5000000000000018 39.500000000000007 522.00000000000011 4.5000000000000009 477.00000000000006 12.500000000000002 634.50000000000011 10.500000000000002 23.245000000000001 147.50000000000003 260.50000000000006 1138.5000000000002 658.50000000000011 15.500000000000002 94.500000000000014 714.50000000000011 34.500000000000007 12.500000000000002
decision_type=2 2 2 2 2 2 2 2 2 2 2 2 2 2 2 2 2 2 2 2 2 2 2 2 2 2 2 2 2 2
left_child=1 4 10 8 5 9 18 -8 20 17 15 12 13 -4 -6 21 -13 -1 19 -5 -3 26 29 24 -9 27 -2 -14 -10 -11
right_child=2 3 11 6 14 -7 7 23 28 22 -12 16 25 -15 -16 -17 -18 -19 -20 -21 -22 -23 -24 -25 -26 -27 -28 -29 -30 -31
leaf_value=-0.0026434750910227494 0.0037843218401606596 -0.002400157457150017 -0.0040820659103259545 -0.0014719486986551949 -0.0013783449061532322 0.0033083245161333649 0.0011595200311401905 -0.0011543860923023462 -0.0040323956004191912 0.001064410165822046 0.0062874825851546388 0.00090944423857662409 -0.0015268277429383184 0.0037158143432701337 0.0019676423126710925 0.0028360426687904167 0.0066301087860018018 0.00010475875753714308 -0.00095721305158752022 -0.0032691461060441757 -0.0005397096419433472 0.0011963194417988971 -0.0010383661274134301 0.0004924278025770321 -0.0048046784066073187 0.0022053568170457664 0.0055270204781318758 0.0015703313718275988 0.00040857396187317195 0.0025679182813336094
leaf_weight=150 350 965 149 738 647 690 995 536 1210 713 356 63 192 34 108 487 50 573 1674 383 299 63 101 179 91 135 533 102 33 444
leaf_count=150 350 965 149 738 647 690 995 536 1210 713 356 63 192 34 108 487 50 573 1674 383 299 63 101 179 91 135 533 102 33 444
internal_value=1.06371e-11 -0.000763314 0.00319687 -0.00156245 0.000893512 0.00140039 -0.000816986 0.000103215 -0.00292909 0.000735846 0.00445236 9.88363e-05 -0.000518209 -0.00263328 -0.000899714 0.00399647 0.00344071 -0.000465414 -0.00140993 -0.00208598 -0.00196007 0.00459385 0.00142624 -0.00120078 -0.00168417 0.000384023 0.00483626 -0.000452303 -0.00391449 0.00164138
internal_weight=13043 10529 2514 7103 3426 2671 4596 1801 2507 1981 1789 725 612 183 755 1433 113 723 2795 1121 1264 946 1258 806 627 429 883 294 1243 1157
internal_count=13043 10529 2514 7103 3426 2671 4596 1801 2507 1981 1789 725 612 183 755 1433 113 723 2795 1121 1264 946 1258 806 627 429 883 294 1243 1157
is_linear=0
shrinkage=0.01


Tree=30
num_leaves=31
num_cat=0
split_feature=3 15 15 0 6 3 3 15 15 12 0 2 9 0 12 3 2 9 9 10 15 15 3 6 6 9 3 12 10 0
split_gain=311.944 136.633 95.8772 70.9244 30.5211 33.192 24.5792 23.4624 22.4233 16.2376 14.8633 14.5503 11.6417 11.4644 10.5216 10.475 10.4576 10.1555 8.68743 8.95893 8.31995 8.01032 7.74385 6.92022 6.77769 6.26723 6.26133 6.22454 6.12064 5.95667
threshold=33.980000000000011 5.5000000000000009 12.500000000000002 8.5000000000000018 705.50000000000011 27.625000000000004 23.305000000000003 11.500000000000002 13.500000000000002 147.50000000000003 27.500000000000004 16.500000000000004 150.50000000000003 12.500000000000002 147.50000000000003 26.695000000000004 26.500000000000004 522.00000000000011 103.50000000000001 1188.5000000000002 5.5000000000000009 12.500000000000002 23.245000000000001 358.50000000000006 653.00000000000011 122.50000000000001 58.215000000000011 117.50000000000001 414.50000000000006 15.500000000000002
decision_type=2 2 2 2 2 2 2 2 2 2 2 2 2 2 2 2 2 2 2 2 2 2 2 2 2 2 2 2 2 2
left_child=1 4 10 7 5 9 21 22 15 13 12 18 14 16 23 -8 -1 -6 -4 24 -14 -5 -3 -2 -20 -9 -13 -12 -10 -7
right_child=2 3 11 6 17 29 8 25 28 -11 27 26 20 -15 -16 -17 -18 -19 19 -21 -22 -23 -24 -25 -26 -27 -28 -29 -30 -31
leaf_value=0.00079133161080095879 0.0045710126656764586 -0.0023761558680809613 -0.0026266915013673166 -0.0011994537394101111 -0.0013645614762883165 0.0028424900393141349 -0.00011114306769797375 -0.0045352068862764688 -0.0025890870395648691 -0.0025173285541000901 0.0082853393924851269 0.0014548115860440534 0.0056458670271371872 0.0023113019005560741 -0.00037034332597007355 0.0016807520488975039 -0.0022440418949909507 0.0019479658970980114 0.00012892590085061644 0.0029897314030677079 0.0034748875058496142 -0.002590766964921182 -0.00053431261441126048 0.0026774364407113815 -0.0038514954243497601 -0.0031112425198322551 0.0061298483303364581 0.0027287496907714131 -0.00074633045645804391 0.0052701187666838734
leaf_weight=1234 387 965 186 1875 647 567 648 667 252 143 126 182 559 479 72 657 125 108 163 80 258 531 299 385 58 576 34 24 633 123
leaf_count=1234 387 965 186 1875 647 567 648 667 252 143 126 182 559 479 72 657 125 108 163 80 258 531 299 385 58 576 34 24 633 123
internal_value=2.41901e-12 -0.000755681 0.0031649 -0.00154683 0.000884577 0.00138639 -0.000808816 -0.0028998 -4.23031e-05 0.000728487 0.00438163 3.04874e-05 0.00410939 0.000981018 0.0032857 0.000790983 0.00051214 -0.000890717 -0.000927634 0.000122281 0.00496029 -0.00150651 -0.00194047 0.00362668 -0.00091571 -0.00387535 0.0021907 0.00739629 -0.00127105 0.00327524
internal_weight=13043 10529 2514 7103 3426 2671 4596 2507 2190 1981 1811 703 1661 1838 844 1305 1359 755 487 301 817 2406 1264 772 221 1243 216 150 885 690
internal_count=13043 10529 2514 7103 3426 2671 4596 2507 2190 1981 1811 703 1661 1838 844 1305 1359 755 487 301 817 2406 1264 772 221 1243 216 150 885 690
is_linear=0
shrinkage=0.01


Tree=31
num_leaves=31
num_cat=0
split_feature=3 15 15 3 15 2 0 3 0 6 15 10 3 2 0 6 10 12 15 15 0 12 6 11 0 3 15 11 9 12
split_gain=306.131 151.679 95.3478 48.7681 35.3929 27.0621 26.7919 22.0755 20.635 17.1442 16.3548 14.491 14.3069 14.0373 11.8569 11.3654 10.6783 10.6679 9.89283 9.66726 8.80399 8.53577 7.54833 6.5467 7.81149 6.419 6.3374 6.32164 6.31686 6.10749
threshold=28.545000000000005 11.500000000000002 11.500000000000002 36.555000000000007 5.5000000000000009 22.500000000000004 8.5000000000000018 24.535000000000004 11.500000000000002 663.00000000000011 39.500000000000007 1673.5000000000002 23.150000000000002 16.500000000000004 27.500000000000004 537.00000000000011 634.50000000000011 165.50000000000003 21.500000000000004 4.5000000000000009 8.5000000000000018 44.500000000000007 347.50000000000006 223.50000000000003 12.500000000000002 17.665000000000003 34.500000000000007 252.50000000000003 162.50000000000003 117.50000000000001
decision_type=2 2 2 2 2 2 2 2 2 2 2 2 2 2 2 2 2 2 2 2 2 2 2 2 2 2 2 2 2 2
left_child=2 3 4 9 5 12 26 20 10 23 21 -7 15 18 19 17 -8 -1 -10 28 -6 -3 -20 24 -2 -18 -4 -22 -5 -16
right_child=1 8 6 14 7 11 16 -9 13 -11 -12 -13 -14 -15 29 -17 25 -19 22 -21 27 -23 -24 -25 -26 -27 -28 -29 -30 -31
leaf_value=0.0010843272514701593 0.0022603347829755357 -0.00091968857579180334 -0.004158355978990105 0.0041308022833997345 -0.0021854368884247502 -0.0022901295969149898 -0.0029106334508726124 0.00056339175301520596 0.0017045344486498013 0.00020868516191165678 0.0039160324202643501 0.0046902964636683468 0.0021150967253272188 0.0024911946472898124 0.0082024857939945323 -0.0012077985665335709 -0.0030764595090915438 -0.0030900291800498962 0.0002890979207586497 0.0031321607717749566 -0.00085134669541962185 -0.0033710887672285927 -0.0024368150191743992 0.00096322195420664306 0.0041040012228480164 -0.00053931192062795592 0.00043046731118773739 -0.0025507707889005542 0.0057627329488765498 0.0025987801036756971
leaf_weight=1053 533 245 1032 482 1071 421 523 659 167 359 45 32 662 250 126 357 122 65 188 434 1759 338 221 178 404 546 31 250 467 23
leaf_count=1053 533 245 1032 482 1071 421 523 659 167 359 45 32 662 250 126 357 122 65 188 434 1759 338 221 178 404 546 31 250 467 23
internal_value=2.61651e-12 0.00212529 -0.00110437 0.00340786 -0.000475374 0.000423127 -0.00287051 -0.00109776 -0.000526314 0.00210933 -0.00189256 -0.00179703 0.000893755 0.000512434 0.00465724 0.0003456 -0.00184052 0.000841632 -0.000346404 0.00436847 -0.00145319 -0.00234091 -0.00118383 0.00272128 0.00305526 -0.00100268 -0.00402453 -0.00106282 0.00493387 0.00733748
internal_weight=13043 4460 8583 3006 6329 2590 2254 3739 1454 1474 628 453 2137 826 1532 1475 1191 1118 576 1383 3080 583 409 1115 937 668 1063 2009 949 149
internal_count=13043 4460 8583 3006 6329 2590 2254 3739 1454 1474 628 453 2137 826 1532 1475 1191 1118 576 1383 3080 583 409 1115 937 668 1063 2009 949 149
is_linear=0
shrinkage=0.01


Tree=32
num_leaves=31
num_cat=0
split_feature=3 15 15 3 15 2 0 3 0 6 15 10 3 2 0 6 10 12 15 15 0 12 6 11 0 3 15 11 3 11
split_gain=300.039 148.661 93.4504 47.7976 34.6886 26.5236 26.2587 21.6362 20.2244 16.803 16.0294 14.2026 14.0222 13.758 11.6378 11.1392 10.4658 10.4556 9.69597 9.066 8.62879 8.36591 7.39812 6.60511 6.43087 6.29126 6.21128 6.19584 5.90825 5.89661
threshold=28.545000000000005 11.500000000000002 11.500000000000002 36.555000000000007 5.5000000000000009 22.500000000000004 8.5000000000000018 24.535000000000004 11.500000000000002 663.00000000000011 39.500000000000007 1673.5000000000002 23.150000000000002 16.500000000000004 20.500000000000004 537.00000000000011 634.50000000000011 165.50000000000003 21.500000000000004 4.5000000000000009 8.5000000000000018 44.500000000000007 347.50000000000006 199.50000000000003 11.500000000000002 17.665000000000003 34.500000000000007 252.50000000000003 58.215000000000011 329.00000000000006
decision_type=2 2 2 2 2 2 2 2 2 2 2 2 2 2 2 2 2 2 2 2 2 2 2 2 2 2 2 2 2 2
left_child=2 3 4 9 5 12 26 20 10 24 21 -7 15 18 19 17 -8 -1 -10 -5 -6 -3 -20 -16 -2 -18 -4 -22 -15 -14
right_child=1 8 6 14 7 11 16 -9 13 -11 -12 -13 29 28 23 -17 25 -19 22 -21 27 -23 -24 -25 -26 -27 -28 -29 -30 -31
